svm_type c_svc
kernel_type linear
nr_class 2
total_sv 561
rho 0.44199628381823974
label 1 -1
nr_sv 305 256
SV
0.21718272480616446 1:1 2:1 3:1 4:1 13514:1 13516:1 
0.10564708961511386 4:1 5:1 6:2 7:1 8:1 9:1 10:1 11:1 12:1 13:1 14:1 15:1 16:1 17:1 18:1 13514:1 13515:1 
0.023676387113233187 4:2 6:3 12:1 19:1 20:1 21:1 22:1 23:1 24:1 25:1 26:1 27:1 28:1 13514:1 13515:1 
0.011859944399572749 4:1 6:3 30:2 36:1 55:1 139:3 148:1 291:1 387:1 388:1 389:1 390:2 391:1 392:1 393:1 394:1 395:1 396:1 397:1 398:1 399:1 400:1 401:1 402:1 403:1 404:1 405:1 13514:1 13515:1 
0.010693213761489044 4:2 6:7 8:1 18:1 30:1 47:1 52:1 67:2 69:2 75:1 101:1 128:1 289:1 413:1 414:1 415:1 416:1 417:1 418:2 419:3 420:1 421:1 422:1 423:1 424:1 425:1 426:1 427:1 428:2 429:1 430:1 431:1 432:1 433:1 434:1 435:1 436:1 437:1 438:1 439:1 13514:1 13515:1 
0.027090170937345143 4:2 6:4 8:1 18:1 55:1 85:1 133:1 147:1 148:1 379:1 544:1 545:1 546:1 547:1 548:1 549:1 550:1 551:1 552:1 13514:1 13515:1 
0.0020507056093129242 4:1 6:5 8:1 18:1 36:1 47:1 61:1 67:1 69:1 101:1 148:1 193:1 208:1 258:1 553:1 554:1 555:1 556:1 557:1 558:1 559:1 560:1 561:1 562:1 563:1 564:1 565:1 13514:1 13515:1 
0.24424752283797477 4:1 6:1 98:1 480:1 594:1 595:1 596:1 597:1 13514:1 13517:1 
0.002555227487467027 4:7 6:11 12:7 13:8 25:1 36:1 42:2 47:4 51:4 52:3 61:1 85:5 98:3 101:1 106:1 107:1 109:2 118:5 125:1 158:1 162:3 166:1 175:1 193:1 209:2 231:1 318:1 350:1 383:2 426:1 480:3 483:1 504:1 508:3 540:4 660:1 769:1 770:1 771:2 772:2 773:1 774:1 775:1 776:1 777:1 778:1 779:1 780:1 781:1 782:1 783:1 784:1 785:1 786:1 787:1 788:1 789:3 790:1 791:1 792:1 793:1 794:1 795:2 796:1 797:1 798:1 799:1 800:1 801:1 802:2 803:1 804:1 805:1 806:1 807:1 808:1 809:1 810:1 811:1 812:1 813:1 814:1 815:1 816:1 817:1 818:1 819:1 820:1 821:1 822:1 823:1 824:1 825:1 826:1 827:1 828:1 829:1 830:1 831:1 832:1 833:1 834:1 835:1 836:1 837:1 13514:1 13515:1 
0.03445833110041021 4:1 6:3 8:1 13:1 18:1 30:2 55:1 85:1 106:1 133:1 139:1 430:1 723:1 900:1 901:1 902:1 903:2 904:1 905:1 906:1 907:1 908:1 909:1 910:1 911:1 912:1 913:1 914:1 915:1 916:1 917:1 918:1 919:1 920:1 921:1 922:1 923:1 924:1 13514:1 13515:1 
0.007189552071446381 4:2 6:5 12:1 55:1 67:1 69:1 85:1 126:1 133:1 139:1 144:1 373:1 401:1 418:1 723:1 754:1 1021:1 1022:1 1023:1 1024:1 1025:1 1026:1 1027:1 1028:1 1029:1 1030:1 1031:1 13514:1 13515:1 
0.010326557101217942 4:2 6:3 67:1 69:1 166:1 328:1 1032:1 1033:1 1034:1 1035:1 1036:1 1037:1 1038:1 1039:1 13514:1 13515:1 
0.5177267074793509 4:1 6:1 149:1 612:1 1132:1 13514:1 13517:1 
0.13775776455348882 4:1 6:6 8:1 12:1 18:1 106:1 107:1 109:1 118:1 148:1 528:1 552:1 974:1 1262:1 1263:1 1264:1 1265:1 1266:1 1267:1 1268:1 1269:1 1270:1 1271:1 13514:1 13515:1 
0.0054462994703156822 4:1 6:3 98:1 99:2 118:1 175:1 402:1 405:1 1335:1 1406:1 1407:1 1408:1 1409:1 1410:1 1411:1 1412:1 13514:1 13515:1 
0.035813847294957298 4:2 6:3 8:1 9:1 18:1 47:1 67:1 69:1 85:2 236:1 578:1 871:1 1442:1 1443:1 1444:1 1445:1 1446:1 1447:1 1448:1 1449:1 1450:1 1451:1 1452:1 1453:1 1454:1 13514:1 13515:1 
0.057857533643634093 4:1 6:5 12:3 13:1 51:1 109:1 166:1 236:1 500:1 676:1 677:1 733:1 1272:1 1550:1 1551:1 1552:1 1553:1 1554:1 1555:1 1556:1 1557:1 1558:1 1559:1 1560:1 13514:1 13515:1 
0.015727687370921166 2:1 4:2 6:1 32:1 299:1 574:1 1606:1 1607:1 1608:1 1609:1 13514:1 13515:1 
0.020791781913072488 4:3 6:4 12:2 36:1 42:1 47:1 51:1 57:1 85:1 101:2 125:1 150:1 162:1 193:1 236:1 599:1 622:1 644:1 787:1 913:1 1021:1 1130:1 1679:1 1695:1 1696:1 1697:1 1698:1 1699:1 1700:1 1701:1 1702:1 1703:1 1704:1 1705:1 1706:1 1707:1 1708:1 1709:1 1710:1 13514:1 13515:1 
0.10231811946999525 4:1 6:1 119:1 120:1 900:1 901:1 13514:1 13517:1 
0.039220804211950261 4:1 6:4 98:1 99:1 257:2 448:1 450:1 454:1 1059:1 1744:1 1756:1 1757:1 1758:1 1759:1 1760:1 1761:1 13514:1 13515:1 
0.072890720163918246 4:1 6:4 12:3 13:1 47:1 67:1 69:1 101:1 109:1 118:1 175:1 193:1 877:1 987:1 1441:1 1977:1 1978:1 1979:1 1980:1 1981:1 1982:1 1983:1 1984:1 1985:1 1986:1 1987:1 1988:1 13514:1 13515:1 
0.0081469672080739727 4:1 6:4 30:1 418:1 766:1 865:1 983:1 2047:1 2048:1 2049:1 2050:1 2051:1 2052:1 13514:1 13515:1 
0.16646006410369849 4:1 6:1 209:1 1454:1 1522:1 2059:1 13514:1 13517:1 
0.085097986165559553 6:2 31:1 36:1 398:1 461:1 1069:1 2150:1 2151:1 13514:1 13517:1 
0.00078737564397034058 4:3 6:14 8:5 12:8 13:2 18:4 27:1 47:4 51:1 52:2 67:2 69:1 85:1 106:2 109:4 162:1 182:1 231:1 236:1 285:1 286:1 319:1 324:1 326:1 350:1 355:1 473:1 475:1 661:1 696:1 715:1 723:1 933:1 1061:1 1087:1 1113:1 1318:1 1320:1 1322:1 1326:1 1459:3 1538:1 1554:1 1574:1 1683:1 1937:1 2152:1 2153:1 2154:1 2155:1 2156:1 2157:1 2158:1 2159:1 2160:2 2161:1 2162:1 2163:1 2164:1 2165:1 2166:2 2167:1 2168:1 2169:1 2170:1 2171:1 2172:1 2173:2 2174:1 2175:2 2176:1 2177:1 2178:1 2179:1 2180:1 2181:1 2182:1 2183:1 2184:1 2185:1 2186:1 2187:1 2188:1 2189:1 2190:1 2191:1 2192:1 2193:1 2194:1 13514:1 13515:1 
0.0022309589465790919 4:3 6:6 29:1 30:2 36:1 67:1 69:1 85:1 133:1 139:3 207:1 379:1 402:1 405:1 430:1 620:1 772:1 843:1 895:1 1688:1 1851:1 2195:1 2196:1 2197:1 2198:1 2199:1 2200:1 2201:1 2202:1 2203:1 2204:1 2205:1 2206:1 2207:1 2208:1 2209:1 2210:1 2211:1 2212:1 2213:1 2214:1 2215:1 2216:1 2217:1 2218:1 2219:1 13514:1 13515:1 
0.064021233428548388 4:2 6:4 118:1 162:1 166:1 244:1 715:1 1515:1 2230:1 2231:1 2232:1 2233:1 2234:1 13514:1 13515:1 
0.16092175108039442 4:2 6:2 12:1 47:1 51:1 162:1 175:1 244:1 276:1 318:1 328:1 735:1 1010:1 2159:1 2347:1 2348:1 2349:1 2350:1 2351:1 2352:1 2353:1 2354:1 13514:1 13515:1 
0.0045509724626607781 4:2 6:6 8:1 12:1 13:1 18:1 47:1 57:1 81:1 98:1 101:1 107:1 118:2 121:1 128:1 148:1 155:1 175:1 193:1 236:1 240:1 241:1 326:1 454:1 1318:1 1824:1 2024:1 2414:1 2415:1 2416:1 2417:1 2418:1 2419:1 2420:1 2421:1 2422:1 2423:1 2424:1 2425:1 2426:1 2427:1 2428:1 2429:1 2430:1 2431:1 2432:1 2433:1 13514:1 13515:1 
0.31566500374033823 1:1 2:1 2443:1 13514:1 13515:1 
0.15323928025514005 4:3 6:1 1767:1 2097:1 2494:1 13514:1 13515:1 
0.0072041398547045164 4:1 6:7 8:1 12:2 18:1 36:1 47:1 55:1 61:1 118:1 166:1 175:2 244:2 520:1 724:1 1019:1 1469:1 2160:1 2496:2 2497:1 2498:1 2499:1 2500:1 2501:1 2502:1 2503:1 2504:1 13514:1 13515:1 
0.066230965252449994 4:1 6:4 12:2 13:2 26:1 42:1 67:1 69:1 166:1 193:1 307:1 620:1 962:1 1092:1 1625:1 1669:1 2505:1 2506:1 2507:1 2508:1 2509:1 2510:1 13514:1 13515:1 
0.00091759374851662007 4:2 6:3 30:1 33:1 47:1 85:1 119:1 120:1 418:1 419:1 420:1 421:1 422:1 434:1 435:1 461:1 1576:1 2563:1 13514:1 13515:1 
0.031826710038081386 6:4 12:2 36:1 42:1 124:1 152:1 175:1 2575:1 2576:1 2577:1 2578:1 2579:1 2580:1 2581:1 2582:1 2583:1 13514:1 13515:1 
0.27928537842090878 4:1 6:1 12:1 118:1 125:1 361:1 362:1 363:1 435:1 1290:1 2695:1 13514:1 13517:1 
0.024004706100280548 4:2 6:5 8:1 12:1 18:1 27:1 36:1 42:1 47:1 51:1 57:1 71:1 101:1 109:1 118:1 148:1 162:1 318:1 426:1 480:1 610:1 611:1 612:1 616:1 626:1 627:1 753:1 879:1 1059:1 1092:1 1544:1 2376:1 2777:1 2778:1 2779:1 2780:1 2781:1 2782:1 13514:1 13515:1 
0.00076612516918102909 4:1 6:5 8:1 18:1 36:1 47:1 412:1 440:1 511:1 677:1 1472:1 1473:1 2783:1 2784:1 2785:1 13514:1 13515:1 
0.52204727225373293 2:1 4:1 1092:1 2940:1 2941:1 13514:1 13516:1 
0.0074610313866266507 4:1 6:4 67:2 69:2 403:1 404:1 418:1 735:1 1432:1 3008:1 3009:1 3010:1 3011:1 3012:1 3013:1 3014:1 3015:1 3016:1 3017:1 13514:1 13515:1 
0.017261854542643097 4:2 6:5 12:3 13:1 36:1 42:1 51:1 85:1 175:1 236:1 350:1 1083:1 1342:1 1738:1 2110:2 2706:1 3107:1 3108:1 3109:1 3110:1 3111:1 3112:1 3113:1 3114:1 3115:1 3116:1 3117:1 3118:1 3119:1 3120:1 3121:1 3122:1 3123:1 13514:1 13515:1 
0.013201812770528306 4:1 6:7 8:1 18:1 36:1 101:1 148:1 1246:1 1269:1 1270:1 1271:1 1567:1 1577:1 3134:1 3135:1 3136:1 3137:1 13514:1 13515:1 
0.073252361973659863 4:4 6:1 42:1 119:1 145:1 154:1 318:1 404:1 1092:1 1574:1 3159:1 3160:1 3161:1 3162:1 3163:1 3164:1 13514:1 13515:1 
0.028908521629621972 4:2 6:3 8:1 12:3 13:1 18:1 42:2 47:1 57:1 101:1 109:1 162:1 175:2 264:1 370:1 1738:1 3121:1 3122:1 3193:1 3194:1 3195:1 3196:1 3197:1 3198:1 3199:1 3200:1 3201:1 3202:1 3203:1 3204:1 3205:1 3206:1 3207:1 3208:1 3209:1 3210:1 13514:1 13515:1 
0.031999135631727703 4:2 6:3 12:3 13:1 42:1 47:1 51:1 52:1 61:1 67:1 69:1 85:1 118:1 258:2 732:1 784:1 1036:1 1061:1 2505:1 3207:1 3214:1 3215:1 3216:1 3217:1 3218:1 3219:1 3220:1 3221:1 3222:1 3223:1 3224:1 3225:1 3226:1 3227:1 3228:1 3229:1 3230:1 3231:1 13514:1 13515:1 
0.020467370658786989 4:3 6:4 8:1 12:2 13:3 18:1 23:1 24:1 42:1 51:1 52:2 85:1 92:1 107:1 109:1 118:3 175:1 257:1 258:1 296:1 350:1 490:1 653:1 696:1 809:1 813:1 1121:1 1419:1 1661:1 1884:1 2176:1 2646:1 2790:1 2906:1 3205:1 3232:1 3233:1 3234:1 3235:1 3236:1 3237:1 3238:1 3239:1 3240:1 3241:1 3242:1 3243:1 3244:1 3245:1 3246:1 13514:1 13515:1 
0.029948169206739601 4:1 6:5 8:1 12:1 18:1 36:1 52:1 57:1 461:1 500:1 511:1 734:1 1059:1 1472:1 1550:1 3297:1 3298:1 3299:1 3300:1 13514:1 13515:1 
0.0012308854520254697 4:7 6:13 8:1 12:3 13:7 18:1 25:3 42:6 47:4 52:2 57:1 67:4 69:4 77:1 101:1 107:4 109:3 115:1 118:3 127:2 133:1 145:1 149:1 162:2 175:2 187:1 193:1 236:1 242:1 309:1 321:1 325:1 355:2 402:2 405:2 712:2 718:1 766:3 784:1 793:1 799:1 834:1 836:2 982:1 1016:1 1061:3 1087:1 1121:1 1318:1 1593:1 1810:1 1818:1 1824:1 1959:2 2049:1 2170:1 2431:1 2844:1 2849:1 3159:1 3160:1 3312:1 3313:1 3314:1 3315:1 3316:1 3317:2 3318:2 3319:2 3320:3 3321:1 3322:1 3323:1 3324:1 3325:1 3326:1 3327:1 3328:1 3329:1 3330:1 3331:1 3332:1 3333:1 3334:1 3335:1 3336:1 3337:1 3338:1 3339:1 3340:1 3341:1 3342:1 3343:1 3344:1 3345:1 3346:1 3347:1 3348:1 3349:1 3350:1 3351:1 3352:1 3353:2 3354:2 3355:2 3356:1 3357:1 3358:1 3359:1 3360:2 3361:1 3362:1 3363:1 3364:1 3365:1 13514:1 13515:1 
0.032001394783806307 4:1 6:5 30:1 55:1 98:1 99:1 133:1 766:1 1435:2 3458:1 3459:1 3460:1 3461:1 3462:1 3463:1 3464:1 3465:1 3466:1 3467:1 3468:1 3469:1 13514:1 13515:1 
0.10701949064271293 4:1 6:4 47:2 85:1 109:1 426:1 461:1 1632:1 1739:1 3470:1 3471:1 3472:1 3473:1 3474:1 3475:1 3476:1 3477:1 13514:1 13515:1 
0.029993496751199708 4:1 6:4 12:1 13:1 42:1 198:1 252:1 1465:1 2229:1 3478:1 3479:1 3480:1 3481:2 13514:1 13515:1 
0.015991160138739222 4:2 6:5 8:1 18:1 310:1 454:1 475:1 479:1 1458:1 3482:1 3483:1 3484:1 3485:1 3486:1 3487:1 13514:1 13515:1 
0.012840469204667635 4:1 6:4 12:2 13:2 42:1 52:1 57:1 106:1 166:1 668:1 857:1 1246:1 1260:1 1315:1 1398:1 2340:1 2582:1 3517:1 3518:1 3519:1 3520:1 3521:1 13514:1 13515:1 
0.031173649542030179 4:2 6:5 8:1 12:2 13:2 18:1 47:2 52:2 61:1 85:1 101:1 106:2 118:2 155:1 162:1 287:1 328:1 355:1 363:1 484:1 776:1 829:1 1006:1 1021:1 1087:1 1115:1 1129:1 1260:1 1273:1 1778:1 1857:1 2020:1 2597:1 2792:1 3256:1 3524:1 3525:1 3526:1 3527:1 3528:1 3529:1 3530:1 3531:1 3532:1 3533:1 3534:1 3535:1 3536:1 3537:1 3538:1 13514:1 13515:1 
0.03277082886736981 4:3 6:4 8:1 12:1 18:1 36:1 47:1 51:1 57:1 67:1 69:1 109:2 121:1 128:1 162:1 233:1 355:1 440:1 462:1 974:1 1424:2 2022:1 2588:1 2991:1 3002:1 3551:1 3552:1 3553:1 3554:1 3555:1 3556:1 3557:1 3558:1 3559:1 3560:1 3561:1 3562:1 3563:1 3564:1 3565:1 3566:1 13514:1 13515:1 
0.026528058990460998 4:1 6:3 35:1 36:1 67:1 69:1 85:1 133:3 139:2 291:1 387:1 584:1 1856:1 1974:1 3543:1 3548:1 3578:1 3579:1 3580:1 3581:1 3582:1 3583:1 3584:1 3585:1 3586:1 3587:1 13514:1 13515:1 
0.020695802678040019 4:2 6:4 12:3 13:2 19:1 42:2 47:1 67:1 69:1 175:1 183:1 305:1 540:2 2286:1 3705:1 3706:1 3707:1 3708:1 3709:1 3710:1 3711:1 3712:1 3713:1 3714:1 13514:1 13515:1 
0.12239410913651712 4:1 6:1 67:1 69:1 461:1 608:1 1248:1 2451:1 13514:1 13515:1 
0.013698869374252576 4:1 6:1 27:1 119:1 120:1 1610:1 3830:1 13514:1 13517:1 
0.0011178159609020329 4:2 6:4 8:1 12:3 18:1 23:1 24:1 51:1 101:1 175:1 540:1 664:1 857:1 2896:1 3151:1 3152:1 3978:1 3979:1 3980:1 13514:1 13515:1 
0.0071499280917423236 4:3 6:3 13:1 36:1 51:1 57:1 67:1 69:1 109:1 122:1 193:1 224:1 275:1 834:1 958:1 1061:1 1318:1 1544:1 1991:1 2599:1 4029:3 4030:1 4031:1 4032:1 4033:1 4034:1 13514:1 13515:1 
0.022310524178846502 4:3 6:13 12:7 13:2 42:1 47:3 51:1 67:1 69:1 81:1 85:2 106:2 109:2 118:2 162:3 183:1 188:1 244:1 245:1 321:1 454:1 608:1 679:1 766:1 790:1 825:1 1019:1 1092:1 1318:1 1482:1 1944:1 1985:1 2097:1 2390:1 2940:1 2971:1 3222:1 3223:1 3297:1 3364:1 3415:1 3416:1 3663:1 4035:1 4036:1 4037:1 4038:1 4039:2 4040:3 4041:1 4042:1 4043:1 4044:1 4045:1 4046:1 4047:1 4048:1 4049:1 4050:1 4051:1 4052:1 4053:1 4054:1 4055:1 4056:1 4057:1 4058:1 4059:1 4060:1 4061:1 13514:1 13515:1 
0.045697511430145346 4:1 6:4 8:1 12:1 13:1 18:1 47:1 98:1 109:1 148:1 193:1 578:1 805:1 871:1 1794:1 1991:1 3874:1 4062:1 4063:1 4064:1 4065:1 4066:1 4067:1 4068:1 4069:1 13514:1 13515:1 
0.011503616642765941 4:3 6:2 8:1 12:1 18:1 36:1 52:2 85:1 109:1 119:1 120:1 286:1 350:1 502:1 813:1 1087:1 1318:1 1336:1 4091:1 4092:1 4093:1 4094:1 4095:1 4096:1 4097:1 4098:1 4099:1 13514:1 13515:1 
0.0036827219937451347 4:2 6:1 30:2 36:1 67:1 69:1 85:3 133:2 150:1 402:1 405:1 578:1 842:1 843:2 848:1 871:1 1291:1 1682:1 1683:2 4105:1 4106:2 4107:1 4108:1 4109:1 4110:1 4111:1 4112:2 4113:1 4114:1 4115:1 4116:1 4117:1 4118:1 4119:1 4120:1 13514:1 13515:1 
0.0022265953462898562 4:1 6:8 12:3 42:1 51:1 85:2 101:1 109:2 118:3 162:1 175:1 310:1 324:1 328:1 504:2 540:1 557:1 644:1 715:1 1243:1 1824:1 1880:1 1884:1 2072:1 2079:1 2601:1 3140:1 4166:1 4167:1 4168:1 4169:2 4170:1 4171:1 4172:2 4173:2 4174:1 4175:1 4176:1 4177:1 4178:1 4179:1 13514:1 13515:1 
0.0016766203138043488 4:5 6:11 12:5 13:2 42:4 47:2 51:1 52:1 61:1 85:3 98:1 101:5 109:3 118:1 149:1 162:1 283:1 362:1 363:1 426:4 461:1 480:1 483:1 508:1 776:1 807:2 813:1 832:1 834:1 913:1 952:1 995:1 1296:2 1419:2 1429:2 1459:1 1810:1 1872:1 1905:1 1906:1 2246:1 2393:1 3094:1 3095:1 3143:1 3530:1 3536:1 4104:1 4309:1 4310:1 4311:1 4312:1 4313:1 4314:1 4315:1 4316:1 4317:1 4318:1 4319:2 4320:1 4321:1 4322:1 4323:1 4324:1 4325:1 4326:1 4327:1 4328:1 4329:1 4330:1 13514:1 13515:1 
0.092583699009228138 4:1 6:3 47:1 98:1 109:3 283:1 426:1 797:1 1810:1 3143:1 4104:1 4309:1 4310:1 4311:1 13514:1 13515:1 
0.06587096765754985 4:1 6:1 155:1 2686:1 2687:1 4437:1 13514:1 13517:1 
7.5573726416680798e-05 4:1 6:5 36:1 52:1 60:1 67:1 68:1 69:1 454:1 620:1 1967:1 2055:1 3664:1 4498:1 4499:1 4500:1 4501:1 4502:1 4503:1 4504:1 13514:1 13515:1 
0.03990816825648924 4:3 6:3 13:1 47:1 52:1 166:1 475:1 609:1 1715:1 1766:1 1771:1 4710:1 4711:1 4712:1 4713:1 4714:1 4715:1 13514:1 13515:1 
0.024308818417741952 4:5 6:7 8:1 12:7 13:4 18:1 36:1 47:2 51:1 52:4 67:1 69:1 85:1 109:1 143:1 296:1 508:1 879:1 1034:1 1071:1 1255:1 1268:1 1318:2 1456:1 1683:1 1930:1 1967:1 2142:1 3507:1 3793:1 4070:1 4302:1 4503:1 4919:1 4920:2 4921:1 4922:1 4923:1 4924:1 4925:1 4926:1 4927:1 4928:1 4929:1 4930:1 13514:1 13515:1 
0.12134009271873127 4:1 6:3 61:1 839:1 1794:1 3663:1 4999:1 5000:1 5001:1 13514:1 13515:1 
0.0037541313568867155 4:1 6:6 47:1 162:1 175:1 987:1 3531:1 4605:1 5011:1 5012:1 5013:1 5014:1 5015:1 5016:1 5017:1 5018:1 13514:1 13515:1 
0.023177316985301254 4:1 6:2 30:1 31:1 67:1 69:1 85:1 139:1 155:1 1092:1 2952:1 3181:1 5001:1 5019:1 5020:1 5021:1 5022:1 5023:1 13514:1 13515:1 
0.021764359271207786 4:3 6:4 12:3 13:3 36:1 47:3 57:1 61:1 67:2 69:2 85:1 101:1 107:1 109:1 118:3 162:1 175:1 242:1 293:1 318:1 334:1 379:1 433:1 478:1 510:1 712:1 732:1 857:1 879:1 904:1 1019:1 1261:1 1315:2 1318:1 1877:1 3141:1 4126:1 4218:1 4451:2 4459:1 4871:1 5108:1 5109:1 5110:1 5111:1 5112:1 5113:1 5114:1 5115:1 5116:1 5117:1 5118:1 5119:1 5120:1 13514:1 13515:1 
0.21689427362131072 6:1 120:1 1063:1 5177:1 13514:1 13516:1 
0.053840053378385447 4:1 6:5 8:1 18:1 679:1 3481:1 3741:1 5178:1 5179:1 5180:1 13514:1 13515:1 
0.052884501546160666 4:2 6:2 36:1 47:1 51:1 77:3 111:1 118:1 153:1 154:1 162:1 173:1 174:1 175:1 176:1 5309:1 5310:1 5311:1 5312:1 5313:1 5314:1 13514:1 13515:1 
0.069845927135988667 4:1 6:3 12:1 109:1 987:1 1334:1 3178:1 5110:1 5322:1 5323:1 5324:1 5325:1 13514:1 13515:1 
0.048810974533304199 4:3 6:2 8:1 12:2 13:1 18:1 47:2 67:1 69:1 101:1 106:1 112:1 118:1 122:1 231:1 233:1 286:1 326:1 350:1 402:1 405:1 413:1 502:1 809:1 1121:1 1574:1 2229:1 2292:1 3172:1 3785:1 5115:1 5245:1 5352:1 5353:2 5354:2 5355:1 5356:1 5357:1 5358:1 5359:1 5360:1 5361:1 5362:1 5363:1 13514:1 13515:1 
0.045631617972761031 4:1 6:2 8:1 12:1 13:1 18:1 42:1 47:1 51:1 52:1 85:1 119:1 120:1 162:1 233:1 742:1 1927:1 2139:1 5497:1 5498:1 5499:1 5500:1 5501:1 5502:1 5503:1 13514:1 13515:1 
0.053429322060744314 4:1 6:1 12:1 47:3 51:1 67:1 69:1 85:1 109:1 155:1 175:1 476:1 1739:1 1825:1 1937:1 3099:1 4459:1 5537:1 5538:1 5539:1 5540:1 5541:1 13514:1 13515:1 
0.064368748193479042 4:1 6:3 148:1 418:1 866:1 2921:1 5245:1 5542:1 5543:1 5544:1 5545:1 5546:1 5547:1 13514:1 13515:1 
0.00054418925146411108 4:1 6:6 8:1 12:1 13:1 18:1 67:1 69:1 131:1 209:1 475:1 785:1 1118:1 1558:1 4403:2 5605:1 5606:1 5607:1 5608:1 5609:1 5610:1 13514:1 13515:1 
0.0087663767165404114 4:1 6:3 12:1 13:1 67:1 69:1 166:1 173:1 174:1 328:1 4049:1 4403:1 5650:1 5651:1 5652:1 13514:1 13515:1 
0.030008334842950703 4:1 6:2 36:1 109:2 996:1 2792:1 3512:1 4914:1 5653:1 5654:1 13514:1 13515:1 
0.0087954445466203561 4:1 6:10 8:1 12:2 13:1 18:1 42:1 52:1 57:1 77:1 162:1 166:1 328:1 379:1 404:1 435:1 440:1 854:1 959:1 960:1 961:1 1087:1 1318:1 1577:1 4692:1 5172:1 5750:2 5751:1 5752:1 5753:1 5754:1 5755:1 13514:1 13515:1 
0.0076758214915030338 4:4 6:10 8:1 12:2 13:3 18:1 47:1 67:1 69:1 101:2 107:1 118:2 162:1 175:1 193:1 236:1 257:1 258:1 276:1 350:1 475:1 609:1 622:1 638:1 808:1 992:1 1336:1 1342:1 1667:1 2304:1 2618:1 2813:1 3073:1 3314:1 3332:1 3774:1 3998:1 4176:1 4240:1 4242:1 4344:1 4442:1 4587:1 5006:1 5576:1 5783:1 5784:1 5785:1 5786:1 5787:1 5788:1 5789:1 5790:1 5791:1 5792:1 5793:1 5794:1 5795:1 5796:1 5797:1 5798:1 5799:1 5800:1 5801:1 5802:1 5803:1 5804:1 5805:1 13514:1 13515:1 
0.024859494646432456 4:1 6:4 12:2 36:1 42:1 57:1 67:1 69:1 101:1 162:1 169:1 402:1 405:1 435:1 665:1 666:1 754:1 834:1 1291:1 2582:1 3852:1 5480:1 5648:1 5842:1 5843:1 5844:1 5845:1 5846:1 5847:1 5848:1 5849:1 5850:1 5851:1 13514:1 13515:1 
0.0017182138160453172 4:1 6:6 12:1 36:1 42:1 47:1 51:1 67:1 69:1 148:1 229:1 712:1 3203:1 3204:1 3517:1 3567:1 5245:1 6035:1 6036:1 6037:1 6038:1 6039:1 6040:1 6041:1 6042:1 6043:1 13514:1 13515:1 
0.0014769097718123024 4:1 6:1 155:1 566:1 567:1 568:1 569:1 570:1 571:1 572:1 573:1 574:2 575:1 576:1 577:1 578:1 871:1 1681:1 6082:1 13514:1 13515:1 
0.009511375413277616 4:1 6:6 12:4 13:2 36:1 47:3 51:1 57:1 67:1 69:1 109:1 148:1 162:1 236:1 379:1 665:1 666:1 670:1 712:1 807:1 899:1 1567:1 1949:1 2191:1 2632:2 4338:1 4472:1 4739:1 5849:1 6083:1 6084:1 6085:1 6086:1 6087:1 6088:1 6089:1 6090:1 6091:1 6092:1 6093:1 6094:1 13514:1 13515:1 
0.034888466518200725 4:2 6:3 12:6 13:2 47:1 51:3 52:1 109:2 118:1 162:2 209:1 273:2 350:1 357:1 644:1 715:1 809:1 1078:1 1326:1 1454:1 1926:1 1931:1 2744:1 2844:1 2884:1 3188:1 3703:1 3710:1 5234:1 6117:1 6118:1 6119:1 6120:2 6121:1 6122:1 6123:1 6124:1 6125:1 6126:1 6127:1 6128:1 6129:1 13514:1 13515:1 
0.0047672329783636025 4:1 6:5 12:4 13:4 36:1 47:1 57:1 61:1 67:1 69:1 101:1 109:1 166:1 318:1 388:1 540:1 1072:1 1087:1 1561:2 1715:1 1811:1 1932:1 2510:1 2781:1 3073:1 3876:1 4523:1 4826:1 6130:1 6131:1 6132:1 6133:1 6134:1 6135:1 6136:1 13514:1 13515:1 
0.041505935670895069 4:2 6:2 19:1 23:1 24:1 175:1 3457:1 5646:1 13514:1 13515:1 
0.12419512308679069 4:1 6:4 8:1 12:1 18:1 47:1 148:1 328:1 435:1 1259:1 1934:1 3178:1 3717:1 4921:1 6245:1 6246:1 6247:1 13514:1 13515:1 
0.041243529339691762 4:1 6:4 47:1 109:1 166:1 177:1 715:1 958:1 1561:1 1661:1 2270:1 2579:1 3373:1 5467:1 6261:1 6262:1 6263:1 6264:1 13514:1 13515:1 
0.016121183068348591 4:3 6:2 119:1 154:1 3475:1 6326:1 6327:1 6328:1 13514:1 13515:1 
0.0031696363979987251 4:1 6:14 8:1 12:6 13:4 18:1 36:1 47:4 52:1 57:2 61:1 67:2 69:2 81:2 101:3 109:4 162:2 187:1 193:1 236:1 285:1 286:2 372:1 449:1 502:1 696:1 715:1 959:4 1016:1 1019:1 1077:1 1087:1 1093:2 1105:1 1109:1 1318:1 1488:1 1724:1 1824:1 2302:1 2409:1 2627:1 4344:1 4415:1 4501:1 4565:1 4587:1 4949:1 4950:1 5053:2 5248:1 5251:1 5342:1 5752:1 5793:1 6014:1 6365:2 6366:1 6367:1 6368:1 6369:1 6370:1 6371:1 6372:1 6373:1 6374:2 6375:1 6376:1 6377:1 6378:1 6379:1 6380:1 6381:1 6382:1 6383:1 6384:1 6385:1 6386:1 6387:1 6388:1 6389:1 6390:1 6391:1 6392:1 13514:1 13515:1 
0.037506762617904157 4:1 6:4 67:1 69:1 133:1 152:1 424:1 1044:1 1610:1 1715:1 1974:1 5884:1 6394:1 6395:1 6396:1 6397:1 6398:1 6399:1 6400:1 6401:1 13514:1 13515:1 
0.0064038989767671766 4:2 6:5 8:1 12:1 18:1 36:1 118:2 143:1 148:1 272:1 319:1 328:1 440:1 620:1 696:1 1246:1 2055:2 2779:1 6402:1 6403:1 6404:1 6405:1 13514:1 13515:1 
0.16051895879567413 4:2 1662:1 1767:1 6462:1 13514:1 13517:1 
0.097568581470882404 4:1 6:1 12:1 53:1 98:1 101:1 118:2 128:1 193:1 224:1 766:1 913:1 1810:1 2627:1 3573:1 4908:1 6472:1 6473:1 6474:1 13514:1 13517:1 
0.045141337731153863 4:1 6:6 130:1 440:1 1093:1 1561:1 2732:1 5148:1 5151:1 6549:1 6550:1 6551:1 6552:1 6553:1 6554:1 13514:1 13515:1 
0.042028749143174872 4:2 6:3 12:2 13:1 67:2 69:2 166:1 212:1 520:1 1633:1 2189:1 2234:1 2478:1 3973:1 6609:1 6610:1 13514:1 13515:1 
0.031521808306188545 4:1 6:2 47:1 155:1 6116:1 6611:1 6612:1 6613:1 13514:1 13515:1 
0.03140091415581503 4:4 6:7 8:1 12:2 13:5 18:1 42:1 47:2 51:1 57:1 61:1 67:1 69:1 81:1 85:2 101:2 106:1 107:2 109:2 162:1 193:1 321:1 324:2 337:1 345:3 346:1 350:1 504:1 512:1 795:1 1009:1 1061:1 1087:1 1315:1 1318:4 1322:1 1340:1 1508:1 1509:1 1510:1 1582:1 1956:1 1991:5 2304:1 2538:1 2889:1 2890:1 3316:1 3596:1 3956:1 4007:1 4586:1 5192:1 5509:2 5647:1 6023:1 6230:1 6624:3 6625:2 6626:1 6627:1 6628:1 6629:1 6630:1 6631:1 6632:1 6633:1 6634:1 6635:1 6636:1 6637:1 6638:1 6639:1 6640:1 6641:1 6642:1 6643:1 6644:1 6645:1 6646:1 6647:1 6648:1 6649:1 13514:1 13515:1 
0.088656591474421828 4:1 6:3 12:4 67:1 69:1 109:1 166:1 208:1 261:1 268:1 1218:1 1456:1 3222:1 3223:1 3632:1 6723:1 6724:1 6725:1 6726:1 13514:1 13515:1 
0.025190704631135073 4:1 6:5 8:1 12:1 18:1 42:1 47:1 520:1 545:1 1255:1 1413:1 1630:1 1739:1 2564:1 3737:1 4921:1 6735:1 6736:1 6737:1 6738:1 6739:1 13514:1 13515:1 
0.18461394781769713 4:1 6:1 98:1 723:1 754:1 1778:1 5123:1 6766:1 13514:1 13517:1 
0.076085358757785451 4:1 6:3 12:2 13:1 47:1 101:2 175:1 228:1 242:1 334:1 390:1 487:1 1610:1 2391:1 3262:1 4767:1 6911:1 6912:1 6913:1 6914:1 13514:1 13515:1 
0.092875140403985285 4:2 6:2 12:1 13:1 119:1 154:1 684:1 1630:1 2535:1 3913:1 13514:1 13515:1 
0.032451214365175028 4:1 6:2 36:1 51:1 118:2 148:1 383:1 402:1 405:1 435:1 552:2 596:1 1291:1 1292:1 2522:1 3120:1 6924:1 6925:1 6926:1 6927:1 6928:1 6929:1 13514:1 13515:1 
0.027976651491177212 4:1 6:4 30:4 67:1 69:1 133:1 139:3 155:1 291:1 383:1 397:1 430:1 1092:1 1299:1 1300:1 1301:1 1306:1 3125:1 3301:1 3578:1 3839:1 4444:1 6855:1 6881:1 6962:1 6963:1 6964:1 6965:1 6966:1 6967:1 13514:1 13515:1 
0.0075220928421627989 4:1 6:3 30:2 67:1 69:1 85:1 418:1 735:1 982:1 5861:1 6968:1 6969:1 6970:1 6971:1 6972:1 6973:1 6974:1 13514:1 13515:1 
0.022492726707629571 4:2 6:4 101:1 118:1 130:1 166:1 302:1 681:1 682:1 1441:1 1543:1 1618:1 4686:1 7047:1 7048:1 7049:1 7050:1 13514:1 13515:1 
0.025431069461009512 4:1 6:4 30:1 55:1 67:1 69:1 85:1 98:1 99:1 139:1 224:1 276:1 418:1 423:1 424:1 549:1 1435:1 1448:1 3679:1 3680:1 7100:2 7101:1 7102:1 7103:1 7104:1 13514:1 13515:1 
0.13933737812760852 4:1 6:2 12:3 13:2 42:2 109:1 175:1 324:1 808:1 933:1 1334:1 1603:1 2467:1 3477:1 3737:1 6023:1 7108:1 7109:1 7110:1 7111:1 7112:1 7113:1 13514:1 13515:1 
0.023419161052304269 6:2 120:1 133:1 1063:1 1432:1 7163:1 7164:1 7165:1 7166:1 13514:1 13517:1 
0.0039554958311124704 4:4 6:7 8:3 12:8 13:5 18:3 27:1 30:1 42:3 47:1 51:1 52:1 67:1 69:1 85:1 98:1 107:1 118:2 121:1 122:1 128:1 131:1 139:2 144:1 148:1 385:1 418:1 426:1 454:1 599:2 612:1 793:1 877:1 1047:1 1315:1 1318:1 1814:1 2439:1 2638:1 2699:1 3052:1 3101:1 4712:1 4716:1 6020:1 6543:2 6840:2 6847:1 7167:1 7168:1 7169:1 7170:1 7171:1 7172:1 7173:1 7174:2 7175:2 7176:1 7177:1 7178:1 7179:1 7180:1 7181:1 7182:1 7183:1 7184:1 7185:1 7186:1 13514:1 13515:1 
0.01044981705007318 4:1 6:6 8:1 12:1 18:1 109:1 118:1 511:1 1261:1 1463:1 1561:1 1783:1 2970:1 6483:1 7187:1 7188:1 7189:1 7190:1 13514:1 13515:1 
0.041795844198453003 4:2 6:2 8:1 12:1 13:1 18:1 67:1 69:1 85:1 144:1 385:1 723:1 3308:1 4275:1 4716:1 4717:1 4718:1 4719:1 4720:1 7202:1 13514:1 13515:1 
8.4515530048490112e-05 4:1 4967:1 13514:1 13516:1 
0.081994155745890182 4:1 6:2 8:1 12:1 13:1 18:1 47:1 67:1 69:1 85:1 101:1 102:1 328:1 1544:1 2870:1 3973:1 4049:1 6093:1 7282:1 7283:1 7284:1 7285:1 7286:1 13514:1 13515:1 
0.059370717921261931 4:3 6:2 12:2 36:1 51:1 52:1 119:1 154:1 480:1 620:1 1081:1 1908:1 2039:1 2040:1 2809:1 5644:1 6863:1 13514:1 13515:1 
0.0072109397386852575 4:1 6:5 12:2 166:1 175:1 257:2 258:1 454:1 462:1 1335:1 2093:1 3221:1 3222:1 3223:1 3915:1 7372:1 7373:1 7374:1 7375:1 7376:1 13514:1 13515:1 
0.025702258391575326 4:1 6:1 155:1 402:1 405:1 418:1 579:1 585:1 872:1 5138:1 5139:1 5140:1 7517:1 13514:1 13515:1 
0.030789820193537983 4:2 6:3 8:1 12:4 13:1 18:1 36:1 47:1 52:2 61:1 85:1 98:2 118:3 162:1 187:1 193:1 208:1 236:2 286:1 350:1 386:1 426:1 540:1 771:1 797:1 829:1 922:1 1067:1 1110:1 1121:1 1315:2 1810:1 2522:1 2595:1 4328:1 5384:1 7555:1 7556:1 7557:3 7558:1 7559:1 7560:1 7561:1 7562:1 7563:1 7564:1 7565:1 7566:1 7567:1 7568:1 7569:1 7570:1 7571:1 7572:1 13514:1 13515:1 
0.038497886276053168 4:4 6:4 12:4 25:1 42:1 52:1 53:1 57:1 67:1 69:1 81:1 98:1 101:1 106:1 107:1 109:1 118:2 143:1 162:3 169:1 193:1 276:1 286:2 478:1 502:1 542:1 596:1 1081:1 1429:1 1544:1 1677:1 1867:1 2078:1 2153:1 3183:1 4166:1 7356:1 7626:1 7627:1 7628:1 7629:1 7630:1 7631:1 7632:1 7633:1 7634:1 7635:1 7636:1 7637:1 7638:1 7639:1 7640:2 7641:1 7642:1 7643:1 7644:1 7645:1 7646:1 7647:1 7648:1 7649:1 13514:1 13515:1 
0.015669132659118304 4:2 6:9 8:2 12:2 13:1 18:2 36:1 42:1 47:2 55:1 57:1 67:2 69:2 101:1 107:1 130:1 193:1 276:1 321:1 324:1 350:1 355:1 417:1 449:1 562:1 620:1 808:1 813:1 956:1 959:2 1087:1 1105:1 1120:1 1486:1 2263:1 2431:1 4091:1 4501:1 6375:1 6376:1 6377:1 6378:1 6379:1 7063:1 7650:1 7651:1 7652:1 7653:1 7654:1 7655:1 7656:1 7657:1 7658:1 7659:1 7660:1 13514:1 13515:1 
0.10497869494261323 4:1 6:1 47:1 119:1 120:1 2188:1 3043:1 6816:1 13514:1 13517:1 
0.01383879045340586 4:1 6:2 36:1 98:1 109:1 383:1 771:1 789:1 1693:1 7826:1 13514:1 13515:1 
0.019319208075410994 4:1 6:7 12:1 42:1 52:1 67:1 69:1 75:1 143:1 162:1 166:1 193:2 236:1 442:1 481:1 604:1 1502:2 2079:2 2627:1 4292:1 4343:1 4416:1 6483:1 7650:1 7887:1 7888:1 7889:1 7890:1 13514:1 13515:1 
0.0013817713361108843 4:1 6:6 12:1 36:1 42:1 47:1 57:1 162:1 221:1 1560:1 2267:1 4834:1 5195:1 7157:1 7760:1 7899:1 7900:1 7901:1 7902:1 7903:2 7904:1 7905:1 13514:1 13515:1 
0.22362482472070616 6:1 125:1 386:1 1766:1 2059:1 13514:1 13516:1 
0.094608011775181147 4:2 6:3 47:1 412:1 1056:1 5529:1 7935:1 7936:1 7937:1 7938:1 7939:1 7940:1 13514:1 13515:1 
0.015851275141438192 4:1 6:3 36:1 2444:1 2445:1 2446:1 7955:1 13514:1 13515:1 
0.02316447474735198 4:1 6:4 8:1 18:1 36:1 47:2 51:1 118:1 660:1 668:1 857:2 2732:1 7343:1 8007:1 8008:1 8009:1 8010:1 8011:1 8012:1 8013:1 13514:1 13515:1 
0.017650157967886059 4:4 6:9 12:2 13:2 42:3 47:2 52:1 61:1 67:1 69:1 85:1 101:1 106:1 109:4 118:2 148:1 155:1 162:2 187:2 188:1 236:2 350:1 362:1 363:1 476:1 483:1 484:1 540:1 696:1 801:2 813:1 822:1 940:1 995:1 996:1 1006:1 1019:1 1076:1 1120:1 1318:1 1328:1 1342:1 1429:1 1489:1 1494:1 1825:1 1875:1 2171:1 2360:1 2434:1 2525:2 3512:1 3523:1 3703:1 3743:1 3761:1 3809:1 4459:1 5248:1 5253:2 5719:1 6454:1 7082:1 7566:1 8074:1 8075:1 8076:1 8077:1 8078:1 8079:1 8080:1 8081:1 8082:1 8083:1 8084:1 8085:1 8086:1 8087:1 8088:1 8089:1 8090:1 8091:1 8092:1 8093:1 8094:1 13514:1 13515:1 
0.065973567878836542 4:1 6:1 155:1 2686:1 2687:1 8095:1 13514:1 13517:1 
0.047927303812441528 4:4 6:4 12:6 13:2 42:1 47:1 51:1 52:1 67:1 69:1 81:1 85:1 130:1 224:1 242:1 289:1 321:1 334:1 369:1 426:1 440:1 777:1 836:1 1092:1 1125:1 1715:2 1741:1 2536:1 2877:1 3058:1 4610:1 5248:1 5791:1 7070:1 8105:2 8106:2 8107:1 8108:2 8109:1 8110:1 8111:1 8112:1 8113:1 8114:1 8115:1 8116:1 8117:1 8118:1 13514:1 13515:1 
0.013125795084500876 4:1 6:5 55:1 98:1 99:1 133:1 276:1 418:1 424:1 1435:1 1794:1 8136:1 8137:1 8138:1 8139:1 8140:1 8141:1 8142:1 8143:1 13514:1 13515:1 
0.017154067533350022 4:1 6:3 30:3 31:1 36:1 85:1 139:3 209:1 430:1 435:1 581:1 1288:1 1299:1 1300:1 2952:1 3052:1 3293:1 3839:1 5071:1 5072:1 8144:1 8145:1 8146:1 8147:1 8148:1 8149:1 8150:1 8151:1 13514:1 13515:1 
0.00091926395105744897 4:1 6:4 27:1 109:1 166:1 175:1 454:1 1325:1 2718:1 3718:1 8200:1 13514:1 13515:1 
0.28219453159139873 4:1 6:1 51:1 85:1 480:1 754:1 1092:1 5565:1 5622:1 7877:1 8226:1 8227:1 13514:1 13515:1 
0.016432195519722931 4:1 6:5 8:1 12:1 18:1 47:2 135:1 148:1 228:1 388:1 476:1 1268:1 1749:1 1920:1 4491:1 4492:1 5264:1 8228:1 8229:1 8230:1 8231:1 13514:1 13515:1 
0.032810898505755241 4:3 6:7 8:1 12:2 13:2 18:1 30:2 42:2 47:2 51:1 52:3 55:1 101:1 106:1 139:1 162:5 232:1 252:1 328:1 331:1 350:2 355:4 423:1 723:1 784:1 1047:1 1092:1 1340:1 1929:1 2001:1 2885:4 3089:1 3703:1 3730:1 3872:2 4220:1 4367:1 4717:1 5170:1 5250:1 5821:1 6029:2 6235:1 6246:1 6662:1 6666:1 7205:1 7422:1 7482:2 7901:1 8200:3 8253:1 8254:1 8255:1 8256:1 8257:1 8258:1 8259:1 8260:1 8261:1 8262:1 8263:1 8264:1 8265:1 8266:1 8267:1 8268:1 8269:1 8270:1 8271:1 8272:1 8273:1 8274:1 8275:1 8276:1 8277:1 8278:1 13514:1 13515:1 
0.022927764087797651 4:1 6:5 8:1 13:2 18:1 36:1 42:2 47:1 51:1 52:1 57:1 101:1 120:1 193:1 350:1 504:1 527:1 857:1 1061:1 1063:1 1076:1 1318:1 1494:1 1715:1 1730:1 1783:1 1931:1 2413:1 2645:1 3852:1 3954:1 4587:1 4760:1 5277:1 5278:1 6426:1 7766:1 8284:1 8285:1 8286:1 8287:1 8288:1 8289:1 8290:1 8291:1 8292:1 13514:1 13515:1 
0.15327026594848142 4:1 6:1 401:1 481:1 1454:1 6128:1 6129:1 13514:1 13517:1 
0.037608593304213768 4:2 6:3 12:3 13:3 57:1 101:1 106:1 160:1 175:1 721:1 919:1 1456:1 1504:2 3393:1 3972:1 5173:2 6943:1 8302:1 8303:1 8304:1 8305:1 13514:1 13515:1 
0.036820270004380214 6:6 12:2 52:1 118:1 194:1 226:1 287:1 425:1 426:1 808:1 1087:1 1121:1 1327:1 2101:1 3217:1 4829:1 5419:1 6749:1 8316:1 8317:1 8318:1 8319:1 8320:1 8321:1 8322:1 8323:1 8324:1 13514:1 13515:1 
0.0048959659247520826 4:2 6:4 30:3 67:1 69:1 133:1 139:1 224:1 423:1 424:1 2069:1 4382:2 6534:1 7377:1 7505:1 8338:1 8339:1 8340:1 8341:1 8342:1 13514:1 13515:1 
0.0052897541296691658 4:1 6:6 8:1 18:1 36:1 47:1 101:2 109:1 118:1 193:1 208:1 604:1 943:1 1472:1 1931:1 2627:1 3298:1 3393:1 3605:1 4857:1 8349:1 8350:1 8351:1 8352:1 8353:1 13514:1 13515:1 
0.0015008554565053621 4:2 6:9 8:1 12:2 13:2 18:1 24:1 27:1 36:1 47:1 61:1 85:1 109:1 162:1 193:1 236:1 321:1 328:1 350:1 504:1 508:1 1087:1 1261:1 1270:1 1321:1 1553:1 2023:2 2237:1 2293:1 2598:1 2640:1 3534:1 3670:1 3757:1 3775:1 3793:1 3801:3 3998:1 4035:1 4830:1 5326:1 5465:1 5752:1 6372:1 6412:1 8361:1 8362:1 8363:1 8364:1 8365:1 8366:1 8367:1 8368:1 8369:1 8370:1 8371:1 8372:1 8373:1 8374:1 8375:1 8376:1 8377:1 13514:1 13515:1 
0.020476404104929652 2:1 4:3 6:4 12:4 13:1 42:1 52:2 67:1 69:1 101:1 109:1 118:2 149:1 162:1 236:1 274:1 295:1 355:1 511:2 599:1 813:1 1281:1 1291:1 1472:1 2027:1 2115:1 2723:1 2876:1 2940:1 3299:2 3415:1 3416:1 3417:1 3565:1 6165:1 6535:1 7034:1 7652:1 8378:1 8379:1 8380:1 8381:1 8382:1 13514:1 13515:1 
0.0041025017412748528 4:2 6:2 24:1 36:1 517:1 620:1 787:1 2039:1 2040:1 13514:1 13515:1 
0.0895040343862578 4:5 6:8 34:1 36:1 67:2 69:2 119:1 207:1 426:1 459:1 462:1 464:1 763:1 852:1 1105:1 3092:1 3093:1 3094:1 3095:1 5289:1 5291:1 5885:1 8389:1 8390:1 13514:1 13515:1 
0.011435390251581608 4:8 6:6 8:1 12:7 13:1 18:1 36:1 42:5 47:3 51:2 52:2 61:2 67:4 69:4 85:1 98:1 101:1 106:2 109:2 236:4 239:1 240:1 286:3 324:2 328:1 386:1 401:1 402:1 405:1 502:1 504:1 508:2 578:4 644:1 697:1 715:1 782:1 796:1 803:1 809:1 813:2 871:4 928:2 989:1 1120:1 1121:1 1213:7 1235:2 1326:5 1419:1 1488:1 1490:1 1496:1 1600:1 1944:1 2001:3 2033:3 2119:1 2170:1 2176:1 2627:1 2813:1 2830:1 2885:2 3526:1 3710:2 3730:1 3750:1 3774:1 3776:1 3910:1 4094:1 4745:2 4759:1 5585:1 6165:1 6230:1 6386:1 6943:1 7034:1 7615:1 8488:1 8489:1 8490:1 8491:1 8492:1 8493:1 8494:1 8495:1 8496:3 8497:1 8498:1 8499:1 8500:1 8501:1 8502:1 8503:1 8504:1 8505:1 8506:1 8507:1 8508:1 8509:1 8510:1 8511:1 8512:1 8513:1 8514:1 8515:1 8516:1 8517:1 8518:1 8519:1 8520:1 8521:1 8522:1 8523:1 8524:1 8525:1 8526:1 8527:1 8528:1 8529:1 8530:1 8531:1 8532:1 8533:1 8534:1 8535:1 8536:1 8537:1 8538:1 8539:1 8540:1 8541:1 8542:1 8543:1 8544:1 13514:1 13515:1 
0.069813106044186696 4:2 6:2 8:1 18:1 47:1 57:1 61:1 67:1 69:1 98:1 109:1 118:1 162:1 218:1 221:1 401:1 556:1 1454:1 1731:1 2267:1 3489:1 4042:1 4070:1 5215:1 5555:1 8580:1 8581:1 8582:1 8583:1 8584:1 8585:1 13514:1 13515:1 
0.4869947313347785 1809:1 13514:1 13515:1 
0.0062203928524577545 4:3 6:6 12:2 13:1 36:1 47:2 51:2 67:2 69:2 118:2 268:1 270:1 454:1 732:1 1121:1 1413:2 1538:1 1760:1 1967:1 1968:1 2761:1 3807:1 5435:1 6913:1 8626:1 8627:1 8628:1 8629:1 8630:1 8631:1 8632:1 8633:1 8634:1 8635:1 8636:1 8637:1 8638:1 8639:1 13514:1 13515:1 
0.035658673447310878 4:1 6:4 8:1 18:1 75:1 148:1 481:1 877:1 4327:1 4778:1 7100:1 8694:1 8695:1 8696:1 8697:1 8698:1 13514:1 13515:1 
0.011179621196149288 4:1 6:4 8:1 12:4 13:1 18:1 38:1 42:1 47:2 57:1 85:2 106:1 107:1 118:1 121:1 128:1 169:1 231:1 369:1 742:2 1009:1 1061:1 1121:1 1288:1 1301:1 1454:1 1735:1 1959:1 2023:1 2625:1 3079:1 3305:1 3728:1 3776:1 4602:1 4700:1 5497:2 5502:1 5503:1 5894:1 5900:1 5901:1 8759:1 8760:1 8761:1 8762:1 8763:1 8764:1 8765:1 8766:1 13514:1 13515:1 
0.0080361735355150132 4:1 6:5 12:1 36:1 42:1 47:1 75:1 85:1 98:1 109:1 162:2 175:1 188:1 193:1 236:1 269:1 295:1 540:1 942:1 1087:1 1875:1 2627:1 2813:1 3364:1 4851:1 5184:1 8775:1 8776:1 8777:1 8778:1 8779:1 8780:1 8781:1 8782:1 8783:1 8784:1 8785:1 8786:1 13514:1 13515:1 
0.015851275141438449 4:1 6:3 36:1 1297:1 2444:1 2445:1 2446:1 13514:1 13515:1 
0.015884047796301846 4:1 6:3 36:1 2444:1 2445:1 2446:1 8796:1 13514:1 13515:1 
0.078070625101301958 4:2 6:2 12:2 13:3 47:5 52:2 67:2 69:2 115:1 150:1 162:2 252:2 328:1 350:1 1109:1 1773:1 2849:1 2885:1 3910:1 4275:1 4586:1 4718:1 4720:1 4769:1 6527:1 6949:1 7848:1 8670:1 8805:1 8806:1 8807:1 13514:1 13515:1 
0.052241127369806378 4:2 6:4 52:1 109:1 158:1 1565:1 3051:1 3713:1 6780:1 8847:1 8848:1 8849:1 8850:1 8851:1 8852:1 13514:1 13515:1 
0.2613879193132681 6:1 178:1 1786:1 1787:1 13514:1 13516:1 
0.15232588796994068 4:1 6:4 375:1 424:1 1508:1 1974:1 2556:1 3467:1 8961:1 8962:1 13514:1 13515:1 
0.014893848813022604 4:1 6:5 8:1 13:1 18:1 42:1 67:1 69:1 85:1 118:1 481:1 790:1 817:1 922:1 952:1 1393:1 1766:2 4342:1 4723:1 5987:1 8204:1 8870:1 8965:1 8966:1 8967:1 8968:1 8969:1 8970:1 8971:1 8972:1 13514:1 13515:1 
0.015355989873870631 4:3 6:5 30:5 35:1 36:1 55:1 67:1 69:1 85:1 139:5 291:1 402:2 405:2 418:1 420:1 442:1 461:2 568:1 573:1 574:1 578:1 579:1 581:1 586:1 857:1 871:1 895:1 967:1 1104:1 1770:1 2199:1 2200:1 2206:1 2212:1 2213:1 2214:1 2656:1 2661:1 2918:1 5668:1 5707:1 6137:2 6165:1 8063:1 8984:1 8985:1 8986:1 8987:1 8988:1 8989:2 8990:1 8991:1 8992:1 8993:1 8994:1 8995:1 8996:1 8997:1 8998:1 8999:1 9000:1 9001:1 9002:1 9003:1 13514:1 13515:1 
0.0067300255900414668 4:1 6:5 8:1 18:1 36:1 47:1 857:1 1630:1 3605:1 6878:1 9027:1 9028:2 9029:1 9030:1 9031:1 13514:1 13515:1 
0.26139488889145363 6:1 178:1 8566:1 8567:1 13514:1 13516:1 
0.02799852558912521 4:1 6:3 36:1 61:1 446:1 1610:1 1611:1 2904:1 3007:1 6556:1 13514:1 13515:1 
0.24750404077661214 4:2 6:2 8:1 18:1 3847:1 9103:1 9104:1 13514:1 13515:1 
0.068767519355758339 4:1 6:1 119:1 120:1 742:1 5497:1 13514:1 13517:1 
0.012030423590880326 4:2 6:5 8:1 18:1 118:1 138:1 139:1 326:1 430:1 448:1 702:1 754:1 766:1 877:2 916:1 1046:1 1213:1 1235:1 1610:1 1697:1 8621:1 9135:1 9136:1 9137:1 9138:1 9139:1 9140:1 9141:1 9142:1 9143:1 9144:1 9145:1 13514:1 13515:1 
0.030896224554988583 4:2 6:2 12:1 13:1 23:1 24:1 61:1 257:1 258:1 307:1 2577:1 2906:1 6562:1 7347:1 7360:1 13514:1 13515:1 
0.016468804951476596 4:1 6:5 8:1 12:1 18:1 36:1 51:1 52:1 85:1 101:1 109:1 148:1 2020:1 2844:2 3148:1 3715:1 4124:1 4171:1 9146:1 9147:1 9148:1 9149:1 9150:1 9151:1 13514:1 13515:1 
0.025878430512263729 4:6 6:11 8:1 12:8 13:7 18:1 42:1 47:2 52:4 57:2 67:1 69:1 85:2 118:3 155:1 162:2 166:1 193:2 286:1 304:1 321:1 362:2 363:1 435:1 483:1 484:1 502:1 540:2 660:1 801:1 806:1 807:1 808:1 817:2 819:1 822:2 834:2 1034:1 1061:1 1069:1 1087:2 1092:1 1246:1 1704:1 1715:1 1778:1 1875:1 2023:1 2033:1 2132:1 2158:1 2171:1 2221:1 2522:1 2585:1 2813:1 2825:1 3073:2 3251:1 3536:1 4560:1 5644:1 6691:1 8074:1 9186:1 9187:1 9188:1 9189:1 9190:1 9191:1 9192:1 9193:1 9194:1 9195:1 9196:1 9197:1 9198:1 9199:1 9200:1 9201:1 9202:1 9203:1 13514:1 13515:1 
0.040599847223514569 4:1 6:3 12:1 61:1 77:1 99:1 101:2 118:1 148:1 305:2 542:1 754:1 2361:1 2813:1 3667:1 3730:1 7881:1 9233:1 9234:1 9235:1 9236:1 9237:1 9238:1 9239:1 9240:1 9241:1 9242:1 13514:1 13515:1 
0.0043601460569117102 4:3 6:1 30:2 36:1 55:1 67:1 69:1 85:1 133:1 139:2 402:2 405:2 418:1 461:1 574:1 578:1 843:1 858:1 864:1 871:1 2671:1 2697:1 2887:1 3127:1 3393:1 3598:1 4278:1 7417:1 9243:1 9244:1 9245:1 9246:1 9247:2 9248:1 9249:1 9250:1 9251:1 9252:1 9253:1 9254:1 9255:1 9256:1 9257:1 9258:1 9259:1 9260:1 9261:1 9262:1 9263:1 13514:1 13515:1 
0.036522409108132876 4:1 6:4 98:1 101:1 166:1 186:1 704:1 1565:1 1739:1 4127:1 6095:1 9264:1 13514:1 13515:1 
0.220244345014765 4:1 4967:1 13514:1 13516:1 
0.089721187368712513 4:1 6:2 8:1 12:2 18:1 24:1 47:2 52:1 109:2 296:1 527:1 1092:1 1250:1 1251:1 1252:1 1253:1 1254:1 1255:1 1256:1 1257:1 1258:1 1259:1 1261:1 3730:1 13514:1 13515:1 
0.014194800761628433 4:1 6:3 13:1 47:1 51:1 98:2 99:1 115:1 321:1 402:1 405:1 1567:1 4474:1 5124:1 6020:1 6927:1 9234:1 9348:1 9349:1 9350:1 9351:1 9352:1 13514:1 13515:1 
0.021976267042457143 4:2 6:3 12:1 13:1 36:1 67:1 69:1 153:1 622:1 4319:1 7287:1 9283:1 9284:1 9285:1 9286:1 9353:1 13514:1 13515:1 
0.029279797611459192 4:2 6:5 8:2 12:1 18:2 52:2 57:1 67:1 69:1 101:1 125:1 175:1 269:1 318:1 402:1 405:1 426:1 476:1 481:1 542:1 724:1 879:1 1092:1 1130:2 1429:1 1544:2 1766:1 2062:1 3063:1 3922:1 4131:1 4507:1 5644:1 8303:1 9472:1 9473:1 9474:1 13514:1 13515:1 
0.0053019382785821486 4:1 6:6 12:2 13:1 61:1 85:2 101:1 166:1 208:1 244:1 433:1 723:1 1092:1 2234:1 3827:1 5172:1 5175:1 6281:1 6410:1 9475:1 13514:1 13515:1 
0.053755887266525845 4:6 6:8 35:1 36:1 67:2 69:2 119:1 379:1 401:1 402:1 405:1 426:1 458:1 459:1 462:1 464:1 579:1 1851:1 2195:1 2213:1 2772:1 3156:1 4686:1 5881:1 6333:1 7123:1 9003:1 9224:1 9225:1 9228:1 9517:1 9518:1 9519:1 13514:1 13515:1 
0.029251064960607823 4:1 6:5 8:1 12:2 18:1 47:2 85:1 101:1 148:1 189:1 228:1 476:1 504:1 629:1 1061:1 1062:1 1268:1 1673:1 3477:1 6103:1 8228:1 8229:1 8230:1 9549:1 9550:1 9551:1 9552:1 9553:1 9554:1 13514:1 13515:1 
0.0200091888691632 4:1 6:5 109:1 721:1 3002:1 3043:1 9561:1 9562:1 9563:1 9564:1 9565:1 9566:1 9567:1 9568:1 9569:1 9570:1 13514:1 13515:1 
0.00085720636923660148 4:4 6:6 12:1 13:3 36:1 42:1 47:4 57:1 61:1 118:2 162:1 166:1 175:1 193:1 426:2 435:1 540:1 797:2 836:1 1439:1 1785:1 1853:1 2022:1 2237:1 2436:1 2447:1 2522:2 2774:2 2792:1 3073:1 3876:1 4587:1 6133:1 6892:1 7996:1 8377:1 9295:1 9577:1 9578:1 9579:1 9580:1 13514:1 13515:1 
0.072516325793199027 4:1 6:4 8:1 12:3 18:1 38:1 42:1 47:1 51:1 75:1 81:1 88:1 89:1 106:1 162:1 307:1 475:1 697:1 1009:1 1688:1 1755:1 2400:1 2413:1 3447:1 3901:1 3921:1 4979:1 5002:1 6016:1 7781:2 8291:1 9668:1 9669:1 9670:1 9671:1 9672:1 13514:1 13515:1 
0.0064874622928259669 4:1 6:6 8:3 12:4 13:2 18:3 36:1 42:1 47:3 51:2 52:1 81:1 101:2 109:1 148:1 162:1 208:2 286:1 328:1 355:1 502:1 715:3 1018:1 1059:1 1258:1 1542:1 1593:1 1688:1 1920:1 2538:1 2841:1 3052:2 3737:1 4099:1 4242:1 4492:1 4494:2 4495:2 4854:1 4980:1 5000:1 5261:3 8190:1 8669:1 9706:1 9707:1 9708:1 9709:3 9710:1 9711:1 9712:1 9713:2 9714:1 9715:1 9716:1 9717:1 9718:1 9719:1 9720:1 13514:1 13515:1 
0.020085431616853857 4:1 6:4 30:1 85:1 133:1 139:1 418:1 424:1 865:1 983:1 1412:1 1571:1 2130:1 4438:1 9736:1 9737:1 9738:1 9739:1 9740:1 13514:1 13515:1 
0.01713629220838549 4:1 6:15 12:12 13:6 42:3 47:2 51:2 57:2 61:2 67:6 69:6 81:1 85:2 98:1 101:2 107:5 109:3 118:4 155:1 175:2 193:2 276:1 286:1 321:2 322:1 324:2 350:1 355:1 417:1 502:2 578:2 702:1 715:2 739:1 871:2 928:5 1016:1 1061:2 1082:1 1087:2 1126:1 1318:4 1494:1 1679:1 1715:1 1869:1 2023:1 2119:1 2293:1 2477:1 2885:2 3195:1 3206:1 3764:1 3795:1 3923:1 3998:1 4315:1 4335:1 4389:1 4403:1 4565:1 4996:2 5007:1 5571:1 5601:1 6455:1 6483:1 6499:1 6560:1 6575:1 6875:1 7781:1 8367:1 8717:1 8769:1 8808:1 9279:3 9802:1 9803:1 9804:1 9805:2 9806:1 9807:1 9808:1 9809:1 9810:1 9811:1 9812:2 9813:2 9814:1 9815:1 9816:1 9817:1 9818:2 9819:1 9820:1 9821:1 9822:1 9823:2 9824:1 9825:1 9826:1 9827:3 9828:3 9829:1 9830:1 9831:1 9832:1 9833:1 9834:1 9835:1 9836:1 9837:1 13514:1 13515:1 
0.0016171005837264602 4:3 6:5 12:2 23:1 24:1 36:1 47:2 52:2 57:1 85:1 101:2 118:1 175:1 473:1 540:2 822:1 952:1 1019:1 1253:1 1284:1 1342:1 1429:1 1522:1 1933:1 2761:1 3158:1 3741:1 4299:1 4637:1 4886:1 7084:1 8752:2 9925:1 9926:1 9927:1 9928:1 9929:1 9930:1 9931:2 9932:1 9933:1 9934:1 9935:1 9936:1 9937:1 9938:1 13514:1 13515:1 
0.027171164697855781 4:1 6:4 30:1 55:1 85:1 133:2 139:1 423:1 424:1 849:1 1261:1 8141:1 8345:1 9939:1 9940:1 9941:1 9942:1 9943:1 9944:1 9945:1 9946:1 9947:1 9948:1 13514:1 13515:1 
0.046905198499904988 4:2 6:6 8:2 12:5 13:3 18:2 42:1 47:1 51:2 57:2 67:1 69:1 75:1 85:1 101:2 107:1 118:1 148:1 155:1 160:1 162:1 208:1 231:1 257:1 258:1 276:2 277:1 278:1 350:1 476:1 483:1 484:1 724:1 725:1 726:1 732:1 790:1 803:1 991:1 992:1 1092:1 1213:2 1877:1 1884:1 2842:1 2906:1 4989:1 5384:1 7888:1 8705:1 9921:2 9949:1 9950:1 9951:1 9952:1 9953:1 9954:1 9955:1 9956:1 9957:1 13514:1 13515:1 
0.011974962270227872 2:1 4:1 6:2 31:1 32:1 67:1 69:1 426:2 974:1 2451:1 7913:1 9977:1 13514:1 13515:1 
0.092866799675561509 4:1 6:4 12:1 13:1 47:1 321:1 857:1 1678:1 1715:1 1811:1 3521:1 8624:1 8625:1 10001:1 13514:1 13515:1 
0.037810184015656854 4:1 6:3 13:1 67:1 69:1 85:1 101:1 118:1 166:1 175:1 244:1 328:1 454:1 818:1 4392:1 4605:1 6749:1 8285:1 8838:1 10035:1 10036:1 13514:1 13515:1 
0.053988346192251284 4:1 6:4 12:1 47:1 118:1 175:1 461:1 715:1 1233:1 1456:1 2033:1 2844:1 3155:1 6700:1 8180:1 10053:1 10054:1 10055:1 10056:1 10057:1 13514:1 13515:1 
0.084432420037873407 4:1 6:1 1291:1 1454:1 4042:1 6128:1 10111:1 13514:1 13517:1 
0.010731451612609766 4:2 6:1 30:3 36:1 55:1 139:5 402:1 405:1 566:1 567:1 568:1 569:1 570:1 571:1 572:1 573:1 574:1 576:1 577:1 578:1 579:1 580:1 581:1 582:1 583:1 584:1 585:1 586:1 588:1 589:1 590:1 4211:1 4212:1 4214:1 6516:1 13514:1 13515:1 
1 1809:1 13514:1 13515:1 
0.023163588506951403 4:2 6:3 12:1 47:2 67:1 69:1 85:1 107:1 328:1 839:1 987:1 2312:1 2570:1 3393:1 3737:1 4854:1 10233:1 10234:1 10235:1 10236:1 10237:1 10238:1 13514:1 13515:1 
8.2471672808714141e-05 4:1 6:7 12:3 47:4 51:1 52:1 67:2 69:2 85:1 109:2 155:1 195:1 261:1 667:1 2185:1 3196:1 3206:1 4013:1 4339:1 4919:1 6358:1 6504:1 6709:1 7311:1 7427:1 7881:1 8285:1 9021:1 10070:2 10260:1 10261:1 10262:1 10263:1 10264:1 10265:1 10266:1 10267:1 10268:1 10269:1 10270:1 10271:1 13514:1 13515:1 
0.011372727736288201 4:2 6:2 12:1 13:1 19:1 23:1 24:1 175:1 1761:1 3457:1 10312:1 10313:1 13514:1 13515:1 
0.042284382015735381 4:1 6:4 12:2 13:1 52:1 81:1 85:1 106:1 271:1 328:1 511:1 777:1 1564:1 1741:1 1794:1 2389:1 2671:1 3491:1 4610:1 4877:1 8602:1 10314:1 10315:1 10316:1 13514:1 13515:1 
0.027925090685399688 4:1 6:5 8:2 18:2 47:2 51:1 52:1 109:3 128:1 148:1 231:1 326:1 328:1 413:1 1121:1 1261:1 1991:1 2026:1 2185:1 2881:1 3178:1 5053:1 5762:1 9709:1 10342:1 10343:1 10344:1 13514:1 13515:1 
0.032181080392183134 2:1 4:2 6:6 13:1 42:1 51:1 67:1 77:1 118:1 128:1 133:1 162:2 188:1 293:1 877:1 952:1 1092:1 1093:1 1288:1 1424:1 1506:1 1911:1 2022:1 2033:1 2553:1 2732:1 3052:1 3289:1 3544:1 4061:1 4988:1 7463:1 7528:1 7696:1 7753:1 10346:1 10347:1 10348:1 10349:1 10350:1 10351:1 10352:1 10353:1 10354:1 10355:1 10356:1 10357:1 13514:1 13515:1 
1 4:1 4967:1 13514:1 13516:1 
0.071335052126295873 4:3 12:1 47:1 61:1 67:1 69:1 85:1 101:2 109:1 193:1 215:1 242:1 735:1 1061:1 1121:1 1318:1 1738:1 2170:1 2809:2 2813:1 3120:1 3921:1 4403:1 4557:1 5051:1 5755:1 8664:1 10461:1 10462:1 10463:1 10464:1 10465:1 10466:1 10467:1 10468:1 10469:1 13514:1 13515:1 
0.18704758799819041 4:5 6:3 30:1 34:1 67:1 69:1 133:1 139:1 155:1 402:1 405:1 877:1 1034:1 1662:1 2212:1 2213:1 2681:1 3451:1 4415:1 8704:1 9228:1 9680:1 9681:1 9682:1 9683:1 9684:1 9685:1 9688:1 13514:1 13515:1 
0.012169232252863203 4:2 6:10 8:1 12:7 13:5 18:1 42:1 47:3 51:2 52:2 57:1 67:4 68:1 69:4 71:1 92:1 101:1 106:2 109:3 118:2 121:1 133:1 155:1 162:4 188:1 244:1 289:1 290:1 318:1 328:1 350:1 355:1 504:1 620:1 809:1 1056:1 1087:1 1213:1 1334:1 1454:1 1664:1 1703:1 1814:1 1863:1 1899:1 1937:2 2632:1 2849:1 3323:1 3390:1 3510:1 3606:1 3964:1 4464:1 4506:1 4508:1 4509:1 4516:1 4721:1 4805:1 5207:1 5250:1 5872:1 6459:1 6704:2 7075:1 8666:1 8738:1 8936:1 9962:1 9968:1 10416:1 10494:1 10495:1 10496:1 10497:1 10498:1 10499:1 10500:1 10501:1 10502:1 10503:1 10504:1 10505:1 10506:1 10507:1 10508:1 10509:1 10510:1 10511:1 10512:2 10513:1 10514:1 10515:1 10516:1 10517:1 10518:1 10519:1 10520:1 10521:1 10522:1 10523:1 10524:1 10525:1 10526:1 13514:1 13515:1 
0.013077717194952905 4:2 6:4 12:1 42:1 47:1 51:1 67:1 69:1 162:1 175:1 252:1 732:1 2101:1 2105:1 2505:1 3207:1 3223:1 3227:1 3229:1 3231:1 3480:1 3565:1 3670:1 10527:1 10528:1 10529:1 13514:1 13515:1 
1 1248:1 13514:1 13515:1 
0.018086023572761172 4:1 6:5 30:1 55:1 85:1 276:1 423:1 424:1 865:1 983:1 1104:1 1553:1 1794:1 4479:1 5588:1 10387:1 10601:1 10602:1 10603:1 10604:1 10605:1 10606:1 10607:1 10608:1 13514:1 13515:1 
0.021226417059719397 4:1 6:4 55:2 98:1 99:1 418:1 423:1 424:1 428:1 549:1 1435:2 3043:1 3465:1 3477:1 8206:1 10609:1 10610:1 10611:1 10612:1 13514:1 13515:1 
0.044095468946145501 4:1 6:4 8:2 12:6 13:3 18:1 42:2 46:1 51:1 109:1 118:1 155:1 162:1 247:1 318:1 319:1 454:1 476:1 535:1 676:1 974:1 1092:1 1451:1 1991:1 2646:1 3305:1 9819:1 10655:1 10656:1 10657:1 10658:1 10659:1 10660:1 10661:1 10662:1 13514:1 13515:1 
0.02059308479311088 4:1 6:4 12:1 13:1 47:1 67:1 69:1 128:1 150:1 166:1 175:1 413:1 2023:1 2507:1 8815:1 10693:1 10694:1 10695:1 10696:1 10697:1 10698:1 13514:1 13515:1 
0.011296242217168092 4:1 6:4 67:1 69:1 85:1 379:1 418:1 424:1 1610:1 1681:1 4890:1 9854:1 10231:1 10768:1 10769:1 10770:1 10771:1 10772:1 10773:1 10774:1 13514:1 13515:1 
0.037312935808565519 4:1 6:4 77:1 166:1 1424:1 1693:1 4439:1 6528:1 6529:1 10793:1 13514:1 13515:1 
0.063334242936935903 4:2 6:1 34:1 36:1 461:1 1691:1 6393:1 13514:1 13515:1 
0.023518441257147669 4:1 6:2 8:1 18:1 67:1 69:1 109:1 175:1 394:1 1766:1 1790:1 1934:1 2059:1 2522:1 2906:1 10802:1 10803:1 10804:1 10805:1 13514:1 13515:1 
0.0045621991634083757 4:3 6:5 12:1 47:2 63:1 118:2 128:1 143:1 162:3 295:1 379:1 413:1 446:2 453:1 1456:1 1977:1 1978:1 3082:1 3852:1 4758:1 6466:1 8522:2 10549:1 10842:1 10843:1 10844:1 10845:1 10846:1 10847:1 13514:1 13515:1 
0.0060237019431415269 4:1 6:4 8:1 18:1 30:1 55:1 85:1 150:1 194:1 421:1 422:1 542:1 612:1 903:1 907:1 5778:1 10875:1 10876:1 10877:1 10878:1 10879:1 10880:1 10881:1 13514:1 13515:1 
0.004270276020791601 4:2 6:4 8:1 12:3 13:3 18:1 36:1 47:2 52:1 57:1 328:1 410:1 699:1 1457:1 1458:1 1459:2 1460:1 1461:1 1463:1 1464:1 1465:1 1466:1 1739:1 2404:1 5047:1 10888:1 10889:1 13514:1 13515:1 
0.010133498909231512 4:4 6:10 12:4 13:2 35:1 42:1 101:1 109:1 162:2 187:1 231:1 236:1 276:1 286:2 350:2 502:2 696:1 813:1 952:1 1336:1 1342:1 1824:2 2087:1 2505:3 3205:1 3499:1 4098:1 4566:1 4745:1 5257:1 5357:1 5394:1 5818:1 8019:1 9765:1 10030:2 10890:1 10891:1 10892:2 10893:3 10894:1 10895:1 10896:1 10897:1 10898:1 10899:1 10900:1 13514:1 13515:1 
0.011240848241941078 4:3 6:4 12:4 13:1 23:1 24:1 42:1 85:1 98:1 109:1 162:1 183:1 188:1 319:1 383:1 540:1 724:1 725:1 779:1 789:1 911:1 1126:1 1810:1 1815:1 1859:1 3385:1 3535:1 4235:1 9429:1 10906:1 10907:1 10908:1 10909:1 10910:1 13514:1 13515:1 
0.0073376591008019066 4:3 6:6 8:2 12:1 13:1 18:2 42:2 47:1 52:1 67:3 69:3 106:1 109:2 118:1 148:1 155:1 162:2 175:1 183:1 193:1 236:1 252:1 324:1 331:2 350:1 504:1 655:1 766:1 1078:1 1081:1 1092:1 1706:1 1724:1 1730:1 1929:1 2418:1 2419:1 2426:1 2427:1 2878:2 2885:2 2970:1 3486:1 3760:1 4338:1 4557:1 4880:1 5250:1 5704:1 7422:1 7902:1 9760:1 10523:1 10911:1 10912:1 10913:1 10914:1 10915:1 10916:1 10917:1 10918:1 10919:1 10920:1 10921:1 10922:1 10923:1 10924:1 13514:1 13515:1 
0.077804087910553626 4:2 6:2 8:1 18:1 36:1 52:1 98:1 5222:1 9171:1 10951:1 10952:1 10953:1 13514:1 13515:1 
0.049778125558979425 4:1 6:4 12:1 52:1 57:1 118:1 166:1 1811:1 8813:1 11034:1 11035:1 11036:1 11037:1 11038:1 11039:1 13514:1 13515:1 
0.047657451926292345 4:1 6:5 47:1 67:1 69:1 118:1 644:1 735:1 1401:2 1402:2 2023:1 2097:1 8835:1 11027:1 11040:1 11041:1 11042:1 11043:1 11044:1 11045:1 11046:1 13514:1 13515:1 
0.11213669288211649 4:1 6:5 30:1 55:1 131:1 139:1 418:1 454:1 581:1 1296:1 1434:1 1573:1 2097:1 2914:1 4195:1 4971:1 10569:1 11050:1 11051:1 11052:1 13514:1 13515:1 
0.003787699353282172 4:1 6:5 8:1 18:1 85:2 133:1 148:1 418:1 421:1 461:1 473:1 542:1 557:1 907:1 917:1 918:1 10384:1 11080:1 11081:1 11082:1 11083:1 11084:1 11085:1 11086:1 13514:1 13515:1 
0.017906887214722778 4:1 6:3 31:1 36:1 67:1 69:1 85:1 291:1 1302:1 1974:1 2772:1 3124:1 3125:1 3126:1 3160:1 3303:1 3839:1 4279:1 4282:1 9037:1 13514:1 13515:1 
0.28343038007772725 4:1 6:2 77:1 577:1 4415:1 4692:1 11195:1 11196:1 13514:1 13515:1 
0.029731899707162064 6:5 8:1 18:1 36:1 324:1 515:1 516:1 518:1 519:1 520:1 1814:1 3299:1 4343:1 6100:1 7736:1 8540:1 13514:1 13515:1 
0.039473285677076628 4:1 6:4 8:2 13:2 18:2 42:2 47:2 55:1 67:1 69:1 85:2 101:1 109:1 130:1 152:1 231:1 291:1 413:1 478:2 614:1 1061:1 1342:1 1453:1 1715:1 1720:1 1741:2 3862:1 4071:1 5245:1 10619:1 10620:1 10632:1 10831:1 11264:1 11265:1 11266:1 11267:1 11268:1 11269:1 13514:1 13515:1 
0.030075103124654761 4:1 6:2 36:1 109:2 996:1 2792:1 3512:1 3903:1 4914:1 5653:1 13514:1 13515:1 
0.0071383939626912512 4:1 6:6 8:1 18:1 36:1 47:1 51:1 101:1 109:1 186:1 236:1 608:1 1472:1 1673:1 1739:1 2229:1 2598:1 2627:1 4787:1 11373:1 11374:1 11375:1 11376:1 11377:1 13514:1 13515:1 
0.017340409943166081 4:1 6:5 118:1 166:1 310:1 1991:1 2492:1 3684:1 3718:1 7128:1 11380:1 11381:1 13514:1 13515:1 
0.050270150154829045 4:2 6:3 36:1 120:1 244:1 461:1 480:1 2097:1 6165:1 6354:1 6362:1 13514:1 13515:1 
0.017370447787014201 4:2 6:4 12:2 13:1 42:1 107:1 166:1 697:1 750:1 1093:1 1318:1 1706:1 2478:1 2644:1 3741:1 3994:1 4872:1 7883:1 8605:1 10667:1 11409:1 11410:1 13514:1 13515:1 
0.012222512286245589 4:1 6:3 85:1 133:1 139:1 155:1 402:1 405:1 843:1 858:1 864:1 1681:1 4653:1 8680:1 11419:1 11420:1 11421:1 13514:1 13515:1 
0.099275768783980187 4:1 6:4 47:1 166:1 1412:1 1739:1 2306:1 4715:1 11438:1 11439:1 11440:1 11441:1 13514:1 13515:1 
0.043480378917948079 4:1 6:5 47:1 55:1 85:1 133:1 139:1 150:1 865:1 982:1 983:1 3049:1 4483:1 4488:1 7044:1 8826:1 10325:1 11480:1 11481:1 11482:1 11483:1 11484:1 13514:1 13515:1 
0.0062818381554887899 4:1 6:6 12:5 13:1 47:3 57:1 81:1 155:1 162:2 166:1 350:1 508:1 807:1 1016:1 1082:1 1342:1 1669:1 2022:1 2023:1 2119:1 2235:1 2263:1 2813:1 3099:1 3148:1 3569:1 3973:1 4426:1 5250:1 5818:1 7658:1 7753:1 10665:1 11526:1 11527:1 11528:1 11529:1 11530:1 11531:1 11532:1 11533:1 11534:1 11535:1 11536:1 11537:1 11538:1 11539:1 13514:1 13515:1 
0.074171145950114897 4:2 6:4 8:1 12:5 18:1 23:1 24:1 51:1 98:1 664:1 2896:1 3151:1 3152:1 11643:1 11644:1 11645:1 11646:1 11647:1 13514:1 13515:1 
0.00035872084163837144 4:5 6:2 36:1 55:2 67:1 69:1 85:1 133:2 139:2 402:1 405:1 566:1 574:2 577:1 579:1 585:1 586:1 589:1 590:1 843:1 852:1 877:1 1044:1 1508:1 1796:1 1797:1 1798:1 2327:1 2671:1 2681:1 2692:1 3447:1 3452:1 3454:1 7263:1 9856:1 10933:1 11700:1 11701:1 11702:1 11703:1 11704:1 11705:1 11706:1 13514:1 13515:1 
0.096677039725495489 4:1 6:2 67:1 69:1 85:1 133:1 139:1 1092:1 1100:1 1574:1 1974:1 3549:1 3578:1 3585:1 3620:1 3626:1 3821:1 10750:1 11875:1 11876:1 13514:1 13515:1 
0.002921467582739297 4:3 6:6 8:1 12:5 13:2 18:1 24:1 36:1 42:3 47:1 52:1 57:1 81:1 106:2 118:1 120:1 162:5 183:1 193:1 296:1 351:1 355:1 379:1 626:1 715:1 785:1 813:1 829:1 1059:1 1061:1 1063:1 1087:1 1318:1 1337:1 2170:1 2185:1 2360:1 2409:1 2467:1 2530:1 2565:1 2638:1 2761:1 3715:1 3720:1 3721:1 3737:3 3769:1 4403:1 4763:1 4874:1 5046:1 5818:1 6306:1 6381:1 6602:1 6606:1 6677:1 7337:1 7879:1 9092:1 11877:1 11878:1 11879:1 11880:1 11881:1 11882:1 11883:1 11884:1 11885:1 11886:1 11887:1 11888:1 11889:1 13514:1 13515:1 
0.21021035234317426 4:1 6:1 98:1 913:1 927:1 1069:1 2180:1 4104:1 13514:1 13517:1 
0.15198499456698222 4:1 6:1 12:1 13:2 42:1 67:1 69:1 109:1 162:1 169:1 193:1 239:1 321:1 1087:1 1318:1 2481:1 6611:1 6741:1 7405:1 11905:1 11906:1 11907:1 11908:1 11909:1 11910:1 11911:1 13514:1 13515:1 
0.049150179017717822 4:2 6:1 12:4 51:1 61:1 67:2 68:1 69:2 85:1 98:1 101:1 107:1 118:1 162:1 258:1 296:1 491:1 723:1 1059:1 1741:1 2505:1 2536:1 4038:1 4126:1 4610:1 9603:1 11933:1 11934:1 11935:1 11936:1 11937:1 11938:1 11939:1 11940:1 11941:1 11942:1 11943:1 13514:1 13515:1 
0.19978994192441563 4:1 6:1 36:1 1544:1 11340:1 11344:1 13514:1 13517:1 
0.040641696120630129 2:1 4:1 6:2 32:1 699:1 2453:1 3995:1 11975:1 13514:1 13515:1 
0.024366928677722929 4:1 6:5 30:2 107:1 121:1 128:1 133:1 276:1 857:1 976:1 1046:1 1959:1 2556:1 3393:1 6755:1 8275:2 9849:1 10307:1 10832:1 11950:1 11989:1 11990:1 11991:2 11992:1 11993:1 11994:1 13514:1 13515:1 
0.06942084633450997 6:2 12:1 101:1 178:1 328:1 1393:1 1394:1 1395:1 1396:1 1397:1 1661:1 8833:1 13514:1 13517:1 
0.026489456344172928 4:1 6:5 12:2 47:1 52:1 85:1 148:1 162:1 175:1 321:2 350:1 595:1 633:1 653:1 771:1 785:1 793:1 795:1 940:1 1081:1 1522:1 1877:2 2176:1 2577:1 5250:1 6725:1 12051:1 12052:1 12053:1 12054:1 12055:1 12056:1 12057:1 13514:1 13515:1 
0.049294897163127661 4:2 6:4 8:1 12:2 13:2 18:1 36:1 42:2 154:1 193:1 379:1 440:1 461:1 512:1 527:1 564:1 715:1 782:1 1063:1 3105:1 5172:1 5236:1 8638:1 10637:1 11395:1 12087:1 13514:1 13515:1 
0.014079256861487588 4:1 6:5 8:1 12:1 18:1 47:1 109:1 148:1 941:1 1553:1 2304:1 2598:1 2627:1 3178:1 4067:1 4494:1 4793:1 4921:1 5400:1 12098:1 12099:1 12100:1 12101:1 12102:1 13514:1 13515:1 
0.16962800968517652 2:1 4:1 6:2 12:1 32:1 52:1 1092:1 2905:1 4180:1 4988:1 12188:1 12189:1 13514:1 13515:1 
0.0069726158571988628 4:2 6:6 8:1 18:1 30:1 51:1 67:1 69:1 139:1 155:1 291:1 435:1 565:1 583:1 684:1 700:1 834:1 1576:1 2444:1 2766:1 10371:1 10966:1 12271:1 12272:1 12273:1 12274:1 13514:1 13515:1 
0.082693460715606529 6:4 118:1 411:1 478:1 4962:1 4963:1 7268:1 12351:1 12352:1 12353:1 13514:1 13515:1 
0.015884047796301759 4:1 6:3 36:1 2444:1 2445:1 2446:1 9897:1 13514:1 13515:1 
0.014791339312518685 4:1 6:4 12:1 47:1 402:1 405:1 461:1 766:1 958:1 1261:1 1756:2 2872:1 3667:1 4474:2 9235:1 11118:1 12428:1 12429:1 12430:1 12431:1 12432:1 13514:1 13515:1 
0.0015932082777460408 4:5 6:5 8:1 12:2 18:1 42:7 52:2 85:1 98:1 101:1 106:4 109:4 121:1 175:2 193:1 236:1 328:1 383:1 480:1 504:1 542:1 715:1 771:1 772:2 784:2 789:1 822:1 825:1 952:1 1002:1 1047:1 1087:2 1110:1 1667:1 1738:1 2884:1 3105:1 3256:1 3588:1 4136:1 4234:1 5565:1 5575:1 5618:1 5735:1 5806:1 6023:1 7741:1 8132:5 8434:1 8496:1 9958:1 12469:1 12470:1 12471:1 12472:2 12473:1 12474:1 12475:1 12476:1 12477:1 12478:1 12479:1 12480:1 12481:1 12482:1 12483:1 12484:1 12485:1 13514:1 13515:1 
0.012841822663313405 4:2 6:5 8:1 13:1 18:1 24:1 27:1 47:3 77:1 118:1 133:1 170:1 517:1 1123:1 1424:1 2022:1 2270:1 4439:1 11328:1 12122:1 12507:1 12508:1 12509:1 12510:1 13514:1 13515:1 
0.025051501647029288 4:1 6:4 8:1 12:3 13:1 18:1 36:1 42:2 51:1 57:1 101:1 665:1 666:1 667:1 668:1 669:1 670:1 671:2 2699:1 5702:1 10160:1 10161:1 10162:1 10163:1 12368:1 12566:1 13514:1 13515:1 
0.13582648003649164 4:2 6:3 13:1 175:1 193:1 411:1 1774:1 1775:1 1920:1 5241:1 5242:1 13514:1 13515:1 
0.034396832162284723 4:1 6:3 42:1 67:1 68:1 69:1 109:1 224:1 1262:1 1334:1 1457:1 1715:1 2745:1 9175:1 11269:1 12609:1 13514:1 13515:1 
0.0075736768825088374 4:2 6:3 8:1 13:1 18:1 36:1 47:1 51:1 67:2 69:2 81:1 109:1 118:1 257:1 258:1 293:1 373:1 752:1 787:1 843:1 1036:1 1092:1 1424:1 1987:1 2022:1 2304:1 3177:1 6642:1 6901:1 7971:1 11330:1 11331:1 12122:1 12162:1 13514:1 13515:1 
0.021714062856259569 4:2 6:5 8:3 12:4 13:5 18:3 42:2 47:1 52:3 57:1 67:2 69:2 109:1 162:2 193:2 209:1 274:2 325:1 350:1 546:1 696:1 697:1 785:1 909:1 995:1 1087:1 1121:1 1209:1 1315:1 1582:1 1766:1 1790:1 1927:3 1934:1 3854:1 3993:1 6128:2 6129:1 6572:1 6833:1 8110:1 8870:2 11462:1 12693:1 12694:1 12695:1 12696:1 12697:1 12698:1 12699:1 12700:1 12701:1 12702:1 12703:1 12704:1 12705:1 12706:1 12707:1 12708:1 12709:1 12710:1 12711:1 13514:1 13515:1 
0.060100572334586495 4:3 6:2 8:1 18:1 30:2 119:1 129:1 130:1 134:1 138:1 139:2 154:1 241:1 276:1 1092:1 2771:1 6240:1 7192:1 8865:1 8866:1 8867:1 8868:1 8869:1 13514:1 13515:1 
0.10293998798491431 4:2 6:4 8:1 12:2 13:2 18:1 42:1 52:1 67:1 69:1 106:1 107:1 175:1 208:1 209:1 542:1 735:1 799:1 834:2 1260:1 4218:1 5962:1 6894:1 8163:1 8735:1 10245:1 10426:1 12746:1 13514:1 13515:1 
0.01527771071694219 4:4 6:9 8:1 12:5 18:1 42:1 52:1 101:1 107:1 109:3 118:1 128:1 162:2 175:1 274:1 289:1 324:1 331:1 332:1 355:1 413:1 454:1 609:1 715:2 785:1 1087:1 1301:1 1318:1 1463:1 2119:1 2153:2 2417:1 2427:1 2441:1 2699:1 2885:1 3348:1 4985:1 5908:1 6016:1 6117:1 6120:1 6282:2 6338:1 6457:1 6502:1 6597:1 6599:1 6642:1 7590:1 9581:1 10427:1 12789:1 12790:1 12791:1 12792:2 12793:1 12794:1 12795:1 12796:1 12797:1 12798:1 12799:1 12800:1 12801:1 13514:1 13515:1 
0.059661185164064691 4:1 6:1 47:1 119:1 120:1 1252:1 1253:1 8673:1 8674:1 13514:1 13517:1 
0.013486303394913518 4:4 6:3 12:1 13:1 36:1 51:1 52:1 57:1 107:1 118:1 143:1 148:1 176:1 295:1 554:1 699:1 732:1 784:1 1424:1 1735:1 6484:1 6855:1 11573:1 11574:1 13067:1 13068:1 13514:1 13515:1 
0.049790879073243512 4:1 6:2 155:1 1682:1 1683:2 2314:1 9761:1 10684:1 13514:1 13515:1 
0.031977701519067037 4:1 6:3 8:1 12:2 13:2 18:1 42:1 75:1 125:1 148:1 350:1 540:1 789:1 1087:1 1118:1 1326:1 2286:1 7826:1 8086:1 9209:1 13077:1 13078:1 13514:1 13515:1 
0.021624744761909367 4:2 6:4 12:2 13:1 47:1 75:1 98:1 109:1 296:1 467:1 468:1 469:1 470:1 1260:1 2717:1 3863:1 4872:1 5795:1 6246:1 6868:1 6883:1 13079:1 13080:1 13514:1 13515:1 
0.90673197682491191 4:1 1767:1 13514:1 13516:1 
0.034293996339600265 4:1 6:3 8:2 12:5 13:2 18:2 42:3 47:1 52:1 67:1 69:1 81:1 85:1 98:1 101:1 106:2 162:1 169:2 236:1 321:2 402:1 405:1 508:1 879:1 1088:1 1121:1 1315:1 1318:1 1320:1 1342:1 1877:1 2170:1 2481:1 2505:1 2606:1 2813:1 3258:1 3760:1 3807:1 3921:1 4220:2 4403:1 4433:1 4753:1 5784:1 5818:1 5829:1 6504:2 9297:2 10425:1 10994:1 12198:1 12228:1 12241:1 12254:1 12255:1 13147:1 13148:1 13149:1 13150:1 13151:1 13152:1 13153:1 13154:1 13155:1 13156:1 13157:1 13514:1 13515:1 
0.027148392732783883 4:1 6:5 8:1 12:1 18:1 24:1 36:1 61:1 85:1 98:1 148:1 162:1 318:1 350:1 531:1 1269:1 1762:1 2185:1 2567:1 3703:1 5222:1 7957:1 9375:1 13168:1 13169:1 13170:1 13171:1 13514:1 13515:1 
0.081788941654510366 4:1 6:2 8:1 18:1 36:1 57:1 67:1 69:1 143:1 236:1 272:1 318:1 750:1 828:1 1087:1 1342:1 2409:1 9327:1 11708:1 12198:1 12220:1 13178:1 13514:1 13515:1 
0.0023726805773231214 4:1 6:2 30:1 36:1 67:1 69:1 85:1 387:1 865:1 983:1 1300:1 2766:1 2774:1 3052:1 3230:1 3578:2 4850:1 5633:1 6393:1 13179:1 13514:1 13515:1 
0.006269222878327786 4:1 6:5 8:1 12:1 18:1 36:1 52:1 58:1 61:1 148:1 454:1 595:1 676:1 785:1 989:1 3701:1 9043:1 9359:1 13220:1 13221:1 13514:1 13515:1 
0.0078460818128656198 4:3 6:12 8:1 12:5 13:5 18:1 36:1 42:2 47:2 51:2 52:3 67:3 69:3 101:1 107:2 109:1 115:1 118:1 162:2 187:2 247:1 257:2 350:1 426:1 435:1 440:1 490:1 735:1 813:1 959:2 1078:1 1087:1 1315:1 1328:1 1340:1 1459:1 1583:1 1604:1 2033:1 2148:1 2536:1 2705:1 2813:1 3763:1 4743:1 5465:1 5489:1 5753:1 6386:1 6457:1 7198:1 7578:1 7872:1 8116:1 8367:1 8716:1 12976:1 13273:1 13274:1 13275:1 13276:1 13277:1 13278:1 13279:1 13280:1 13281:1 13282:1 13283:1 13284:1 13285:1 13286:1 13287:1 13288:1 13289:1 13290:1 13291:1 13292:1 13293:1 13294:1 13295:1 13296:1 13297:1 13298:1 13299:1 13300:1 13301:1 13302:1 13303:1 13514:1 13515:1 
0.0053129739429037485 4:3 6:1 47:1 67:1 69:1 85:2 166:1 328:1 1255:1 3477:1 4035:1 4893:1 5325:1 13331:1 13332:1 13333:1 13334:1 13514:1 13515:1 
0.097102789201138739 4:1 99:1 101:1 118:3 148:1 596:1 608:1 735:1 817:1 6924:1 13335:1 13336:1 13514:1 13516:1 
0.096120096846119871 6:2 8:1 18:1 47:1 85:1 90:1 106:1 115:1 150:1 162:1 1260:1 1277:1 5702:1 10829:1 12601:1 13337:1 13338:1 13339:1 13514:1 13515:1 
0.013630604598004173 4:5 6:8 8:2 12:1 13:3 18:2 51:2 52:3 85:1 109:4 133:1 152:1 162:2 193:2 328:1 343:1 344:1 350:1 355:2 423:1 766:1 784:1 786:1 902:1 1016:1 1087:1 1318:1 1705:1 1730:1 1929:1 2082:1 2170:1 2415:1 2606:1 2885:2 3469:1 3527:1 3880:1 4194:1 4353:2 4717:1 5250:1 5375:1 5657:1 5793:1 6098:2 6221:1 6644:1 7422:1 7482:2 7566:1 8260:1 8276:1 8277:1 8691:1 9154:1 9939:2 12036:1 13398:2 13399:1 13400:1 13401:1 13402:1 13403:1 13404:1 13405:1 13406:1 13407:2 13408:1 13409:1 13410:1 13411:1 13412:1 13413:1 13414:1 13514:1 13515:1 
0.0056307417077195035 4:1 6:5 8:1 18:1 36:1 118:1 461:1 551:1 684:1 685:1 1059:1 1472:1 3300:1 4794:1 13415:1 13514:1 13515:1 
0.033756955598173786 4:1 6:5 8:1 12:2 18:1 47:2 57:1 85:1 101:1 109:1 148:1 231:1 328:1 401:1 448:1 723:1 731:1 783:1 1092:1 1121:1 1397:1 1398:2 1417:1 1541:1 1942:1 6456:1 10661:1 13444:1 13445:1 13446:1 13447:1 13448:1 13449:1 13450:1 13514:1 13515:1 
0.04336345590851802 4:1 6:3 67:1 69:1 85:1 101:1 224:1 228:1 276:1 404:1 418:1 423:1 424:1 1435:1 1544:1 1720:1 8103:1 10259:1 13454:1 13455:1 13456:1 13457:1 13458:1 13514:1 13515:1 
0.0061082689222512815 4:2 6:8 12:2 47:1 57:1 67:1 68:1 69:1 106:1 109:1 162:1 166:1 183:1 296:1 1920:1 2612:1 2731:1 2734:1 2736:1 2737:1 2738:1 4734:1 6312:1 11410:1 11954:1 13080:1 13459:1 13460:1 13461:1 13462:1 13463:1 13464:1 13465:1 13466:1 13467:1 13514:1 13515:1 
0.13801205643564252 4:2 6:1 8:1 12:3 13:3 18:1 61:1 67:1 69:1 115:1 193:1 1092:1 1544:1 1701:1 2627:1 4070:1 4275:1 4718:1 4720:1 7175:1 11403:1 12658:1 12659:1 13514:1 13515:1 
0.10172689525349563 4:2 6:1 8:1 13:1 18:1 52:1 178:1 475:1 609:1 1715:1 1771:1 4710:1 4711:1 4712:1 13514:1 13515:1 
-0.0012601298451688384 4:1 6:1 12:1 47:1 67:1 69:1 101:1 162:1 180:1 181:1 182:1 183:1 184:1 185:1 186:1 187:1 188:1 189:1 190:1 191:1 192:1 193:1 194:1 195:1 196:2 197:1 13514:1 13515:1 
-0.022145172525029719 4:1 6:3 12:2 13:1 52:1 67:1 69:1 85:1 118:1 162:1 281:1 282:1 283:1 284:1 285:1 286:1 287:1 288:1 289:1 290:1 291:1 292:1 293:1 294:1 295:1 296:1 297:1 298:1 13514:1 13515:1 
-0.0271783184591981 4:1 6:1 12:2 61:1 101:1 315:1 316:1 317:1 318:1 319:1 320:1 321:1 322:2 323:1 324:1 325:1 326:1 327:1 13514:1 13517:1 
-0.13070598860890187 4:4 6:4 119:1 458:1 459:1 460:1 461:1 462:1 463:1 464:1 465:1 466:1 13514:1 13515:1 
-0.095828925344264931 4:1 6:2 148:1 483:1 484:1 485:1 486:1 13514:1 13515:1 
-0.037047957323192833 4:1 6:1 8:2 12:2 13:1 18:2 51:1 52:1 57:1 67:1 69:1 118:1 296:1 487:1 488:1 489:1 490:1 491:1 492:1 493:1 494:1 495:1 13514:1 13515:1 
-0.51301483044742013 543:1 13514:1 13515:1 
-0.035006089494196445 12:1 47:1 67:1 69:1 598:1 599:1 600:1 601:1 602:1 603:1 13514:1 13517:1 
-0.069477313438822977 2:1 4:3 6:3 8:3 12:2 13:2 18:3 42:1 47:2 51:2 52:2 67:1 69:1 77:2 85:4 109:2 130:1 148:1 188:1 283:1 379:1 454:1 480:1 604:1 605:1 606:1 607:1 608:1 609:1 610:1 611:1 612:1 613:1 614:1 615:1 616:1 617:1 618:1 619:1 620:1 621:1 622:1 623:1 624:1 625:1 626:1 627:1 628:1 629:1 630:1 631:1 632:1 13514:1 13515:1 
-0.0098557543382565786 6:4 12:1 47:1 51:1 57:1 67:3 69:3 101:2 106:1 109:1 128:1 162:1 193:1 504:1 701:1 702:1 703:1 704:1 705:1 706:2 707:2 708:1 709:1 710:1 711:1 712:1 713:1 714:1 715:2 716:1 717:1 718:1 719:1 720:1 721:1 722:1 723:1 13514:1 13515:1 
-0.026794821379520779 6:1 139:1 276:1 418:1 578:1 871:1 881:1 1040:1 1041:2 1042:1 1043:1 1044:1 1045:2 1046:2 1047:1 1048:1 1049:1 1050:1 1051:1 1052:1 1053:1 13514:1 13515:1 
-0.0050138021146033671 4:2 6:2 11:1 12:1 52:2 61:1 85:1 109:1 363:1 426:1 461:1 483:1 832:1 952:1 1065:1 1066:1 1067:2 1068:1 1069:1 1070:1 13514:1 13515:1 
-0.023060991789790205 4:1 6:4 12:2 13:2 47:1 52:1 57:1 107:1 118:1 231:1 276:1 321:1 324:1 362:1 1071:1 1072:1 1073:1 1074:2 1075:1 1076:1 1077:1 1078:1 1079:1 1080:1 1081:1 1082:1 1083:1 1084:1 1085:1 1086:1 1087:1 1088:1 1089:1 1090:1 1091:1 13514:1 13515:1 
-0.0015867622859016268 6:1 12:3 13:3 42:1 47:2 52:3 57:1 61:1 85:1 101:1 106:1 107:1 162:2 233:1 236:1 324:1 475:3 504:1 540:3 715:1 801:1 822:1 940:1 1019:1 1108:1 1109:1 1110:1 1111:1 1112:1 1113:1 1114:1 1115:2 1116:1 1117:1 1118:1 1119:1 1120:1 1121:1 1122:1 1123:1 1124:1 1125:1 1126:1 1127:1 1128:1 1129:1 1130:1 1131:1 13514:1 13515:1 
-0.0078106641457370311 4:2 6:6 1133:1 1134:1 1135:1 1136:3 1137:2 1138:3 1139:3 1140:1 1141:1 1142:1 1143:1 1144:1 1145:1 1146:1 1147:1 1148:1 1149:2 1150:1 1151:2 1152:1 1153:2 1154:4 1155:4 1156:1 1157:1 1158:1 1159:1 1160:1 1161:1 1162:1 1163:1 1164:1 1165:1 1166:1 1167:1 1168:1 1169:4 1170:1 1171:2 1172:1 1173:1 1174:1 1175:1 1176:1 1177:1 1178:1 1179:1 1180:1 1181:1 1182:1 1183:1 1184:1 1185:1 1186:1 1187:2 1188:1 1189:1 1190:1 1191:1 1192:1 1193:1 1194:2 1195:1 1196:1 1197:1 1198:1 1199:1 1200:1 1201:1 1202:1 1203:1 1204:1 1205:1 1206:1 1207:1 1208:1 13514:1 13515:1 
-0.0012656975861129742 4:2 6:9 8:1 12:4 13:1 18:1 52:1 57:2 67:1 69:1 101:3 107:1 118:1 276:2 296:1 318:2 490:1 723:1 1009:1 1019:1 1087:2 1209:1 1210:1 1211:1 1212:1 1213:2 1214:1 1215:1 1216:1 1217:1 1218:1 1219:1 1220:1 1221:1 1222:1 1223:1 1224:1 1225:1 1226:1 1227:1 1228:1 1229:1 1230:1 1231:1 1232:1 1233:1 1234:1 1235:1 1236:1 1237:1 1238:1 1239:2 1240:1 1241:1 1242:1 1243:1 1244:1 1245:1 1246:1 1247:1 13514:1 13515:1 
-0.05092017166761674 4:2 6:4 8:1 12:1 18:1 47:1 52:1 77:1 106:1 162:1 221:1 236:1 257:1 261:1 276:1 461:1 1087:1 1253:1 1413:2 1414:1 1415:1 1416:1 1417:1 1418:1 1419:1 1420:1 1421:1 1422:1 1423:1 1424:1 1425:1 1426:1 1427:1 1428:1 13514:1 13515:1 
-0.19812889424153901 4:1 6:3 12:2 36:1 133:1 328:1 1132:1 1209:1 1506:1 1507:1 1508:1 1509:1 1510:1 1511:1 1512:1 1513:1 1514:1 1515:1 1516:1 13514:1 13515:1 
-0.033009301439871221 4:1 6:1 12:1 67:1 69:1 85:2 109:1 118:1 193:1 527:1 542:1 836:1 958:1 1517:1 1518:1 1519:1 1520:1 1521:1 1522:1 1523:1 1524:1 1525:1 1526:1 1527:1 13514:1 13515:1 
-0.029448724036480647 4:5 6:9 8:4 12:2 13:4 18:4 30:1 42:2 47:1 51:1 61:1 67:1 69:1 98:1 121:1 133:1 162:2 175:1 186:1 232:1 293:1 324:1 383:1 387:1 504:1 520:1 715:1 1083:1 1310:1 1315:1 1318:1 1569:1 1570:1 1571:1 1572:1 1573:1 1574:1 1575:1 1576:1 1577:1 1578:1 1579:1 1580:4 1581:1 1582:1 1583:1 1584:1 1585:1 1586:1 1587:1 1588:1 1589:2 1590:1 1591:1 1592:1 1593:1 1594:1 1595:1 1596:1 1597:1 1598:1 1599:1 1600:1 1601:1 1602:1 1603:1 1604:1 1605:1 13514:1 13515:1 
-0.015426886715881325 4:1 6:3 67:1 69:1 402:1 405:1 480:1 1136:2 1138:1 1161:1 1163:1 1173:2 1174:1 1181:1 1194:1 1522:1 1634:1 1635:1 1636:1 1637:1 1638:1 1639:1 1640:1 1641:2 1642:1 1643:1 1644:1 1645:1 1646:1 1647:1 1648:1 1649:1 1650:1 1651:1 1652:1 1653:1 1654:1 1655:1 1656:1 1657:1 1658:1 1659:1 1660:1 1661:1 1662:1 13514:1 13515:1 
-0.010552914694994028 4:2 6:9 12:7 13:2 42:1 47:1 61:1 67:6 69:6 106:1 109:2 118:1 121:1 162:3 183:1 257:1 350:1 435:1 442:1 494:1 620:1 795:1 815:1 825:1 839:1 912:1 1093:1 1213:1 1235:1 1236:1 1724:1 1725:1 1726:1 1727:1 1728:1 1729:1 1730:1 1731:2 1732:1 1733:1 1734:1 1735:1 1736:1 1737:1 1738:1 1739:1 1740:1 1741:3 1742:1 1743:1 1744:1 1745:1 1746:2 1747:1 1748:1 1749:1 1750:1 1751:1 1752:1 1753:1 1754:1 1755:1 13514:1 13515:1 
-0.068439889938454568 4:1 12:1 42:1 52:1 67:1 69:1 604:1 1762:1 1763:1 1764:1 1765:1 1766:1 13514:1 13515:1 
-0.021466886148613498 4:3 6:5 8:2 12:5 13:2 18:2 42:1 47:2 51:1 52:3 61:1 85:2 98:1 101:1 118:1 324:1 479:2 504:1 556:2 609:1 913:1 1019:1 1429:1 1494:1 1769:1 1770:1 1771:2 1772:1 1773:1 1774:3 1775:3 1776:2 1777:1 1778:1 1779:1 1780:1 1781:1 1782:1 1783:1 1784:1 1785:1 13514:1 13515:1 
-0.0039593984553866444 4:2 6:9 12:5 13:3 47:2 61:1 85:1 106:2 113:1 118:3 162:1 236:1 257:1 258:1 274:1 461:1 655:1 1019:1 1087:1 1088:1 1216:1 2011:1 2085:1 2086:1 2087:1 2088:1 2089:1 2090:1 2091:1 2092:1 2093:1 2094:1 2095:1 2096:1 2097:2 2098:1 2099:1 2100:2 2101:1 2102:1 2103:1 2104:1 2105:1 2106:1 2107:1 2108:1 2109:1 13514:1 13515:1 
-0.25752802832102167 4:1 13:1 175:1 2220:1 2221:1 2222:1 2223:1 13514:1 13516:1 
-0.045959454826087535 12:2 47:1 109:1 175:1 817:1 1504:1 2368:1 2369:1 2370:1 2371:1 2372:1 2373:1 13514:1 13515:1 
-0.10468198325334876 4:1 6:2 148:1 483:1 484:1 2434:1 2435:1 13514:1 13515:1 
-0.085945628776104108 6:1 13:2 47:2 106:1 109:3 118:1 124:1 454:1 1069:1 2352:1 2436:1 2437:1 2438:1 2439:1 2440:1 2441:1 2442:1 13514:1 13516:1 
-0.036673227342656427 6:8 8:1 12:3 13:1 18:1 36:1 42:2 47:1 51:2 57:1 85:1 101:1 109:1 118:1 169:1 175:1 236:2 276:1 321:2 402:1 405:1 505:1 508:1 511:1 554:1 578:1 783:1 871:1 879:1 1082:1 1087:1 1326:1 1469:1 1472:1 1552:1 2023:1 2242:1 2250:1 2300:1 2467:1 2468:1 2469:1 2470:2 2471:1 2472:1 2473:1 2474:1 2475:1 2476:1 2477:1 2478:1 2479:1 2480:1 2481:1 2482:1 2483:1 2484:1 2485:1 2486:1 2487:1 2488:1 2489:1 2490:1 2491:1 2492:1 2493:1 13514:1 13515:1 
-0.037009780580060478 4:1 6:4 12:1 13:1 36:1 42:1 47:1 52:1 61:1 67:1 69:1 85:1 106:1 109:3 118:1 247:1 483:1 484:1 653:1 822:1 913:1 1718:1 1770:1 2023:2 2511:1 2512:1 2513:1 2514:1 2515:1 2516:1 2517:1 2518:1 2519:1 2520:1 2521:1 2522:1 2523:1 2524:1 2525:1 2526:1 13514:1 13515:1 
-0.057774646476498125 4:1 6:1 42:1 107:1 350:1 727:1 1121:1 1338:1 2119:1 2414:1 2701:1 2702:1 2703:1 2704:1 2705:1 2706:1 2707:1 2708:1 13514:1 13517:1 
-0.03299137735210133 4:2 6:1 480:1 483:1 832:1 834:1 1905:1 2714:1 13514:1 13515:1 
-0.098925393396608066 4:4 6:3 8:1 12:1 18:1 36:1 47:3 51:1 55:1 85:1 109:1 118:1 119:1 154:1 169:1 183:1 318:1 933:1 2723:1 2724:1 2725:1 2726:1 2727:1 2728:1 2729:1 2730:1 2731:2 2732:1 2733:1 2734:1 2735:1 2736:1 2737:1 2738:1 2739:1 13514:1 13515:1 
-0.0064079670251584895 4:2 6:3 25:1 52:1 61:1 483:1 771:1 832:1 834:1 1857:1 2132:1 2937:1 2938:1 2939:1 13514:1 13515:1 
-0.031619481794163622 4:2 12:1 13:1 47:1 67:1 69:1 85:1 109:1 118:2 162:1 175:1 545:1 625:1 1092:1 1218:1 1246:1 2781:1 2942:1 2943:1 2944:1 2945:1 2946:1 2947:1 2948:1 2949:1 2950:1 13514:1 13515:1 
-0.099891715482626292 4:5 6:6 12:1 402:1 405:1 496:1 834:1 1336:1 1574:1 3018:1 3019:1 3020:1 3021:1 3022:1 3023:1 3024:1 3025:1 3026:1 3027:1 3028:1 3029:1 3030:1 3031:1 3032:1 3033:1 3034:1 3035:1 3036:1 3037:1 3038:1 3039:1 13514:1 13515:1 
-0.0052968506090568012 6:2 12:1 13:1 42:1 52:1 109:1 118:1 481:1 817:1 922:1 1092:1 3058:2 3059:1 3060:1 3061:1 3062:1 3063:1 3064:1 13514:1 13517:1 
-0.11219667600412672 6:2 12:3 13:1 52:1 57:1 75:1 85:1 106:1 109:1 363:1 735:1 1246:1 1260:1 2585:1 3070:1 3071:1 3072:2 3073:1 3074:1 13514:1 13515:1 
-0.034415541683290349 4:4 6:4 119:1 459:1 462:1 464:1 466:1 3092:1 3093:1 3094:1 3095:1 3096:1 13514:1 13515:1 
-0.26665205977702711 4:3 6:4 426:1 1715:1 3387:1 3388:1 3389:1 3390:1 3391:1 3392:1 13514:1 13515:1 
-0.015267572522267478 4:1 6:1 12:2 13:1 24:1 47:1 101:4 118:2 193:1 239:1 274:1 696:1 1059:2 1318:1 1441:1 1494:2 2078:1 2810:1 2830:1 2905:1 3442:1 3443:1 3444:1 3445:1 3446:1 3447:1 3448:1 13514:1 13517:1 
-0.42944134190769817 2:1 12:1 13:1 1092:1 3505:1 3506:1 13514:1 13515:1 
-0.053240242103903566 4:2 6:3 8:1 13:1 18:1 51:1 118:2 175:1 324:1 355:1 1087:1 1213:1 1246:1 1494:1 1510:1 1697:1 2360:1 2813:2 3725:1 3726:1 3727:1 3728:1 3729:1 3730:1 3731:1 3732:1 3733:1 13514:1 13515:1 
-0.10598073246029742 6:3 12:3 13:1 42:2 51:1 244:1 245:1 723:1 1092:1 3222:1 3223:2 3416:1 4042:1 4070:1 4071:1 4072:1 13514:1 13515:1 
-0.045869788497874743 4:2 6:2 67:1 69:1 877:1 1019:1 3002:1 3004:1 4082:1 4083:1 4084:1 4085:1 4086:1 4087:1 4088:1 4089:1 4090:1 13514:1 13515:1 
-0.010132470765904825 4:1 6:1 8:2 12:3 13:3 18:2 51:3 52:1 67:1 69:1 101:1 107:1 158:1 175:1 193:1 208:2 1326:1 1398:1 1893:1 2715:1 3345:1 4215:1 4216:1 4217:1 4218:1 4219:1 4220:1 4221:1 4222:1 4223:1 4224:1 4225:1 13514:1 13515:1 
-0.037805084489086156 4:2 6:3 25:1 52:1 61:1 109:1 118:1 363:1 426:1 461:1 483:1 754:1 799:1 832:1 1065:1 1066:1 1067:1 2761:1 4226:1 4227:1 13514:1 13515:1 
-0.078778845635185737 4:1 98:1 193:1 289:1 2841:1 2885:1 4249:1 4250:1 4251:1 13514:1 13516:1 
-0.016212154149161381 4:1 6:2 1019:1 1662:1 4082:1 4305:1 4306:1 4307:1 4308:1 13514:1 13515:1 
-0.12514511586278537 4:1 12:1 42:1 98:1 276:1 2180:1 3044:1 3300:1 4076:1 4447:1 4448:1 13514:1 13516:1 
-0.0058058707558549562 4:2 6:4 8:1 12:1 18:1 42:2 47:3 118:3 162:1 328:1 350:1 504:4 619:1 715:1 1561:1 1661:1 1671:1 2302:1 2613:1 2811:1 2885:1 3143:1 4435:1 4449:1 4450:1 4451:2 4452:1 4453:1 4454:1 4455:1 4456:1 4457:1 4458:1 4459:1 4460:1 4461:1 4462:1 4463:1 4464:1 4465:1 4466:1 4467:1 4468:1 4469:1 4470:1 4471:1 13514:1 13515:1 
-0.0075899401272362379 4:1 6:8 12:8 13:7 25:1 42:1 47:1 51:1 57:1 61:1 77:1 81:1 85:2 101:2 106:3 109:3 187:1 188:1 236:1 239:1 508:1 622:1 661:1 715:1 805:1 809:1 1008:1 1061:2 1079:1 1130:1 1228:1 2090:1 2413:1 2462:1 2530:1 2622:1 2818:1 3323:1 3483:1 3526:1 3940:1 4071:1 4136:1 4289:1 4433:1 4563:1 4564:2 4565:2 4566:2 4567:1 4568:1 4569:1 4570:1 4571:1 4572:2 4573:1 4574:1 4575:1 4576:1 4577:1 4578:1 4579:1 4580:1 4581:1 4582:1 4583:1 4584:1 4585:1 4586:1 4587:2 4588:1 4589:1 4590:1 4591:1 4592:1 13514:1 13515:1 
-0.00057533410536201126 4:6 6:11 8:1 12:4 13:1 18:1 36:1 39:1 42:2 47:4 51:3 67:3 69:3 77:1 101:2 106:2 107:1 108:1 118:2 162:2 175:2 187:1 188:1 193:1 207:1 236:2 240:1 289:1 324:1 454:2 475:1 481:1 609:1 622:1 693:1 764:2 787:1 807:2 808:3 825:1 959:1 1009:1 1016:1 1087:1 1326:1 1419:1 1456:1 1463:1 1950:1 1969:1 1984:1 2242:1 2302:1 2536:1 2752:1 3055:1 3183:1 3393:1 3416:1 3447:1 3790:1 4221:1 4673:1 4674:1 4675:1 4676:1 4677:1 4678:1 4679:1 4680:1 4681:1 4682:1 4683:1 4684:1 4685:1 4686:2 4687:2 4688:1 4689:1 4690:1 4691:1 4692:1 4693:1 4694:1 4695:1 4696:1 4697:1 4698:1 4699:1 4700:1 4701:1 4702:1 4703:1 4704:1 4705:1 13514:1 13515:1 
-0.098877411745385571 4:4 6:4 119:1 459:1 462:1 464:1 3092:1 3093:1 3094:1 4706:1 4707:1 13514:1 13515:1 
-0.053529690608552095 6:1 12:1 13:1 109:1 121:1 508:1 2530:1 4845:1 4846:1 4847:1 4848:1 4849:1 13514:1 13516:1 
-0.19207072877943498 6:3 12:1 711:1 4915:1 4916:1 4917:1 4918:1 13514:1 13515:1 
-0.0094734536560581069 4:3 6:7 12:7 13:6 42:2 47:1 101:2 106:1 107:1 109:1 175:1 193:1 228:1 295:1 328:1 332:1 350:1 433:1 653:1 657:1 995:1 1009:1 1019:1 1277:1 1318:2 1814:1 2120:2 2384:1 2448:1 2577:1 2581:1 2885:2 3175:1 4050:1 4218:3 4317:1 4494:1 4772:1 4784:1 4933:1 4934:1 4935:1 4936:1 4937:1 4938:1 4939:1 4940:1 4941:1 4942:1 4943:1 4944:1 4945:1 4946:1 4947:1 4948:1 4949:1 4950:1 4951:1 4952:1 4953:1 4954:1 4955:1 4956:1 4957:1 4958:1 13514:1 13515:1 
-0.24216563252033771 4:1 355:1 1092:1 4965:1 13514:1 13516:1 
-0.012430836817546862 6:1 12:1 51:1 61:1 81:1 101:1 109:1 162:2 1078:1 1213:1 1315:1 1899:1 2025:1 2778:1 2879:1 3530:1 4061:1 4722:1 4987:1 4988:1 4989:1 4990:1 4991:1 4992:1 4993:1 4994:1 4995:1 4996:1 4997:1 4998:1 13514:1 13516:1 
-0.05698835710637401 6:1 12:1 13:1 38:1 42:1 244:1 1121:1 1991:1 2172:1 2176:1 2479:1 5121:1 5122:1 5123:1 5124:1 5125:1 13514:1 13516:1 
-0.028150413221452581 6:5 42:1 51:1 61:2 101:1 109:1 286:1 350:1 505:1 829:1 1059:1 1228:1 1969:1 2009:1 2844:1 3067:1 3327:1 3767:1 5236:1 5237:1 5238:1 5239:1 5240:1 13514:1 13515:1 
-0.053124475809158744 4:1 6:2 8:1 13:2 18:1 57:2 67:1 69:1 101:1 107:1 109:1 162:1 296:2 622:1 933:1 2622:1 3531:1 3983:1 4760:1 4765:1 5264:1 5277:1 5278:1 5279:1 5280:1 5281:1 5282:1 13514:1 13515:1 
-0.017746187697191818 4:3 6:6 8:2 13:2 18:2 51:1 52:2 61:1 85:1 98:1 106:1 109:3 118:1 162:1 193:1 257:2 258:1 274:1 276:2 277:1 286:1 289:1 291:1 350:1 502:1 508:1 696:1 782:1 1087:1 1126:1 1314:1 1342:1 1419:2 1727:1 1758:1 1814:1 1895:1 2292:1 2885:1 3178:2 3232:1 3256:1 3260:1 3769:1 3809:1 4666:1 4784:1 5222:1 5232:1 5407:1 5504:1 5505:1 5506:1 5507:1 5508:1 5509:1 5510:1 5511:1 5512:1 5513:1 5514:1 5515:1 5516:1 5517:1 5518:1 13514:1 13515:1 
-0.0047765774793173043 4:1 6:8 8:3 12:1 13:1 18:3 42:2 47:1 51:1 52:2 61:1 77:1 109:1 193:1 286:1 350:1 502:1 508:1 512:1 565:1 608:1 793:1 1087:1 1315:1 1318:1 2115:1 2270:1 2302:1 5519:1 5520:1 5521:1 5522:1 5523:1 5524:3 5525:1 5526:1 5527:1 5528:2 5529:1 5530:1 5531:1 5532:1 5533:1 5534:1 5535:1 5536:1 13514:1 13515:1 
-0.01597732652686085 4:3 6:6 12:8 13:4 47:1 67:3 69:3 106:1 107:1 162:5 175:2 228:1 233:1 274:1 413:1 809:1 1112:1 1277:1 1318:1 1336:1 1542:1 1924:1 2885:2 3256:1 3710:1 3725:1 3910:1 4218:4 4317:2 4934:2 4949:1 5680:4 5681:1 5682:1 5683:1 5684:1 5685:1 5686:1 5687:1 5688:1 5689:1 5690:1 5691:1 5692:1 5693:1 5694:1 5695:1 5696:1 5697:1 5698:1 5699:1 5700:1 5701:1 5702:1 5703:1 5704:1 5705:1 13514:1 13515:1 
-0.019447911163798487 4:5 6:13 8:2 12:5 13:1 18:2 47:3 51:2 52:2 61:1 101:1 106:2 109:1 118:1 162:5 188:1 239:1 321:1 350:2 461:2 480:2 483:1 508:1 540:1 608:1 715:1 754:1 799:1 822:1 832:1 834:1 942:1 1034:1 1069:1 1081:1 1082:1 1115:1 1116:2 1522:1 1810:1 1857:1 1867:1 1870:1 1875:1 1887:1 1888:1 1905:1 1906:1 1933:1 2813:1 3998:1 4166:1 4426:1 5045:1 5371:1 5622:1 5644:2 5719:1 5720:1 5721:1 5722:1 5723:1 5724:1 5725:1 5726:1 5727:1 5728:1 5729:1 5730:1 5731:1 5732:1 5733:1 5734:1 5735:1 5736:1 13514:1 13515:1 
-0.11160127685949552 6:5 47:1 77:1 124:1 207:1 1480:1 2289:1 5864:1 5865:1 5866:1 5867:1 13514:1 13515:1 
-0.0049035105152132061 4:1 6:2 12:3 52:1 57:1 97:1 101:1 109:1 118:1 121:1 193:2 236:1 291:1 318:1 418:1 426:1 504:1 661:1 797:1 817:1 879:1 1069:1 1092:1 1342:1 1432:1 2379:1 2481:1 2627:2 3052:1 3489:1 5010:1 5868:1 5869:1 5870:1 5871:1 5872:1 5873:1 5874:1 5875:1 5876:1 5877:1 5878:1 13514:1 13515:1 
-0.012477272431285448 6:1 12:1 47:1 51:1 61:1 836:1 3064:1 5902:1 5903:1 5904:1 5905:1 5906:1 5907:1 5908:1 5909:1 5910:1 5911:1 5912:1 5913:1 13514:1 13516:1 
-0.0097455933535562905 4:1 6:5 8:1 12:3 18:1 36:1 47:1 51:2 57:2 67:1 69:1 107:3 109:1 118:2 162:2 187:2 286:2 402:1 405:1 502:1 508:2 546:1 622:1 723:1 803:2 1083:1 1087:1 1419:2 1600:1 1661:1 1991:1 2250:2 3232:2 5172:1 5375:1 5753:2 5969:1 5970:1 5971:1 5972:2 5973:1 5974:1 5975:1 5976:1 13514:1 13515:1 
-0.068346827172173455 12:1 67:1 69:1 598:1 599:1 2849:1 5977:1 5978:1 13514:1 13517:1 
-0.0058390289203979094 4:3 6:5 8:1 12:4 13:1 18:1 42:3 47:1 51:1 61:3 81:1 101:1 106:1 107:2 109:5 118:2 162:2 175:1 236:1 238:1 328:1 350:1 502:1 660:1 661:1 709:2 715:1 933:1 1232:1 1318:1 1326:1 1715:1 2033:1 2411:1 3316:1 3878:1 4424:1 4432:1 4747:1 5385:1 6004:1 6005:1 6006:1 6007:1 6008:1 6009:1 6010:1 6011:1 6012:1 6013:1 6014:1 6015:1 6016:1 6017:1 6018:1 6019:1 6020:1 6021:1 6022:1 6023:1 6024:1 6025:1 6026:1 6027:1 6028:1 6029:1 6030:1 6031:1 6032:1 6033:1 6034:1 13514:1 13515:1 
-0.0011652502847251652 4:2 6:2 12:3 13:1 47:1 67:1 69:1 185:1 1019:1 2358:1 3725:1 4082:1 5642:1 6192:1 6193:1 6194:1 6195:1 13514:1 13515:1 
-0.037916259854403951 4:1 6:1 186:1 276:2 418:1 430:1 1051:1 3616:1 4256:1 6234:1 6235:1 6236:1 6237:1 6238:1 6239:1 6240:1 6241:1 6242:1 6243:1 6244:1 13514:1 13517:1 
-0.16039867187975679 4:5 6:5 119:1 149:1 459:1 462:1 464:1 891:1 3092:1 4332:1 6332:1 6333:1 6334:1 6335:1 6336:1 13514:1 13515:1 
-0.51299111980731427 6433:1 13514:1 13515:1 
-0.058116862232572668 6:3 47:1 162:1 188:1 386:1 426:1 435:1 480:1 1092:1 4988:1 5867:1 13514:1 13515:1 
-0.10140071109312149 6:2 12:1 85:1 98:1 118:1 143:1 328:1 448:1 709:1 799:1 1932:1 3070:1 3863:1 4516:1 6459:1 6460:1 6461:1 13514:1 13515:1 
-0.19162007532477929 4:1 6:8 8:1 12:2 18:1 36:1 47:2 148:1 328:1 355:1 528:1 552:1 974:1 1092:1 1263:1 1268:1 1269:1 1270:1 1271:1 5644:1 6506:1 6507:1 6508:1 6509:1 6510:1 6511:1 6512:1 13514:1 13515:1 
-0.0017816471269658553 4:1 6:1 12:2 13:2 42:2 47:1 52:1 77:1 109:1 276:1 1727:1 4426:1 6513:1 6514:1 6515:1 6516:1 6517:1 6518:1 6519:1 6520:1 6521:1 6522:1 6523:1 6524:1 6525:1 6526:1 13514:1 13515:1 
-0.47435371399745119 4:1 6:1 4715:1 6538:1 13514:1 13517:1 
-0.00072928300703349244 4:1 6:1 12:2 13:2 42:1 51:1 67:1 69:1 109:1 162:1 236:1 286:1 502:1 813:1 1341:1 1896:1 2001:1 2844:1 3442:1 3768:1 4812:1 4853:1 4861:1 6023:1 6539:1 6540:1 6541:1 6542:1 6543:1 6544:1 6545:1 6546:1 6547:1 6548:1 13514:1 13515:1 
-0.00062955806469189247 4:1 6:5 35:1 51:1 67:1 69:1 109:3 236:1 274:1 321:1 350:1 480:1 502:1 715:2 809:1 1019:2 1484:1 1877:1 2280:1 3768:1 3851:1 4425:1 4565:1 6567:1 6568:1 6569:1 6570:1 6571:1 6572:1 6573:1 6574:1 6575:1 13514:1 13515:1 
-0.0075055594156388933 2:5 4:6 6:1 8:1 12:7 13:6 18:1 42:5 47:2 51:2 52:3 71:1 85:1 98:2 106:2 107:1 109:2 118:1 162:6 175:1 187:1 188:1 193:1 350:1 504:1 508:1 512:1 829:1 933:1 1071:1 1080:1 1083:1 1087:1 1213:1 1235:3 1314:2 1318:1 1484:1 1582:2 1724:1 2023:1 2033:2 2530:1 3483:1 3530:1 3910:1 3996:2 4220:1 4671:1 5784:1 6425:1 6580:4 6581:5 6582:1 6583:1 6584:1 6585:3 6586:1 6587:4 6588:2 6589:1 6590:1 6591:1 6592:1 6593:1 6594:1 6595:1 6596:1 6597:1 6598:1 6599:2 6600:1 6601:1 6602:1 6603:1 6604:1 6605:1 6606:1 6607:1 6608:1 13514:1 13515:1 
-0.03924313059955524 6:3 133:2 139:3 430:2 865:1 866:1 2771:1 4202:1 4213:1 6650:1 6651:1 6652:1 6653:1 6654:1 6655:1 6656:1 6657:1 6658:1 6659:1 6660:1 13514:1 13515:1 
-0.11265012598797926 6:3 8:1 12:1 18:1 30:1 55:1 131:1 909:2 1544:1 5501:1 6661:1 6662:1 6663:1 6664:1 13514:1 13515:1 
-0.094749126373669876 4:2 6:1 247:1 291:1 292:1 318:1 413:1 1019:1 1544:1 6675:1 6712:1 13514:1 13515:1 
-0.0072784964942030966 4:2 6:4 8:1 12:1 13:1 18:1 42:1 51:1 55:1 85:1 109:1 118:1 139:1 150:1 162:1 231:1 291:2 292:1 350:1 413:1 578:2 653:1 871:2 1574:1 1766:1 2750:1 3415:1 3416:1 3447:1 3477:1 4071:1 5362:1 6727:2 6728:1 6729:1 6730:1 6731:1 6732:1 6733:1 6734:1 13514:1 13515:1 
-0.13907996304532355 6:1 12:1 13:1 162:1 596:1 1019:1 4082:1 6740:1 6741:1 6742:1 13514:1 13516:1 
-0.0010210548081877689 6:3 8:1 12:4 18:1 47:2 85:1 107:1 193:1 825:2 1083:1 1087:1 2187:1 4036:1 4144:1 4747:1 6743:1 6744:1 6745:1 6746:1 6747:1 6748:1 6749:1 6750:1 6751:1 6752:1 13514:1 13515:1 
-0.021536577193745004 13:1 81:1 101:1 193:1 2033:1 6810:1 6811:1 6812:1 6813:1 6814:1 6815:1 13514:1 13515:1 
-0.069179949181155803 4:1 51:1 101:1 109:1 175:1 328:1 1061:1 1328:1 1933:1 2142:1 2782:1 4573:1 4872:1 6199:1 6232:1 6834:1 6835:1 6836:1 6837:1 6838:1 13514:1 13516:1 
-0.0093793649386866712 4:3 6:2 8:1 12:6 13:4 18:1 42:1 47:2 51:1 52:6 67:1 69:1 101:1 109:4 118:2 162:1 175:2 276:1 285:1 286:2 331:3 337:1 362:2 363:2 502:1 512:1 595:1 766:2 784:1 836:2 952:1 991:1 1085:2 1086:2 1296:1 2033:1 2616:1 2862:2 2866:1 3574:1 3728:1 4275:1 4426:1 4520:1 4875:2 5550:1 5837:1 6318:1 6606:1 6688:1 6883:1 6884:2 6885:3 6886:1 6887:1 6888:1 6889:1 6890:1 6891:1 6892:1 6893:1 6894:1 6895:1 6896:1 13514:1 13515:1 
-0.029770616071834295 4:1 6:1 8:1 18:1 51:1 60:1 61:1 85:1 101:1 175:1 193:1 276:1 454:1 754:1 808:1 912:1 1010:1 1093:1 1720:1 1731:1 1752:1 2023:1 2055:1 2189:1 3569:1 4395:1 6930:1 6931:1 13514:1 13515:1 
-0.016857780305886673 4:2 6:3 12:3 13:2 47:2 67:2 69:2 109:2 943:1 1000:1 1014:1 1019:1 1517:1 2613:1 3849:1 4082:1 4784:1 6975:1 6976:1 6977:1 6978:1 6979:1 6980:1 6981:1 13514:1 13515:1 
-0.1067551145024781 4:1 12:2 42:1 98:1 3183:1 7086:1 7087:1 7088:1 7089:1 7090:1 13514:1 13516:1 
-0.25829517411787101 4:1 118:1 5236:1 7114:1 7115:1 13514:1 13516:1 
-0.081097510769077813 4:1 6:1 30:1 52:1 85:2 133:1 139:2 242:1 1435:1 2809:1 7019:1 7147:1 7148:1 7149:1 7150:1 7151:1 7152:1 7153:1 13514:1 13515:1 
-0.0094796797671587319 4:4 6:12 8:1 12:4 13:4 18:1 30:2 42:1 47:1 51:2 52:1 55:2 57:1 67:2 69:2 81:1 85:2 101:3 107:1 109:2 126:1 162:4 169:1 193:1 261:1 290:1 331:1 350:1 424:1 489:1 552:1 657:2 715:3 805:1 825:1 834:1 1061:1 1087:3 1571:1 1572:1 1574:1 1580:4 1581:1 2432:1 2441:1 2613:2 2631:1 2870:1 2983:1 3496:1 4194:1 4262:2 4444:1 5248:1 6232:1 6639:1 7203:1 7204:1 7205:1 7206:1 7207:1 7208:1 7209:1 7210:1 7211:1 7212:1 7213:1 7214:1 7215:1 7216:1 7217:1 7218:1 7219:1 7220:1 7221:1 7222:1 7223:1 7224:1 7225:1 7226:1 7227:1 7228:1 7229:1 7230:1 7231:1 7232:1 13514:1 13515:1 
-0.19186843758975916 4:1 6:2 231:1 1662:1 1715:1 3447:1 7244:1 7245:1 13514:1 13515:1 
-0.055404861633428622 4:1 6:2 8:1 12:1 18:1 67:1 69:1 101:2 107:1 176:1 236:1 877:1 1011:1 3183:1 4875:1 7264:1 7265:1 7266:1 7267:1 7268:1 7269:1 7270:1 13514:1 13515:1 
-0.043366158420171261 4:1 67:1 69:1 133:1 139:3 418:1 579:1 817:2 1090:1 2771:2 6240:1 7328:1 7329:1 7330:2 7331:1 7332:1 7333:1 13514:1 13515:1 
-0.84521129368254799 4:3 435:1 2097:1 13514:1 13515:1 
-0.021549864944102198 4:3 6:1 12:3 13:1 42:1 67:1 69:1 98:1 101:1 107:1 127:1 150:1 276:1 318:1 350:1 355:1 504:1 754:1 1011:1 1071:1 1081:1 1109:1 1121:1 1213:1 1315:1 1318:1 1695:1 1696:1 1701:1 1702:1 3207:1 3314:1 3323:1 3729:1 3922:1 3993:1 4962:1 7338:1 7384:1 7385:1 7386:1 7387:1 7388:1 7389:1 7390:1 13514:1 13515:1 
-0.052713333867054193 4:1 12:2 47:1 81:1 101:1 109:1 324:1 328:1 478:1 644:1 2001:1 2185:1 2389:1 2885:1 2983:2 5006:1 5758:1 7429:1 7430:1 7431:1 13514:1 13516:1 
-0.019940618557613431 6:2 12:3 52:1 109:1 193:1 1318:1 2627:1 3923:1 6635:1 7491:1 7492:1 7493:1 7494:1 7495:1 7496:1 7497:1 7498:1 7499:1 13514:1 13517:1 
-0.22428287227207408 6:5 47:2 480:1 542:1 922:1 4198:1 4415:1 7519:1 7520:1 7521:1 13514:1 13515:1 
-0.007898384456908587 4:2 6:4 30:1 85:1 133:2 139:1 276:5 355:1 386:1 402:1 405:1 430:1 461:1 579:1 581:1 881:2 1044:1 1291:1 2209:1 3052:1 3616:1 3776:1 4256:1 6238:1 6651:1 7522:1 7523:1 7524:2 7525:1 7526:1 7527:1 7528:1 7529:1 7530:1 7531:1 7532:1 7533:1 7534:1 7535:1 7536:3 7537:1 7538:1 7539:1 7540:1 7541:1 7542:1 7543:1 13514:1 13515:1 
-0.16835593737568838 3:1 4:3 6:1 42:1 85:1 162:1 318:1 319:1 350:1 1766:1 2170:1 2401:1 2543:1 5115:1 7544:1 7545:1 13514:1 13515:1 
-0.018337763879364689 4:4 6:4 12:5 42:2 47:2 101:4 106:1 107:1 109:5 118:1 162:1 169:2 170:2 175:1 188:1 193:2 321:2 446:1 508:1 807:3 813:1 1087:1 1315:1 1318:1 1441:2 1495:1 1560:1 1738:1 2033:1 2270:1 2813:2 3051:1 3120:1 3178:1 3737:2 4076:1 4447:1 4875:1 5261:1 6061:3 6842:1 7412:1 7604:1 7605:2 7606:1 7607:1 7608:1 7609:1 7610:1 7611:1 7612:1 7613:1 7614:1 7615:1 7616:1 7617:1 7618:1 7619:1 7620:1 7621:1 7622:1 7623:1 7624:1 13514:1 13515:1 
-0.048108096225773479 6:7 12:1 47:1 57:1 67:2 69:2 77:2 101:1 162:1 1558:1 2012:2 2579:1 7286:1 7677:1 7678:1 7679:1 7680:1 7681:2 7682:1 7683:1 7684:1 7685:1 7686:1 7687:1 7688:1 7689:1 7690:1 13514:1 13515:1 
-0.0064073452948410284 4:1 6:6 12:5 13:3 19:1 42:1 47:3 52:2 57:1 98:1 109:1 162:2 193:1 195:1 295:2 480:1 487:1 545:1 608:1 676:1 754:1 1019:1 1087:1 1731:1 1968:1 2155:1 2297:1 2439:1 2813:1 3183:1 4685:1 5245:1 7718:1 7719:1 7720:1 7721:1 7722:1 7723:1 7724:1 7725:1 7726:1 7727:1 7728:1 7729:1 13514:1 13515:1 
-0.0061348916881473186 4:2 6:6 12:1 13:1 36:1 51:1 55:1 61:1 101:1 109:1 118:1 162:1 169:1 187:1 207:1 283:1 286:1 293:2 350:1 401:1 500:1 502:1 505:1 686:1 733:1 777:1 1019:1 1092:1 1121:1 1472:1 1552:1 1874:1 2478:1 2492:1 2628:1 2896:1 3208:1 3414:1 4056:1 5808:1 7742:1 7743:1 7744:1 7745:1 7746:1 7747:1 7748:1 13514:1 13515:1 
-0.087908603371750896 2:1 6:3 8:1 12:1 18:1 42:1 109:2 209:1 1021:1 2352:1 4423:1 4432:1 4751:1 5974:1 6419:1 6484:1 6538:1 7923:1 7924:1 7925:1 7926:1 7927:1 7928:1 13514:1 13515:1 
-0.0096982895966678476 4:3 12:2 13:1 47:1 61:1 67:2 69:2 85:1 109:1 162:1 1019:1 1092:1 1253:1 4070:1 4379:1 5109:1 7961:1 7962:1 7963:1 7964:1 7965:1 7966:1 7967:1 13514:1 13515:1 
-0.0017000012930422658 4:3 6:7 8:2 12:8 13:8 18:2 42:1 47:3 51:1 52:2 57:4 61:2 85:3 98:3 101:3 109:3 149:1 162:2 175:1 193:2 236:1 285:1 286:1 359:1 483:1 484:1 508:2 540:3 633:1 646:1 702:1 715:1 754:1 776:1 783:1 1016:1 1061:1 1087:1 1115:1 1129:1 1131:2 1342:1 1875:1 1904:1 2263:4 2264:1 2522:1 2523:1 2526:1 2580:1 2885:2 3247:1 3261:1 4130:1 4300:2 4310:1 4659:1 4976:1 5074:1 5378:1 6951:1 7311:1 7976:1 7977:1 7978:1 7979:1 7980:1 7981:1 7982:1 7983:1 7984:1 7985:1 7986:1 7987:1 7988:1 7989:1 7990:1 7991:1 7992:1 7993:1 7994:1 7995:1 7996:1 13514:1 13515:1 
-0.042128104753410882 4:7 6:7 30:5 55:1 67:4 69:4 75:2 85:2 131:1 139:5 143:1 402:2 405:2 418:1 574:1 577:1 578:1 581:2 843:1 871:1 872:1 877:1 895:2 914:1 916:1 1553:1 1681:1 1688:1 2097:1 2131:1 2198:2 2199:2 2200:2 2206:2 2324:1 2341:2 2550:1 2772:1 2918:1 3289:1 4489:1 7859:1 8050:1 8051:1 8052:1 8053:1 8054:1 8055:1 8056:1 8057:1 8058:1 8059:1 8060:1 8061:1 8062:1 8063:1 8064:1 8065:1 8066:1 8067:3 8068:2 8069:1 8070:1 8071:1 8072:1 8073:1 13514:1 13515:1 
-0.077475534606020316 6:2 12:1 13:1 47:1 67:1 69:1 98:1 99:1 101:1 125:1 242:1 334:1 2972:1 7818:1 8096:1 8097:1 8098:1 8099:1 8100:1 8101:1 8102:1 8103:1 8104:1 13514:1 13515:1 
-0.043437377479941433 6:2 12:1 42:1 47:1 101:1 109:1 236:1 597:1 1082:1 2023:1 3940:1 7260:1 8128:1 8129:1 8130:1 8131:1 8132:1 8133:1 8134:1 8135:1 13514:1 13517:1 
-0.40853535822624004 6:2 401:1 763:1 8162:1 13514:1 13517:1 
-0.054044294868578473 12:1 67:2 69:2 148:1 1818:1 2020:1 8163:1 8164:1 8165:1 8166:1 8167:1 8168:1 8169:1 13514:1 13515:1 
-0.0083862764975527263 4:1 6:1 4715:1 8104:1 13514:1 13517:1 
-0.02287869066275354 4:4 6:14 12:3 13:4 35:1 47:1 51:1 52:1 67:4 69:4 101:6 109:3 118:2 188:1 207:2 241:1 324:1 355:1 477:1 508:1 609:1 655:1 699:1 715:1 787:1 989:1 1243:1 1296:2 1318:1 1338:1 1456:1 1522:1 1662:1 1859:1 2289:1 2390:1 2627:1 2752:1 3768:1 4041:1 5233:1 7170:1 8388:1 8392:1 8393:1 8394:1 8395:1 8396:1 8397:2 8398:1 8399:1 8400:1 8401:1 8402:1 8403:1 8404:1 8405:1 8406:1 8407:1 8408:1 13514:1 13515:1 
-0.020152496632803746 6:3 8:1 18:1 47:1 85:1 162:2 193:1 718:1 1009:1 1028:2 1087:1 1342:1 1558:1 1701:2 1926:1 2095:1 2142:1 2885:1 3263:1 3995:1 5447:1 6854:1 8476:1 8477:1 8478:1 8479:1 8480:1 8481:1 8482:1 8483:2 8484:1 8485:1 13514:1 13515:1 
-0.13062250018160312 6:6 47:1 101:1 148:1 162:1 433:1 454:1 754:1 1092:1 1269:1 1270:1 1271:1 1683:1 1739:1 4988:1 7957:1 8575:1 8576:1 8577:1 8578:1 13514:1 13515:1 
-0.027863695321574639 4:2 6:1 12:1 47:1 52:1 107:1 115:1 118:1 350:1 504:1 813:1 1318:1 5573:1 5620:1 6020:1 6235:1 8650:1 8651:1 8652:1 8653:1 8654:1 8655:1 13514:1 13515:1 
-0.052460519046401179 6:1 12:2 13:1 47:1 52:1 57:1 61:2 67:2 69:2 118:1 127:1 913:1 1021:1 1301:1 1544:2 2931:1 3907:1 4275:1 4451:1 4718:1 4720:1 6372:1 7202:1 8774:1 13514:1 13515:1 
-0.086379161578738206 6:4 47:2 166:1 1403:1 1404:1 2598:1 4959:1 6069:1 8104:1 8797:1 8798:1 8799:1 8800:1 13514:1 13515:1 
-0.027044687134922508 4:2 6:2 12:1 25:1 47:1 52:1 61:1 85:1 118:1 209:1 257:1 362:1 461:1 480:2 483:1 832:1 834:1 1857:1 1905:1 1906:1 3516:1 4976:1 7557:2 13514:1 13515:1 
-0.0022381782456371087 4:1 6:6 8:2 12:5 13:4 18:2 31:2 36:1 42:1 51:1 52:1 57:2 67:3 69:3 77:1 101:1 108:1 118:1 162:1 193:1 239:1 286:1 293:1 318:1 398:1 461:1 462:1 696:1 793:1 964:1 1069:1 1818:1 1869:1 2440:1 2610:1 2618:1 2638:2 2649:1 2813:1 2828:1 2985:1 3132:2 3251:1 3323:1 4449:1 4865:1 5072:1 5644:1 6542:1 6639:1 6825:1 6830:1 7615:1 8687:1 8853:1 8854:2 8855:1 8856:2 8857:1 8858:1 8859:1 8860:1 8861:1 8862:1 8863:1 13514:1 13515:1 
-0.16853898160397174 4:2 8:1 18:1 98:1 1877:1 3768:1 5222:1 5704:1 5827:1 7578:1 8960:1 13514:1 13515:1 
-0.0050511141715460939 4:1 6:2 12:2 47:1 51:1 52:1 67:4 69:4 162:1 293:1 655:1 1081:1 2358:1 4307:1 6194:1 8976:1 8977:1 8978:1 8979:1 8980:1 8981:1 8982:1 8983:1 13514:1 13515:1 
-0.084196293238259043 4:1 6:1 12:1 47:1 67:2 69:2 118:1 128:1 1092:1 1454:1 1504:1 2371:1 3447:1 4435:1 5245:1 6790:1 9015:1 9016:1 13514:1 13515:1 
-0.053894814204628542 4:2 13:1 109:1 693:1 825:2 1318:1 2176:1 2844:1 3940:1 4980:1 5253:1 6894:1 9080:1 9081:1 9082:1 9083:1 13514:1 13517:1 
-0.036284098965141169 6:7 35:1 77:2 193:1 207:2 272:2 401:1 426:2 480:1 715:1 783:1 2289:1 9131:1 13514:1 13515:1 
-0.072228924649907503 6:4 47:1 77:2 763:1 790:1 2761:1 2906:1 4675:1 9132:1 9133:1 9134:1 13514:1 13515:1 
-0.0043456036357341996 6:3 12:1 13:4 42:2 47:1 52:1 57:1 61:1 106:1 109:4 193:1 289:1 359:1 625:1 715:1 1228:1 1235:1 1242:1 1603:1 3201:1 3753:1 3983:1 6221:1 6350:1 6456:1 6697:1 8304:1 9153:1 9154:1 9155:1 9156:2 9157:1 9158:1 9159:1 9160:1 9161:1 13514:1 13515:1 
-0.014659831056682766 4:1 6:6 8:1 12:2 13:2 18:1 42:4 47:1 51:1 85:1 109:1 118:1 162:1 187:1 257:1 274:1 359:1 497:1 501:1 505:1 508:1 1126:1 1486:1 2170:1 2474:1 2590:1 2591:1 2638:1 2823:1 3393:1 3775:1 4415:1 4982:1 6728:1 7388:1 9204:1 9205:1 9206:1 9207:1 9208:1 9209:1 9210:1 9211:2 9212:1 9213:1 9214:1 9215:1 9216:1 9217:1 13514:1 13515:1 
-0.029392792722784073 4:4 6:4 67:1 69:1 119:1 402:1 405:1 426:1 459:1 462:1 464:1 466:1 579:1 699:1 1104:1 5881:1 6185:1 6333:1 9224:1 9225:1 9226:1 9227:1 9228:1 9229:1 9230:1 9231:1 9232:1 13514:1 13515:1 
-0.014332936700527614 4:4 6:6 12:2 13:2 67:1 69:1 276:1 355:1 497:1 512:1 727:1 808:1 1019:2 2033:1 3922:1 4082:1 4306:1 4379:2 4936:1 5401:1 8627:1 9316:1 9321:1 9322:1 9323:1 9324:1 9325:1 9326:1 9327:1 13514:1 13515:1 
-0.0024467759594075217 4:1 6:3 8:2 12:4 18:2 47:1 67:2 69:2 98:2 106:3 162:1 169:1 193:1 236:3 497:1 508:1 660:1 737:1 1228:1 1342:2 1707:1 2844:1 4994:1 5821:1 5970:1 6639:1 7996:1 9328:1 9329:2 9330:1 9331:2 9332:1 9333:1 9334:1 9335:1 9336:1 9337:1 13514:1 13515:1 
-0.77961284440569611 4:1 9343:1 13514:1 13516:1 
-0.018161650006921236 4:1 6:4 67:1 69:1 764:1 1137:1 1145:1 1169:3 1187:1 1191:1 1194:1 1649:1 3267:2 9268:1 9269:1 9389:1 9390:1 9391:2 9392:1 9393:1 9394:1 9395:1 9396:1 9397:1 9398:1 9399:1 9400:1 9401:1 9402:1 9403:1 9404:1 9405:1 9406:1 9407:1 9408:1 9409:1 9410:1 9411:1 9412:1 9413:1 9414:1 9415:1 9416:1 9417:1 9418:1 9419:1 9420:1 9421:1 9422:1 9423:1 9424:1 9425:1 9426:1 13514:1 13515:1 
-0.023613897307842999 6:1 12:2 13:2 47:2 67:1 69:1 81:2 101:3 362:2 502:1 520:1 813:1 1061:1 1086:1 1087:1 1538:1 1874:1 2530:1 4220:2 4587:2 9427:1 9428:1 9429:1 9430:1 9431:1 9432:1 9433:1 9434:1 13514:1 13515:1 
-0.011476115969645245 4:2 6:1 12:1 13:2 51:2 52:2 57:1 67:1 69:1 109:1 296:1 326:1 490:1 676:1 1061:1 1246:1 1315:1 1783:1 2170:1 3325:1 4519:1 6375:1 9511:1 9555:1 9556:1 9557:1 9558:1 9559:1 9560:1 13514:1 13515:1 
-0.18705134273675228 6:4 375:1 440:1 857:1 1561:1 1739:1 9572:1 9573:1 9574:1 9575:1 9576:1 13514:1 13515:1 
-0.064983048943654337 4:1 6:2 12:1 57:1 67:1 69:1 77:1 118:2 162:1 193:1 363:1 520:1 704:1 1092:1 1121:1 1959:1 2627:1 3477:1 4056:1 5552:1 9590:1 9591:1 9592:1 13514:1 13515:1 
-0.025057006782961213 4:2 6:10 12:11 13:2 42:1 52:2 67:4 69:4 127:2 699:1 787:1 913:1 1544:1 1818:1 1920:1 2459:1 2701:1 2813:1 2841:1 3439:1 3527:1 4032:1 9609:1 9610:1 9611:3 9612:3 9613:1 9614:1 9615:1 9616:2 9617:1 9618:1 9619:1 9620:1 9621:1 9622:1 13514:1 13515:1 
-0.15665611991844203 6:3 193:1 1662:1 2132:1 9131:1 9623:1 13514:1 13515:1 
-0.073084704947116413 4:1 6:2 12:1 51:1 81:1 162:1 183:1 2467:1 3507:1 4682:1 5625:1 8620:1 9624:1 9625:1 13514:1 13515:1 
-0.0070690837319698939 4:1 6:1 8:1 12:2 13:8 18:1 42:3 47:3 52:1 57:1 85:2 106:1 107:1 109:2 118:1 148:1 162:2 175:1 236:1 276:1 293:1 321:1 402:2 405:2 494:2 596:1 790:1 928:1 1661:1 1667:3 1673:1 3072:1 3972:1 4073:1 4366:1 4759:1 5245:1 5575:3 6098:1 6213:1 6924:1 7638:1 9626:1 9627:1 9628:1 9629:3 9630:1 9631:2 9632:2 9633:1 9634:1 9635:1 9636:1 13514:1 13515:1 
-0.035178657897384488 4:4 6:1 8:3 12:2 13:2 18:3 47:1 51:2 85:2 101:1 150:1 162:2 228:1 404:1 782:1 795:1 1235:1 1600:1 1810:1 2810:1 2879:1 3701:1 3983:1 4010:1 4070:1 4275:1 4989:1 5248:1 5370:1 5447:2 9658:1 9659:1 9660:1 9661:1 9662:1 9663:1 9664:1 9665:1 9666:1 9667:1 13514:1 13515:1 
-0.22780322346554879 4:7 6:6 30:1 67:1 69:1 85:1 133:1 139:1 402:1 405:1 877:1 1034:1 1578:1 1662:1 1804:1 2212:1 2213:1 2214:1 2681:1 3451:1 4415:1 8704:1 9228:1 9680:1 9681:1 9682:1 9683:1 9684:1 9685:1 9686:1 9687:1 9688:1 9689:1 9690:1 9691:1 13514:1 13515:1 
-0.020065102605839616 6:1 12:4 51:1 57:1 118:1 158:1 403:1 1003:1 1092:1 1121:1 1968:1 2012:1 2023:1 2940:1 3263:1 5003:1 9741:1 9742:1 9743:1 9744:1 13514:1 13516:1 
-0.0087343935500483645 4:1 6:2 8:1 12:2 18:1 47:1 57:1 86:1 101:2 109:2 169:1 193:2 236:1 350:2 454:1 475:1 596:1 808:1 1081:1 1456:1 1926:1 1993:1 2702:1 3529:1 4335:1 5447:1 5730:1 5869:1 6007:1 8696:1 8697:1 9793:1 9794:1 9795:1 9796:1 9797:1 9798:1 9799:1 9800:1 9801:1 13514:1 13515:1 
-0.035811246478542898 6:3 61:1 101:1 193:2 527:1 1059:1 3998:1 4886:1 5826:1 7781:1 9582:1 9659:1 9862:1 9863:1 13514:1 13515:1 
-0.018727359144259898 4:2 30:1 67:1 69:1 131:2 139:2 143:1 430:1 1046:2 1218:1 1896:1 3658:1 9308:1 9991:1 9992:2 9993:1 9994:1 9995:1 9996:1 9997:1 9998:1 9999:1 10000:1 13514:1 13515:1 
-0.0080092762749334866 4:1 6:2 8:2 12:4 13:2 18:2 42:2 47:1 52:1 67:2 69:2 98:1 101:2 107:2 109:4 118:1 166:1 215:1 236:1 274:1 491:1 504:1 704:1 813:1 1018:1 2441:1 2530:1 2761:1 4589:1 4993:1 5585:1 5699:1 5807:1 6217:1 7287:1 7402:1 7560:1 8375:1 10002:1 10003:1 10004:1 10005:1 10006:1 10007:1 10008:1 10009:1 10010:1 10011:1 10012:1 10013:1 10014:1 10015:1 10016:1 10017:1 10018:1 10019:1 13514:1 13515:1 
-0.08886546095431111 4:1 52:1 98:1 1318:1 7939:1 10058:2 10059:1 13514:1 13516:1 
-0.057912051046023344 6:2 12:1 47:1 107:1 109:1 118:1 124:1 149:1 357:2 933:1 1553:1 1750:1 2885:1 4237:1 5576:1 8120:1 8226:1 8520:1 10061:1 10062:1 10063:1 10064:1 13514:1 13515:1 
-0.00089476596860387587 4:2 8:2 12:2 13:3 18:2 42:1 52:1 67:2 69:2 81:1 101:2 106:1 169:1 186:2 193:1 710:1 715:1 827:1 828:1 1321:1 1342:2 1504:2 1517:2 2141:1 2616:1 3960:1 4240:1 4431:1 5553:1 9506:1 10102:1 10103:1 10104:1 10105:1 10106:1 10107:2 10108:2 10109:1 13514:1 13515:1 
-0.088407198518462918 4:2 6:11 8:2 12:1 13:1 18:2 36:1 42:1 47:1 51:1 52:1 57:1 67:1 69:1 81:1 85:2 98:1 109:1 113:1 118:1 166:2 227:1 326:1 359:1 682:1 1554:1 1559:1 1560:1 1731:1 1774:1 2982:2 3718:2 6664:1 6726:1 7638:1 8101:1 8350:1 8620:1 10144:1 10145:1 10146:1 10147:1 10148:1 10149:3 10150:1 10151:1 10152:1 10153:1 10154:1 10155:1 10156:1 13514:1 13515:1 
-0.05932212281095716 6:1 12:4 13:1 47:1 61:1 162:1 166:1 1677:1 2091:1 2367:1 2729:1 3996:1 6427:1 7633:1 7640:1 8943:1 9502:1 10157:1 10158:1 13514:1 13516:1 
-0.098877411745386001 4:4 6:4 119:1 459:1 462:1 464:1 3092:1 3093:1 3094:1 5635:1 10159:1 13514:1 13515:1 
-0.025428340945716187 4:4 6:4 30:1 67:1 119:1 402:1 405:1 426:1 459:1 461:1 462:1 464:1 466:1 579:1 1104:1 1838:1 5881:1 6333:1 9224:1 9225:1 9228:1 9262:1 9861:1 10173:1 10174:1 10175:1 10176:1 13514:1 13515:1 
-0.007211361142371032 4:4 6:12 8:1 12:2 13:8 18:1 47:3 51:1 52:4 62:1 77:2 81:1 101:2 118:1 162:1 188:1 193:1 232:1 276:1 446:1 808:1 1019:1 1697:1 1877:1 2078:1 2120:1 2226:1 2844:1 2879:1 2885:1 3328:1 3329:1 3330:1 3447:1 3569:1 4865:1 6840:1 7011:1 7176:1 7280:1 8352:1 10196:1 10197:1 10198:1 10199:1 10200:1 10201:1 10202:1 10203:1 10204:1 10205:1 10206:1 10207:1 10208:1 10209:1 10210:1 10211:1 10212:1 10213:1 10214:1 10215:1 10216:1 10217:1 13514:1 13515:1 
-0.013923765498391933 4:2 55:2 67:2 69:1 133:3 418:1 578:6 579:1 871:6 943:2 4269:1 5994:1 6240:1 6660:1 10221:2 10222:2 10223:1 10224:1 10225:1 10226:1 10227:1 10228:1 10229:1 10230:1 10231:1 10232:1 13514:1 13515:1 
-0.031763606633409006 4:1 12:2 13:1 47:1 52:1 67:1 69:1 233:1 268:1 1331:1 1542:1 1968:1 2142:1 9780:1 10279:1 10280:1 10281:1 13514:1 13515:1 
-0.058244584330745079 4:1 8:1 13:1 18:1 57:1 1092:1 6477:1 10282:1 10283:1 10284:1 13514:1 13515:1 
-0.046537580891143217 118:1 1247:1 1522:1 1810:1 2436:1 13514:1 13515:1 
-7.5369716178639901e-05 4:2 6:7 8:2 12:4 13:2 18:2 38:1 42:2 47:2 52:1 57:1 61:1 67:2 69:2 85:1 92:1 101:2 106:3 109:2 118:1 162:1 208:1 209:1 236:1 286:2 355:2 475:1 478:1 502:2 565:1 661:1 1019:1 1061:1 1073:2 1076:2 1087:2 1090:1 1126:1 1412:1 1697:1 1991:1 2161:1 2172:1 2559:1 3256:2 3796:1 3801:1 3973:1 4237:1 4242:1 4403:1 4441:1 5237:1 5549:1 5800:1 6440:1 9795:1 10396:1 10397:2 10398:1 10399:1 10400:1 10401:1 10402:1 10403:1 10404:1 10405:1 10406:1 10407:1 10408:1 10409:1 10410:1 10411:1 10412:1 10413:1 10414:1 10415:1 10416:1 10417:1 10418:1 10419:1 10420:1 13514:1 13515:1 
-0.15960105988526682 4:1 6:1 8:1 13:1 18:1 51:1 98:1 106:1 107:1 175:1 193:1 208:1 321:1 527:1 1318:1 2638:1 5962:1 9584:1 10245:1 10425:1 10426:1 13514:1 13515:1 
