svm_type c_svc
kernel_type linear
nr_class 2
total_sv 521
rho 0.59927100461905602
label 1 -1
nr_sv 294 227
SV
0.38128084475992408 1:1 2:1 3:1 4:1 5:1 12103:1 12106:1 
0.1232317448438983 3:1 5:1 6:1 7:2 8:1 9:1 10:1 11:1 12:1 13:1 14:1 15:1 16:1 17:1 18:1 19:1 12103:1 12105:1 
0.044372332170022337 3:1 5:2 7:3 13:1 20:1 21:1 22:1 23:1 24:1 25:1 26:1 27:1 28:1 29:1 30:1 12103:1 12105:1 
0.0039186249071406342 5:2 7:7 9:1 13:3 19:1 32:1 49:1 51:3 58:1 70:1 72:1 78:1 115:1 117:1 130:1 136:1 137:1 153:2 157:1 158:1 384:1 385:1 386:1 387:1 388:1 389:1 390:1 391:1 392:1 393:1 394:1 395:1 396:1 397:1 398:1 399:1 400:1 401:1 12103:1 12105:1 
0.032880336576993116 3:1 5:1 7:3 32:2 38:1 58:1 148:3 157:1 158:1 305:1 402:1 403:1 404:1 405:2 406:1 407:1 408:1 409:1 410:1 411:1 412:1 413:1 414:1 415:1 416:1 417:1 418:1 419:1 420:1 421:1 12103:1 12105:1 
0.0024630915446964491 5:2 7:6 38:1 49:1 64:1 70:1 72:1 80:2 94:1 115:1 270:2 457:1 458:1 459:1 460:1 461:1 462:1 463:1 464:1 465:1 466:1 467:1 468:1 469:1 470:1 471:1 472:1 473:1 12103:1 12105:1 
0.034193013725764491 5:2 7:4 9:1 19:1 58:1 91:1 142:1 156:1 157:1 158:1 394:1 562:1 563:1 564:1 565:1 566:1 567:1 568:1 569:1 570:1 12103:1 12105:1 
0.33559354550748699 3:1 5:1 7:1 106:1 496:1 612:1 613:1 614:1 615:1 12103:1 12107:1 
0.05215638457461063 3:3 5:1 7:3 9:1 14:1 19:1 32:2 58:1 79:1 80:1 91:1 114:1 142:1 148:1 447:1 477:1 738:1 914:1 915:1 916:1 917:2 918:1 919:1 920:1 921:1 922:1 923:1 924:1 925:1 926:1 927:1 928:1 929:1 930:1 931:1 932:1 933:1 934:1 935:1 936:1 937:1 12103:1 12105:1 
0.56617447003040156 5:2 7:1 159:1 630:1 1147:1 12103:1 12105:1 
0.1126318119102081 5:2 7:6 9:1 13:1 19:1 51:1 80:1 114:1 115:1 117:1 127:1 157:1 158:1 541:1 547:1 570:1 990:1 1274:1 1275:1 1276:1 1277:1 1278:1 1279:1 1280:1 1281:1 1282:1 1283:1 12103:1 12105:1 
0.027589517015458281 3:11 5:6 7:8 14:1 49:1 51:2 70:5 72:5 80:3 109:1 122:1 127:1 133:1 164:1 173:1 183:1 371:1 442:1 443:1 471:1 481:1 501:1 512:1 560:1 687:1 807:1 1035:2 1257:1 1284:1 1285:1 1286:1 1287:1 1288:1 1289:1 1290:1 1291:1 1292:1 1293:5 1294:1 1295:1 1296:1 1297:1 1298:1 1299:1 1300:1 1301:1 1302:1 1303:1 1304:1 1305:1 1306:1 1307:1 12103:1 12105:1 
0.012765195548528532 3:2 5:3 7:3 9:1 10:1 19:1 49:1 70:1 72:1 80:2 87:1 91:2 596:1 886:1 1445:1 1446:1 1447:1 1448:1 1449:1 1450:1 1451:1 1452:1 1453:1 1454:1 1455:1 1456:1 1457:1 1458:1 1459:1 12103:1 12105:1 
0.055774272117466314 3:1 5:1 7:5 13:3 14:1 51:1 54:1 80:1 87:1 117:1 162:1 177:1 242:1 282:1 517:1 518:1 694:1 695:1 749:1 1284:1 1553:1 1554:1 1555:1 1556:1 1557:1 1558:1 1559:1 1560:1 12103:1 12105:1 
0.13928093303103789 2:1 3:1 5:1 7:1 34:1 313:1 1604:1 1605:1 1606:1 1607:1 1608:1 12103:1 12107:1 
0.014708417373188901 3:1 5:6 7:4 13:2 38:1 44:1 49:1 54:1 60:1 74:2 80:1 86:1 87:1 91:1 109:2 134:1 160:1 173:1 205:1 290:1 388:1 617:1 639:1 662:1 804:1 927:1 1037:1 1145:1 1675:1 1695:1 1696:1 1697:1 1698:1 1699:1 1700:1 1701:1 1702:1 1703:1 1704:1 1705:1 1706:1 1707:1 1708:1 1709:1 1710:1 1711:1 1712:1 1713:1 1714:1 12103:1 12105:1 
0.021800257114512309 5:2 7:1 128:1 129:1 914:1 915:1 12103:1 12105:1 
0.055037499149308659 5:1 7:4 80:2 86:1 94:1 106:1 107:1 270:2 466:1 1076:1 1744:1 1755:1 1756:1 1757:1 1758:1 1759:1 1760:1 1761:1 12103:1 12105:1 
0.06516459404953498 5:1 7:4 13:3 14:1 49:1 70:1 72:1 109:1 117:1 127:1 187:1 205:1 892:1 1002:1 1444:1 1969:1 1970:1 1971:1 1972:1 1973:1 1974:1 1975:1 1976:1 1977:1 1978:1 1979:1 1980:1 12103:1 12105:1 
0.012387648881791566 5:1 7:4 32:1 435:1 784:1 879:1 998:1 2035:1 2036:1 2037:1 2038:1 2039:1 2040:1 12103:1 12105:1 
0.20715249629476271 3:1 5:1 7:1 223:1 1459:1 1526:1 2048:1 12103:1 12107:1 
0.089258449319819008 3:1 5:1 7:2 33:1 38:1 414:1 477:1 1085:1 2134:1 2135:1 12103:1 12105:1 
0.072517624325340674 5:2 7:4 127:1 173:1 177:1 257:1 730:1 1520:1 2213:1 2214:1 2215:1 2216:1 2217:1 12103:1 12105:1 
0.18990344256840871 5:2 7:2 13:1 49:1 51:1 54:1 173:1 187:1 257:1 289:1 332:1 342:1 751:1 1026:1 2143:1 2332:1 2333:1 2334:1 2335:1 2336:1 2337:1 2338:1 2339:1 12103:1 12105:1 
0.21083811920828838 1:1 2:1 3:1 5:1 81:1 12103:1 12106:1 
0.072174774957439639 5:2 7:4 13:2 14:2 28:1 44:1 51:1 70:1 72:1 177:1 205:1 217:1 322:1 533:1 977:1 1107:1 1623:1 1667:1 2476:1 2477:1 2478:1 2479:1 2480:1 12103:1 12105:1 
0.080744254330634022 3:1 7:4 13:2 38:1 44:1 51:1 80:1 133:1 162:1 187:1 763:1 2156:1 2539:1 2540:1 2541:1 2542:1 2543:1 2544:1 2545:1 2546:1 12103:1 12105:1 
0.17534301453813281 3:1 5:1 7:1 13:1 51:1 127:1 134:1 375:1 376:1 377:1 452:1 1299:1 2646:1 12103:1 12107:1 
0.0066690046381222704 5:3 7:5 9:1 13:1 19:1 29:1 38:1 44:1 49:1 51:1 54:1 60:1 74:1 109:1 117:1 127:1 157:1 158:1 173:1 332:1 443:1 496:1 628:1 629:1 630:1 631:1 634:1 643:1 644:1 770:1 894:1 1076:1 1107:1 1443:1 2719:1 2720:1 2721:1 2722:1 2723:1 2724:1 12103:1 12105:1 
0.0029217389259347292 3:1 5:1 7:5 9:1 19:1 38:1 49:1 80:1 429:1 457:1 529:1 695:1 1477:1 1478:1 2725:1 2726:1 2727:1 2728:1 12103:1 12105:1 
0.03187325764632435 3:1 5:1 7:2 38:2 49:1 70:1 72:1 82:1 187:1 205:1 223:1 681:1 1306:1 2586:1 2765:1 2766:1 2767:1 2768:1 2769:1 2770:1 2771:1 2772:1 12103:1 12105:1 
0.60947861395526792 2:1 3:1 5:1 1107:1 2876:1 2877:1 12103:1 12106:1 
0.019397251065885378 5:1 7:3 32:1 33:1 38:1 148:1 305:1 401:1 1442:1 2715:1 2886:1 3041:1 3042:1 3043:1 3044:1 12103:1 12105:1 
0.0043104762319429281 5:5 7:1 44:1 51:1 128:1 129:1 154:1 157:1 158:1 332:1 401:1 420:1 1107:1 1573:1 1762:1 2013:1 3072:1 3073:1 3074:1 12103:1 12105:1 
0.018628700251846691 3:1 5:1 7:3 13:3 14:1 44:1 49:1 51:2 54:1 55:1 64:1 70:1 72:1 80:3 86:3 91:1 109:1 115:1 127:1 139:1 271:2 514:1 748:1 801:1 854:1 945:1 1052:1 2089:1 3070:1 3112:1 3117:1 3118:1 3119:1 3120:1 3121:1 3122:1 3123:3 3124:1 3125:1 3126:1 3127:1 3128:1 3129:1 3130:1 3131:1 3132:1 3133:1 3134:1 3135:1 3136:1 12103:1 12105:1 
0.012994994247422958 3:3 5:3 7:4 9:1 13:2 14:3 19:1 24:1 25:1 26:1 44:1 54:1 55:2 91:1 100:1 115:1 117:1 127:3 187:1 270:1 271:1 310:1 364:1 508:1 670:1 713:1 825:1 829:1 1137:1 1345:1 1878:1 2160:1 2601:1 2733:1 2842:1 3111:1 3137:1 3138:1 3139:1 3140:1 3141:1 3142:1 3143:1 3144:1 3145:1 3146:1 3147:1 3148:1 3149:1 3150:1 3151:1 12103:1 12105:1 
0.0068182421688152946 3:1 5:1 7:5 9:1 13:1 19:1 38:1 55:1 60:1 80:1 162:1 477:1 517:1 518:1 529:1 750:1 1076:1 1477:1 3199:1 3200:1 3201:1 3202:1 12103:1 12105:1 
0.025936291419059208 5:1 7:5 32:1 58:1 106:1 107:1 142:1 784:1 1438:2 1746:1 3352:1 3353:1 3354:1 3355:1 3356:1 3357:1 3358:1 3359:1 3360:1 3361:1 3362:1 12103:1 12105:1 
0.10395672680231698 3:1 5:1 7:4 49:2 91:1 117:1 443:1 477:1 1630:1 1739:1 3363:1 3364:1 3365:1 3366:1 3367:1 3368:1 3369:1 3370:1 12103:1 12105:1 
0.01684750570832572 5:1 7:4 13:1 14:1 44:1 122:1 210:1 265:1 1470:1 2212:1 2696:1 3371:1 3372:1 3373:2 12103:1 12105:1 
0.050209195124444522 3:1 5:2 7:5 9:1 19:1 94:1 158:1 325:1 491:1 495:1 1462:1 3374:1 3375:1 3376:1 3377:1 3378:1 3379:1 12103:1 12105:1 
0.013619272797040581 3:1 5:1 7:4 13:2 14:2 44:1 51:1 55:1 60:1 114:1 177:1 540:1 685:1 1260:1 1273:1 1323:1 1402:1 2325:1 2545:1 3408:1 3409:1 3410:1 3411:1 3412:1 12103:1 12105:1 
0.020317600312444929 3:3 5:4 7:5 9:1 13:2 14:2 19:1 49:2 55:2 64:1 80:3 86:1 91:1 109:1 114:2 127:2 164:1 173:1 301:1 342:1 369:1 377:1 501:1 794:1 845:1 1022:1 1037:1 1103:1 1131:1 1144:1 1273:1 1285:1 1479:1 1621:1 1777:1 1854:1 1868:1 2008:1 2560:1 2580:1 2718:1 2736:1 3160:1 3414:1 3415:1 3416:1 3417:1 3418:1 3419:1 3420:1 3421:1 3422:1 3423:1 3424:1 3425:1 3426:1 12103:1 12105:1 
0.025128133929794075 5:2 7:4 9:1 13:1 19:1 38:1 49:1 54:1 60:1 70:1 72:1 80:1 117:2 130:1 137:1 173:1 217:3 247:1 369:1 457:1 478:1 990:1 1427:2 2010:1 2551:1 2923:1 2934:1 3439:1 3440:1 3441:1 3442:1 3443:1 3444:1 3445:1 3446:1 3447:1 3448:1 3449:1 3450:1 3451:1 3452:1 3453:1 3454:1 3455:1 12103:1 12105:1 
0.017067081027190383 5:1 7:3 37:1 38:1 70:1 72:1 91:1 142:3 148:2 305:1 402:1 602:1 1853:1 1967:1 3431:1 3436:1 3467:1 3468:1 3469:1 3470:1 3471:1 3472:1 3473:1 3474:1 3475:1 3476:1 12103:1 12105:1 
0.018659708167620078 5:2 7:4 13:3 14:2 20:1 44:2 49:1 51:1 60:1 70:1 72:1 80:5 86:1 187:1 195:1 196:1 319:1 558:2 945:1 1867:1 2269:1 3049:1 3584:1 3585:1 3586:1 3587:1 3588:1 3589:1 3590:1 3591:1 3592:1 3593:1 12103:1 12105:1 
0.0015106629177961089 3:1 5:2 7:1 70:1 72:1 477:1 627:1 1261:1 2426:1 12103:1 12105:1 
0.009776775560311585 3:2 5:1 7:6 32:1 70:2 72:2 82:1 91:2 94:1 206:1 435:2 436:2 440:1 441:2 444:1 447:1 515:1 540:1 599:1 631:1 3193:1 3745:1 3746:1 3747:1 3748:1 3749:2 3750:1 3751:1 3752:1 3753:1 3754:1 3755:1 3756:1 3757:1 3758:1 3759:1 12103:1 12105:1 
0.023791070177112354 5:2 7:3 14:1 38:1 51:2 54:1 60:1 70:1 72:1 86:1 115:1 117:1 131:1 205:1 238:1 288:1 299:1 540:1 631:1 973:1 1423:1 1983:1 3237:1 3455:1 3876:3 3877:1 3878:1 3879:1 12103:1 12105:1 
0.0020654252551969695 3:1 5:3 7:13 13:7 14:2 44:1 49:3 51:3 54:1 70:1 72:1 80:6 86:1 87:1 91:2 94:1 114:2 117:2 122:1 127:2 159:1 173:3 195:1 200:1 257:1 258:1 299:1 335:1 401:1 627:1 697:1 748:1 784:1 807:1 841:1 945:4 1035:1 1107:1 1488:1 1741:1 1936:1 1977:1 2371:1 2438:1 2586:1 2876:1 2904:1 3128:1 3129:1 3199:1 3263:1 3311:1 3312:1 3544:1 3880:1 3881:1 3882:1 3883:2 3884:3 3885:1 3886:1 3887:1 3888:1 3889:1 3890:1 3891:1 3892:1 3893:1 3894:1 3895:1 3896:1 3897:1 3898:1 3899:1 3900:1 3901:1 3902:1 3903:1 12103:1 12105:1 
0.016905356733737994 5:1 7:4 9:1 13:1 14:1 19:1 49:1 80:1 106:1 117:1 122:1 133:1 157:1 158:1 205:1 596:1 822:1 886:1 1792:1 1983:1 3329:1 3734:1 3904:1 3905:1 3906:1 3907:1 3908:1 3909:1 3910:1 12103:1 12105:1 
0.0074921109891232102 3:1 5:1 7:1 106:1 614:1 927:1 940:1 2164:1 3944:1 12103:1 12107:1 
0.0038059899336527845 5:2 7:1 32:2 38:1 70:1 72:1 91:3 142:2 160:1 409:1 418:1 421:1 596:1 857:1 858:2 864:1 886:1 1300:1 1678:1 1679:2 1899:1 2727:1 3945:1 3946:1 3947:2 3948:1 3949:1 3950:1 3951:1 3952:1 3953:2 3954:1 3955:1 3956:1 3957:1 3958:1 3959:1 12103:1 12105:1 
0.0086576550863607278 5:2 7:5 9:1 13:1 14:1 19:1 32:1 38:1 49:1 58:1 61:1 70:1 71:1 72:1 80:1 94:1 109:1 117:1 127:1 142:1 270:2 409:1 466:1 1570:1 1758:1 1759:1 2386:1 2650:1 2973:1 3036:1 3205:1 3248:1 3280:2 3993:1 3994:1 3995:1 3996:1 3997:1 3998:1 3999:1 4000:1 4001:1 12103:1 12105:1 
0.01612524994813859 5:5 7:1 80:1 164:1 166:1 708:1 2183:1 2439:1 2514:1 2638:1 12103:1 12105:1 
0.053304520039297316 3:15 5:6 7:11 13:5 14:2 44:4 49:2 51:1 54:1 55:1 64:1 80:2 91:3 106:1 109:5 117:3 127:1 159:1 173:1 296:1 376:1 377:1 443:4 477:1 496:1 500:1 526:1 794:1 823:2 829:1 848:1 850:1 862:1 927:1 952:2 967:1 1011:1 1306:2 1345:2 1432:2 1463:1 1690:1 1797:1 1808:1 1868:1 1899:1 2175:1 2343:1 2374:1 3014:1 3015:1 3060:1 3419:1 3425:1 3944:1 4117:1 4132:1 4133:1 4134:1 4135:1 4136:1 4137:1 4138:1 4139:1 4140:2 4141:1 4142:1 4143:1 4144:1 4145:1 4146:1 4147:1 4148:1 4149:1 12103:1 12105:1 
0.0044453220707357331 5:1 7:2 38:1 127:2 375:1 376:1 377:1 378:1 2809:1 4228:1 12103:1 12105:1 
0.027158969846041311 5:1 7:3 49:1 106:1 117:3 296:1 443:1 814:1 862:1 1808:1 3060:1 3944:1 4117:1 4132:1 12103:1 12105:1 
0.089684480533498895 5:2 7:1 80:1 164:1 166:1 471:1 1552:1 2183:1 2514:1 2638:1 12103:1 12105:1 
0.0012946756300921255 3:2 5:3 7:5 9:1 13:1 19:1 38:1 70:1 72:1 91:2 187:1 631:2 1345:1 1451:1 2738:1 2739:1 2740:1 2741:2 2742:1 2743:1 2744:1 2745:1 2746:1 2747:1 2748:1 2749:1 2750:1 2751:1 3025:1 12103:1 12105:1 
0.030673499127409968 5:2 7:5 38:1 55:1 63:1 70:1 71:1 72:1 94:1 533:1 1959:1 2044:1 3545:1 4290:1 4291:1 4292:1 4293:1 4294:1 4295:1 4296:1 12103:1 12105:1 
0.12881816561069512 3:1 5:3 7:3 14:1 49:1 55:1 80:1 177:1 299:1 491:1 622:1 1719:1 1766:1 1772:1 2274:1 4486:1 4487:1 4488:1 4489:1 4490:1 12103:1 12105:1 
0.014684006684878513 5:2 7:6 9:1 13:2 14:1 19:1 38:1 49:2 51:1 54:1 64:1 70:1 72:1 80:1 94:1 166:1 270:2 271:1 443:1 492:1 782:1 973:1 1122:1 1136:1 1982:1 2081:1 3205:1 3372:1 3897:1 3901:1 4392:1 4559:1 4560:1 4561:1 4562:1 4563:1 4564:1 4565:2 4566:1 12103:1 12105:1 
0.023063233941921529 2:1 3:1 5:1 7:1 34:1 470:1 1606:1 1679:2 2715:1 4567:1 4568:1 12103:1 12107:1 
0.016944930970745817 3:1 5:1 7:6 9:1 19:1 38:1 80:2 127:1 232:1 477:1 691:1 702:1 798:1 1076:1 1099:1 1477:1 2475:1 2561:1 2586:1 3202:1 4569:1 12103:1 12105:1 
0.012575547158398401 5:5 7:7 9:1 13:7 14:4 19:1 38:1 49:2 51:2 54:1 55:4 70:1 72:1 91:1 112:1 117:1 152:1 299:2 310:1 526:1 643:1 748:1 894:1 1050:1 1087:1 1268:1 1280:1 1679:1 1923:1 1959:1 2127:1 3399:1 3663:1 3911:1 4126:1 4295:1 4674:2 4675:1 4676:1 4677:1 4678:1 4679:1 4680:1 4681:1 4682:1 4683:1 12103:1 12105:1 
0.13824130010850574 5:1 7:3 64:1 854:1 1792:1 3544:1 4747:1 4748:1 4749:1 12103:1 12105:1 
0.012884499135328988 5:3 7:4 13:3 14:3 38:1 49:3 60:1 64:1 70:2 72:2 86:1 91:1 109:1 115:1 117:1 122:1 127:3 173:1 187:1 255:1 299:1 307:1 332:1 348:1 355:1 394:1 450:1 494:1 526:1 528:1 540:1 727:1 748:1 894:1 918:1 1035:1 1323:2 1347:1 1950:1 2163:1 3058:1 3965:1 4049:1 4252:2 4259:1 4633:1 4844:1 4845:1 4846:1 4847:1 4848:1 4849:1 4850:1 4851:1 4852:1 4853:1 4854:1 12103:1 12105:1 
0.061751867430774605 3:1 5:1 7:2 38:1 106:1 117:1 398:1 539:1 789:1 806:1 815:1 927:1 12103:1 12105:1 
0.28778695556757539 3:1 5:2 7:1 128:1 129:1 4908:1 12103:1 12105:1 
0.012740220886130452 5:1 7:5 9:1 19:1 697:1 3373:1 3617:1 4909:1 4910:1 4911:1 12103:1 12105:1 
0.023360952058068284 5:3 7:3 80:1 128:1 129:1 207:1 1774:1 1775:1 2027:1 4966:1 5024:1 5025:1 12103:1 12105:1 
0.092437863630659034 5:1 7:3 13:1 86:1 117:1 1002:1 1340:1 2689:1 4845:1 5029:1 5030:1 5031:1 5032:1 12103:1 12105:1 
0.02046021204460256 3:4 5:2 7:6 9:1 13:3 14:1 19:1 44:4 49:1 51:1 60:1 91:1 94:1 109:2 127:1 157:1 158:1 160:1 162:1 173:1 497:1 533:1 697:1 714:1 747:1 784:1 812:1 1808:1 1991:1 2438:1 3164:1 3272:1 3721:1 3788:1 3842:1 4289:1 4408:1 4508:1 4632:1 5033:1 5034:1 5035:1 5036:1 5037:1 5038:1 5039:1 5040:1 5041:1 5042:1 5043:1 12103:1 12105:1 
0.055357409875530034 3:2 5:3 7:2 9:1 13:2 14:1 19:1 49:2 51:1 70:1 72:1 80:1 91:1 109:1 114:1 120:1 127:1 131:1 245:1 247:1 300:1 340:1 364:1 418:1 421:1 430:1 520:1 531:1 825:1 1137:1 1573:1 2212:1 2273:1 3656:1 3931:1 4849:1 4966:1 5051:1 5052:2 5053:2 5054:1 5055:1 5056:1 5057:1 5058:1 5059:1 5060:1 5061:1 5062:1 5063:1 12103:1 12105:1 
0.054134654016654876 3:1 5:2 7:1 13:1 49:3 54:1 70:1 72:1 80:2 91:1 117:1 164:1 187:1 492:1 1739:1 1821:1 1930:1 2465:1 3019:1 3849:1 3943:1 4259:1 4439:1 5222:1 5223:1 5224:1 12103:1 12105:1 
0.10827862344226047 5:1 7:3 80:1 157:1 158:1 435:1 880:1 923:1 2073:1 2858:1 4966:1 5225:1 5226:1 5227:1 5228:1 5229:1 12103:1 12105:1 
0.024121578080120828 3:2 5:1 7:6 9:1 13:1 14:1 19:1 51:1 70:1 72:1 80:1 140:1 223:1 305:1 491:1 802:1 1134:1 1559:1 4213:2 5283:1 5284:1 5285:1 5286:1 5287:1 5288:1 12103:1 12105:1 
0.0269950404114007 5:2 7:3 36:1 38:1 401:1 1309:1 1849:1 3527:1 5309:1 5310:1 5311:1 12103:1 12105:1 
0.024178369333483943 5:1 7:3 13:1 14:1 70:1 72:1 80:1 177:1 185:1 186:1 342:1 925:1 1527:1 3891:1 4213:1 5322:1 5323:1 12103:1 12105:1 
0.054176227291156467 5:1 7:2 38:1 117:2 1012:1 2736:1 3404:1 4669:1 5324:1 5325:1 12103:1 12105:1 
0.0058410942918524847 3:1 7:4 13:2 38:1 44:1 60:1 70:1 72:1 80:4 109:2 173:1 180:1 418:1 421:1 452:1 457:1 502:1 540:1 682:1 683:1 771:1 1300:1 1739:1 2545:1 3586:1 3712:1 5170:1 5319:1 5320:2 5496:1 5497:1 5498:1 5499:1 5500:1 5501:1 5502:1 12103:1 12105:1 
0.0036612102159832229 3:1 5:1 7:5 32:2 38:1 58:2 91:1 148:1 192:1 600:1 631:1 892:1 942:1 1437:1 1967:1 3259:1 3320:1 3331:1 4212:1 4558:1 5533:1 5534:1 5535:1 5536:1 5537:1 5538:1 12103:1 12105:1 
0.026466492620982569 3:1 5:3 7:1 38:1 129:1 163:1 2406:1 12103:1 12105:1 
0.0095063331628869666 5:1 7:6 13:1 38:1 44:1 49:1 54:1 70:1 72:1 80:4 157:1 158:1 207:1 237:1 727:1 1505:1 1815:1 3109:1 3110:1 3408:1 3456:1 4966:1 5665:1 5666:1 5667:1 5668:1 5669:2 5670:1 5671:1 5672:1 5673:1 12103:1 12105:1 
0.02228668697114148 5:2 7:1 164:1 166:1 584:1 585:1 586:1 587:1 588:1 589:1 590:1 591:1 592:2 593:1 594:1 595:1 596:1 708:1 886:1 1575:1 1677:1 12103:1 12105:1 
0.013524813817280738 3:1 5:2 7:6 13:4 14:2 38:1 49:3 51:1 54:1 60:1 70:1 72:1 87:1 117:1 157:1 158:1 173:1 293:1 394:1 488:1 682:1 683:1 687:1 727:1 823:1 913:1 1566:1 1810:1 1941:1 2174:1 2589:2 3025:1 4154:1 4513:1 5320:1 5709:1 5710:1 5711:1 5712:1 5713:1 5714:1 5715:1 5716:1 5717:1 12103:1 12105:1 
0.047465467479211987 3:2 5:2 7:3 13:6 14:2 49:1 54:3 55:1 80:1 117:2 127:1 173:2 223:1 286:2 364:1 371:1 662:1 730:1 825:1 1094:1 1099:1 1332:1 1459:1 1919:1 1924:1 2688:1 2784:1 2822:1 3093:1 3583:1 3589:1 4959:1 5736:1 5737:1 5738:1 5739:2 5740:1 5741:1 5742:1 5743:1 5744:1 5745:1 5746:1 5747:1 5748:1 12103:1 12105:1 
0.033543255013029856 5:2 7:2 20:1 24:1 25:1 26:1 187:1 683:1 5318:1 12103:1 12105:1 
0.026278512805232104 5:1 7:4 9:1 13:1 19:1 49:1 157:1 158:1 342:1 452:1 1272:1 1927:1 2689:1 3596:1 4675:1 5854:1 5855:1 5856:1 12103:1 12105:1 
0.0078011612553244656 3:2 5:1 7:4 9:1 19:1 32:1 38:1 49:1 70:2 72:2 142:1 148:2 435:1 447:1 538:1 941:2 1063:1 2522:1 2852:1 3036:1 3869:1 3870:1 3871:1 3872:1 3873:1 5850:1 5857:1 5858:1 5859:1 5860:1 5861:1 5862:1 5863:1 5864:1 5865:1 5866:1 5867:1 5868:1 5869:1 12103:1 12105:1 
0.034028549440473524 5:1 7:4 24:1 49:1 117:1 177:1 189:1 217:1 730:1 973:1 1071:1 2253:1 2542:1 3272:1 5157:1 5870:1 5871:1 5872:1 5873:1 12103:1 12105:1 
0.0099350158538289105 3:1 5:2 7:14 9:1 13:6 14:4 19:1 38:1 49:4 51:4 55:1 60:2 64:1 70:2 72:2 80:1 86:3 87:3 109:3 117:4 173:2 199:1 205:1 298:1 299:2 300:2 387:1 465:1 502:2 520:1 564:1 713:1 730:1 974:4 1032:1 1035:1 1093:1 1103:1 1120:1 1124:1 1494:1 1727:1 1820:1 2284:1 2390:1 2453:1 2586:1 2660:1 3040:1 3457:1 3461:1 4160:1 4293:1 4353:1 4373:1 4701:1 4702:1 4796:2 4969:1 4972:1 5045:1 5414:1 5450:1 5644:1 5956:2 5957:1 5958:1 5959:1 5960:1 5961:1 5962:1 5963:2 5964:1 5965:1 5966:1 5967:1 5968:1 5969:1 5970:1 5971:1 5972:1 5973:1 5974:1 5975:1 5976:1 5977:1 5978:1 5979:1 12103:1 12105:1 
0.024405944740509816 5:1 7:4 70:1 72:1 142:1 162:1 423:1 441:1 1061:1 1719:1 1967:1 3735:1 5980:1 5981:1 5982:1 5983:1 5984:1 5985:1 5986:1 5987:1 12103:1 12105:1 
0.031491490488066751 5:2 7:5 9:1 13:1 19:1 38:1 80:1 127:2 152:1 157:1 158:1 285:1 333:1 342:1 457:1 533:1 537:1 713:1 1260:1 2044:2 2721:1 5988:1 5989:1 5990:1 5991:1 12103:1 12105:1 
0.098016446566695448 5:3 1659:1 1767:1 6045:1 12103:1 12105:1 
0.16336364317384838 5:1 7:1 13:1 51:1 56:1 86:1 106:1 109:1 127:2 137:1 205:1 238:1 784:1 927:1 1808:1 2586:1 3073:1 3462:1 6051:1 6052:1 6053:1 12103:1 12107:1 
0.022619229372740197 5:1 7:2 38:1 56:1 106:1 592:1 2406:1 2492:1 4213:1 6079:1 12103:1 12105:1 
0.042160842557677963 5:1 7:6 139:1 374:1 457:1 502:1 1071:1 4881:1 4884:1 6114:1 6115:1 6116:1 6117:1 6118:1 6119:1 12103:1 12105:1 
0.025301601991523103 5:2 7:3 13:2 14:1 70:2 72:2 177:1 226:1 538:1 1631:1 2172:1 2217:1 2451:1 3822:1 4768:1 6169:1 12103:1 12105:1 
0.08419367203277707 5:2 7:2 49:1 164:1 2219:1 2683:1 3918:1 6170:1 12103:1 12105:1 
0.028795751072827832 3:2 5:4 7:7 9:1 13:2 14:5 19:1 44:1 49:2 51:2 54:1 60:1 64:1 70:1 72:1 86:3 87:1 91:2 109:2 114:1 115:3 117:2 173:1 205:1 299:4 305:1 335:1 338:2 351:1 359:3 360:1 364:1 522:1 530:1 812:1 1025:1 1103:1 1323:1 1346:1 1513:1 1514:1 1515:1 1580:1 1871:1 1947:1 1983:5 2286:1 2507:1 2827:1 2828:1 3217:1 3484:1 3808:1 3856:1 4372:1 4922:1 5196:2 5653:1 5841:1 6181:3 6182:2 6183:1 6184:1 6185:1 6186:1 6187:1 6188:1 6189:1 6190:1 6191:1 6192:1 6193:1 6194:1 6195:1 6196:1 6197:1 6198:1 6199:1 6200:1 6201:1 6202:1 6203:1 6204:1 6205:1 6206:1 12103:1 12105:1 
0.010964162220433111 5:2 7:3 13:1 25:1 26:1 38:1 342:1 1608:1 3055:1 3057:1 3591:1 5090:1 12103:1 12105:1 
0.059597084390495533 5:2 7:3 13:4 51:1 70:1 72:1 80:1 117:1 177:1 222:1 274:1 281:1 748:1 945:1 1234:1 3128:1 3129:1 3516:1 6267:1 6268:1 6269:1 6270:1 12103:1 12105:1 
0.03533474130147201 3:2 5:1 7:5 9:1 13:1 19:1 44:1 49:1 51:2 538:1 563:1 1268:1 1417:1 1628:1 1739:1 2530:1 3614:1 4675:1 6279:1 6280:1 6281:1 6282:1 6283:1 12103:1 12105:1 
0.23608787930460806 3:1 5:1 7:1 106:1 738:1 771:1 1777:1 4857:1 6305:1 12103:1 12107:1 
0.085298985648736628 5:1 7:3 13:2 14:1 49:1 51:1 109:2 187:1 243:1 255:1 348:1 405:1 423:1 505:1 2372:1 3165:1 4540:1 6438:1 6439:1 6440:1 6441:1 12103:1 12105:1 
0.0052331146724004596 3:1 5:1 7:2 38:1 54:1 80:2 127:2 157:1 158:1 398:1 409:1 418:1 421:1 452:1 570:2 614:1 858:1 871:1 1300:1 1301:1 1410:1 2492:1 3038:1 6451:1 6452:1 6453:1 6454:1 6455:1 6456:1 12103:1 12105:1 
0.0029711835065997032 5:2 7:4 32:4 70:1 72:1 80:1 142:1 148:3 164:1 305:1 398:1 413:1 447:1 1107:1 1308:1 1309:1 1310:1 1314:1 2564:1 3042:1 3203:1 3467:1 3700:1 6058:1 6412:1 6483:1 6484:1 6485:1 6486:1 6487:1 6488:1 6489:1 12103:1 12105:1 
0.0010480481105343373 3:1 5:1 7:3 32:2 70:1 72:1 91:1 435:1 751:1 997:1 5512:1 6490:1 6491:1 6492:1 6493:1 6494:1 6495:1 6496:1 12103:1 12105:1 
0.016569017056204269 5:1 7:4 109:1 127:1 139:1 177:1 316:1 533:1 699:1 700:1 1444:1 1547:1 1616:1 4937:1 6562:1 6563:1 6564:1 12103:1 12105:1 
0.018235949581750635 3:1 5:1 7:4 32:1 58:1 70:1 72:1 80:1 91:1 106:1 107:1 148:1 238:1 289:1 435:1 440:1 441:1 567:1 1438:1 1451:1 1557:1 3560:1 3561:1 5929:1 6608:2 6609:1 6610:1 6611:1 12103:1 12105:1 
0.014786351177816832 5:1 7:4 38:1 44:1 51:1 80:1 173:1 481:1 912:1 2582:1 3614:1 4845:1 5032:1 6282:1 6612:1 6613:1 6614:1 12103:1 12105:1 
0.12379850171301394 5:1 7:2 13:3 14:2 44:2 51:2 117:1 187:1 338:1 824:1 947:1 1340:1 1601:1 2440:1 2764:1 3370:1 3614:1 5653:1 6615:1 6616:1 6617:1 6618:1 6619:1 12103:1 12105:1 
0.01943229618165283 3:1 5:2 7:2 128:1 129:1 142:1 1435:1 6661:1 6662:1 6663:1 6664:1 12103:1 12105:1 
0.012599926974997087 3:4 5:5 7:7 9:3 13:8 14:5 19:3 29:1 32:1 44:3 49:1 51:1 54:1 55:1 70:1 72:1 80:1 91:1 94:1 106:1 115:1 127:2 130:1 131:1 137:1 140:1 143:1 148:2 153:1 157:1 158:1 166:1 299:1 400:1 409:1 435:1 443:1 617:2 630:1 810:1 878:1 892:1 1064:1 1323:1 1812:1 2415:1 2594:1 2650:1 3021:1 3338:1 4487:1 4491:1 5650:1 6109:2 6375:2 6665:1 6666:1 6667:1 6668:1 6669:1 6670:1 6671:2 6672:2 6673:1 6674:1 6675:1 6676:1 6677:1 6678:1 6679:1 6680:1 6681:1 6682:1 6683:1 12103:1 12105:1 
0.0070769238403953372 5:1 7:6 9:1 13:1 19:1 117:1 127:1 355:1 529:1 1071:1 1468:1 1781:1 2903:1 6062:1 6684:1 6685:1 6686:1 6687:1 12103:1 12105:1 
0.099485310157787332 3:1 5:1 7:2 9:1 13:1 14:1 19:1 49:1 70:1 72:1 91:1 109:1 110:1 293:1 342:1 631:1 2808:1 3822:1 3891:1 6766:1 6767:1 6768:1 6769:1 6770:1 12103:1 12105:1 
0.17835846192304866 5:3 7:2 13:2 38:1 51:1 54:1 55:1 128:1 129:1 217:2 299:1 496:1 533:1 1097:1 1900:1 2027:1 2028:1 2752:1 2754:1 6396:1 12103:1 12105:1 
0.014857648382920731 3:1 5:1 7:6 9:1 19:1 38:1 127:1 183:1 386:1 390:1 533:1 1477:1 1520:1 2993:1 6820:1 6821:1 6822:1 6823:1 12103:1 12105:1 
0.011984089950417543 5:1 7:5 13:2 51:1 80:2 94:1 177:1 187:1 217:1 270:2 271:1 945:1 1341:1 2081:1 3127:1 3128:1 3129:1 3774:1 6846:1 6847:1 6848:1 6849:1 6850:1 6851:1 12103:1 12105:1 
0.048435974129796125 5:2 7:1 164:1 166:1 418:1 421:1 435:1 597:1 603:1 887:1 4871:1 4872:1 4873:1 5531:1 6976:1 12103:1 12105:1 
0.046625930004324155 3:5 5:2 7:3 9:1 13:4 14:1 19:1 38:1 49:1 55:2 64:1 79:1 80:1 87:2 91:1 106:2 127:3 173:1 199:1 205:1 222:1 298:1 300:1 364:1 401:1 443:1 558:1 789:1 814:1 845:1 945:1 1083:1 1125:1 1137:1 1323:2 1693:1 1808:1 2275:1 2492:1 2558:1 4147:1 4974:1 5028:1 5084:1 7010:1 7011:1 7012:3 7013:1 7014:1 7015:1 7016:1 7017:1 7018:1 7019:1 7020:1 7021:1 7022:1 7023:1 12103:1 12105:1 
0.07317731797716516 5:4 7:4 13:4 27:1 44:1 51:2 55:1 56:1 60:1 70:1 72:1 74:2 86:3 87:1 106:1 109:1 114:1 115:1 117:1 127:2 152:1 173:3 180:1 205:1 289:1 298:1 299:2 300:2 481:1 494:1 520:1 560:1 614:1 631:2 679:2 947:1 967:1 1097:1 1432:1 1674:1 1705:1 1863:1 2067:1 2137:1 2275:1 4002:1 4598:1 7069:1 7070:1 7071:1 7072:1 7073:1 7074:1 7075:1 7076:1 7077:1 7078:1 7079:1 7080:1 7081:2 7082:1 7083:1 7084:1 7085:1 7086:1 7087:1 7088:1 12103:1 12105:1 
0.0098733687963839505 3:2 5:3 7:9 9:2 13:2 14:1 19:2 38:1 44:1 49:2 51:3 58:1 60:1 70:2 72:2 109:1 115:1 139:1 205:1 289:1 335:1 338:1 364:1 369:1 434:1 465:1 533:1 580:1 824:1 829:1 971:1 974:2 1103:1 1120:1 1136:1 1492:1 2246:1 2407:1 3930:1 4293:1 4856:1 5964:1 5965:1 5966:1 5967:1 5968:1 7089:1 7090:1 7091:1 7092:1 7093:1 7094:1 7095:1 7096:1 7097:1 7098:1 7099:1 12103:1 12105:1 
0.024420286575044463 5:3 7:1 49:1 128:1 129:1 1410:1 2973:1 6352:1 12103:1 12105:1 
0.014182418796975696 5:1 7:2 38:1 106:1 117:1 398:1 789:1 806:1 1692:1 1768:1 12103:1 12105:1 
0.014612297542519444 3:1 5:2 7:7 13:1 44:1 55:1 70:1 72:1 78:1 80:1 86:1 87:1 152:1 173:1 177:1 183:1 205:2 459:1 497:1 622:1 1507:2 2068:2 2406:1 2442:1 2586:1 4159:1 4225:1 6062:1 7089:1 7297:1 7298:1 7299:1 12103:1 12105:1 
0.0086938031608523175 5:1 7:6 13:1 38:1 44:1 49:1 60:1 80:1 173:1 235:1 282:1 2250:1 2300:1 4600:1 6656:1 7189:1 7306:1 7307:1 7308:1 7309:1 7310:1 7311:2 7312:1 7313:1 12103:1 12105:1 
0.44302078375910553 3:1 7:1 134:1 401:1 1766:1 2048:1 12103:1 12106:1 
0.0823833273075813 5:2 7:3 49:1 122:1 429:1 1073:1 5215:1 6410:1 7347:1 7348:1 7349:1 7350:1 7351:1 12103:1 12105:1 
0.037232341215544869 5:1 7:3 38:1 2419:1 2420:1 2421:1 7366:1 12103:1 12105:1 
0.010630599377189761 5:1 7:4 9:1 19:1 38:1 49:2 51:1 54:1 80:1 127:1 374:1 540:2 677:1 685:1 2767:1 4177:1 4715:1 6822:1 7407:1 7408:1 7409:1 7410:1 7411:1 12103:1 12105:1 
0.0029865272456146954 3:1 5:7 7:9 13:2 14:2 44:3 49:2 51:2 55:1 64:1 70:1 72:1 80:1 86:1 87:2 91:1 93:1 109:1 114:1 117:4 127:2 157:1 158:1 164:1 173:2 199:2 200:1 299:1 364:1 376:1 377:1 492:1 500:1 501:1 502:1 558:1 679:1 713:1 818:2 829:1 838:1 955:1 985:1 1011:1 1012:1 1022:1 1035:1 1092:1 1136:1 1334:1 1347:2 1348:1 1432:1 1495:1 1500:1 1821:1 1871:1 2155:2 2345:1 2410:1 2411:1 2495:2 2809:1 3158:1 3404:1 3583:1 3618:1 3635:1 3668:1 4259:1 4673:1 4933:1 4969:1 4974:3 7469:1 7470:1 7471:1 7472:1 7473:1 7474:1 7475:1 7476:1 7477:2 7478:1 7479:1 7480:1 7481:1 7482:1 7483:1 7484:1 7485:1 12103:1 12105:1 
0.088722763652468034 5:2 7:1 80:1 164:1 166:1 2183:1 2514:1 2638:1 2735:1 2835:1 12103:1 12105:1 
0.048435337914352443 3:1 5:3 7:4 13:6 14:2 44:1 49:1 51:1 54:1 55:1 70:1 72:1 86:2 87:1 91:1 139:2 238:1 255:1 303:1 335:1 348:1 384:1 387:1 443:1 457:1 795:1 852:1 1107:1 1140:1 1719:2 1741:1 2816:1 2985:1 4395:1 4969:1 6582:1 7493:2 7494:2 7495:2 7496:2 7497:1 7498:1 7499:1 7500:1 7501:1 7502:1 7503:1 7504:1 7505:1 12103:1 12105:1 
0.0034821524922501565 3:1 5:5 7:3 32:3 33:1 38:1 91:1 148:3 166:1 183:1 223:1 447:1 452:1 502:1 540:1 599:1 1308:1 1309:1 1804:1 2886:1 3040:1 3195:1 3700:1 4812:1 7528:1 7529:1 7530:1 7531:1 7532:1 7533:1 7534:1 7535:1 7536:1 12103:1 12105:1 
0.049770451017732427 5:1 7:4 29:1 94:1 117:1 177:1 187:1 1331:1 2667:1 3597:1 7581:1 12103:1 12105:1 
0.29988105075012123 3:2 5:1 7:1 51:1 54:1 86:1 91:1 115:1 122:1 247:1 496:1 771:1 1107:1 5247:1 5302:1 7604:1 12103:1 12105:1 
0.027040210776964672 5:3 7:7 9:1 13:2 14:2 19:1 32:2 44:2 49:2 51:1 54:1 55:3 58:1 86:1 109:1 114:1 122:1 148:1 173:5 246:1 265:1 342:1 345:1 364:2 369:4 440:1 679:1 738:1 801:1 1064:1 1107:1 1346:1 1922:1 1990:1 2823:4 3011:1 3583:1 3608:1 3732:2 4051:1 4181:1 4492:1 4901:1 4971:1 5476:1 5659:2 5845:1 5855:1 6113:1 6218:1 6221:1 6628:2 6699:1 6892:1 6943:2 7309:1 7581:3 7623:1 7624:1 7625:1 7626:1 7627:1 7628:1 7629:1 7630:1 7631:1 7632:1 7633:1 7634:1 7635:1 7636:1 7637:1 7638:1 7639:1 7640:1 7641:1 7642:1 7643:1 7644:1 7645:1 12103:1 12105:1 
0.032094809809690497 3:4 5:3 7:5 9:1 14:2 19:1 38:1 44:2 49:1 51:3 54:1 55:1 60:1 86:2 87:1 109:1 115:1 128:1 129:1 205:1 299:1 364:1 522:1 540:1 546:1 1092:1 1347:1 1424:1 1500:1 1719:1 1733:1 1781:1 1924:1 2600:1 3712:1 3729:1 4373:1 4533:1 4995:1 6009:1 7193:1 7651:1 7652:1 7653:1 7654:1 7655:1 7656:1 7657:1 7658:1 7659:1 12103:1 12105:1 
0.21509926245358896 3:1 5:1 7:1 417:1 497:1 1459:1 5747:1 5748:1 12103:1 12107:1 
0.035651579494545969 5:2 7:3 13:3 14:3 51:1 60:1 80:1 109:1 114:1 171:1 187:1 514:1 736:1 748:1 933:1 1509:2 3821:1 4752:1 4904:2 6465:1 7667:1 7668:1 7669:1 7670:1 12103:1 12105:1 
0.023648434218011466 5:1 7:6 13:2 51:1 55:1 86:1 127:1 206:1 241:1 288:1 301:1 442:1 443:1 824:1 1103:1 1137:1 1333:1 2089:1 3120:1 5113:1 6290:1 7680:1 7681:1 7682:1 7683:1 7684:1 7685:1 7686:1 7687:1 7688:1 12103:1 12105:1 
0.0026156951522210924 5:1 7:3 32:1 38:1 58:1 140:1 402:1 435:1 596:1 886:1 1790:1 2134:1 2713:1 2714:1 3041:1 3203:1 3204:1 3467:1 4420:1 7689:1 7690:1 12103:1 12105:1 
0.0044784090853574494 5:2 7:4 32:3 70:1 72:1 80:1 142:1 148:1 238:1 440:1 441:1 2057:1 2058:1 4194:2 6104:1 6852:1 6965:1 7699:1 7700:1 7701:1 7702:1 7703:1 12103:1 12105:1 
0.0079333710247737055 2:1 3:1 5:3 7:4 13:4 14:1 44:1 55:2 70:1 72:1 86:1 87:1 109:1 117:1 127:2 157:1 159:1 173:1 287:1 309:1 369:1 423:1 529:2 617:1 829:1 1290:1 1300:1 1477:1 2015:1 2104:1 2815:1 2876:1 3201:2 3311:1 3312:1 3313:1 3453:1 4849:1 5784:1 7091:1 7732:1 7733:1 7734:1 7735:1 7736:1 12103:1 12105:1 
0.21178164450224032 5:2 7:2 26:1 38:1 533:1 535:1 804:1 2027:1 2028:1 12103:1 12105:1 
0.082915081304612448 5:6 7:8 36:1 38:1 70:2 72:2 82:1 128:1 166:1 221:1 443:1 475:1 478:1 480:1 482:1 781:1 867:1 1120:1 1487:1 1844:1 3012:1 3013:1 3014:1 3015:1 5006:1 5008:1 6304:1 12103:1 12105:1 
0.0019486323559500859 3:1 5:3 7:8 49:1 58:1 70:1 72:1 80:2 91:1 133:1 217:4 401:1 443:1 477:1 804:1 945:2 1913:1 2060:1 2934:4 6331:2 6919:1 6923:1 7555:1 7797:1 7798:1 7799:1 7800:2 7801:1 7802:2 7803:1 7804:1 7805:1 7806:1 7807:1 7808:1 7809:1 7810:1 7811:1 7812:1 7813:1 7814:1 7815:1 12103:1 12105:1 
0.013342240465093233 5:2 7:4 13:1 14:1 44:1 51:1 177:1 342:1 355:1 533:1 639:1 1700:1 1705:1 1936:1 1959:1 2677:1 5973:1 7828:1 7829:1 12103:1 12105:1 
0.014124709088319653 3:5 5:9 7:6 9:1 13:7 14:1 19:1 38:1 44:5 49:3 51:3 54:2 55:2 64:2 70:4 72:4 80:2 86:2 87:4 91:1 106:1 109:1 114:2 117:2 157:1 252:1 253:1 298:2 299:1 300:3 338:2 342:1 401:1 417:1 418:1 421:1 520:1 522:1 526:2 596:4 662:1 679:1 714:1 730:1 745:1 800:1 813:1 820:1 825:1 829:2 886:4 941:4 991:1 1005:1 1136:1 1137:1 1229:7 1249:2 1332:5 1345:1 1347:1 1494:1 1496:1 1502:1 1520:1 1598:1 1687:1 1936:1 1990:3 2021:3 2108:1 2154:1 2160:2 2274:1 2275:1 2580:1 2586:1 2657:1 2771:1 2823:2 3339:1 3416:1 3589:2 3608:1 3624:1 3646:1 3648:1 3769:1 3934:1 4518:2 4532:1 5266:1 5784:1 5841:1 5975:1 6465:1 7059:1 7830:1 7831:1 7832:1 7833:1 7834:1 7835:1 7836:1 7837:3 7838:1 7839:1 7840:1 7841:1 7842:1 7843:1 7844:1 7845:1 7846:1 7847:1 7848:1 7849:1 7850:1 7851:1 7852:1 7853:1 7854:1 7855:1 7856:1 7857:1 7858:1 7859:1 7860:1 7861:1 7862:1 7863:1 7864:1 7865:1 7866:1 7867:1 7868:1 7869:1 7870:1 7871:1 7872:1 7873:2 7874:1 7875:1 7876:1 7877:1 12103:1 12105:1 
0.026229467024495863 5:2 7:2 9:1 19:1 49:1 51:1 60:1 64:1 70:1 72:1 106:1 117:1 122:1 127:1 173:1 232:1 235:1 417:1 574:1 1459:1 1734:1 2065:1 2250:1 2438:1 3381:1 3911:1 4941:1 5237:1 7908:1 7909:1 7910:1 7911:1 7912:1 12103:1 12105:1 
0.019242641900791866 5:1 1767:1 12103:1 12106:1 
0.0060696795619825912 5:3 7:6 13:2 14:1 38:1 49:2 51:1 54:2 70:2 72:2 80:2 86:2 94:1 122:2 127:2 281:1 283:1 288:1 679:1 748:1 942:1 1081:1 1098:1 1137:1 1417:2 1541:1 1760:1 1959:1 1960:1 2021:1 4413:1 6008:1 6440:1 7949:1 7950:1 7951:1 7952:1 7953:1 7954:1 7955:1 7956:1 7957:1 7958:1 7959:1 7960:1 12103:1 12105:1 
0.026740464908898968 5:1 7:4 9:1 19:1 78:1 80:2 157:1 158:1 285:1 417:1 497:1 871:1 892:1 4146:1 4556:1 6608:1 8006:1 8007:1 8008:1 8009:1 12103:1 12105:1 
0.0071470960464960556 3:1 5:2 7:4 9:1 13:4 14:1 19:1 40:1 44:1 49:2 51:1 60:1 80:1 86:2 91:2 114:1 115:2 127:1 130:1 137:1 180:1 183:1 245:1 253:1 384:1 759:2 926:1 1003:1 1025:1 1137:1 1310:1 1459:1 1622:1 1736:1 1950:1 2011:1 3003:1 3207:1 3607:1 3648:1 4388:1 4480:1 5186:2 5189:1 5190:1 5539:1 5545:1 5546:1 6748:1 8065:1 8066:1 8067:1 8068:1 8069:1 12103:1 12105:1 
0.015407260457634674 3:1 5:1 7:5 13:1 38:1 44:1 49:1 51:1 78:1 86:2 87:1 91:1 106:1 117:1 173:2 187:1 200:1 205:1 282:1 309:1 558:1 957:1 1103:1 1871:1 2275:1 2586:1 2984:1 3140:1 3263:1 8073:1 8074:1 8075:1 8076:1 8077:1 8078:1 8079:1 8080:1 8081:1 8082:1 8083:1 8084:1 12103:1 12105:1 
0.0096968067104268307 5:1 7:3 38:1 1307:1 2419:1 2420:1 2421:1 12103:1 12105:1 
0.037443939989449726 5:1 7:3 38:1 2419:1 2420:1 2421:1 8092:1 12103:1 12105:1 
0.086713381809338339 5:2 7:2 13:2 14:3 49:5 55:2 70:2 72:2 124:1 160:1 173:2 265:2 342:1 364:1 1124:1 1773:1 2789:1 2823:1 3769:1 4101:1 4372:1 4493:1 4494:1 4542:1 6097:1 6471:1 7266:1 7985:1 8100:1 8101:1 8102:1 12103:1 12105:1 
0.0041042287848768169 3:1 5:2 7:5 13:3 14:2 49:1 54:1 74:1 86:1 115:1 127:1 164:1 222:1 691:1 1052:1 1853:1 2109:1 2545:1 3284:1 5303:1 6250:1 7649:1 7695:1 7782:1 8106:1 8107:1 8108:1 8109:1 8110:1 12103:1 12105:1 
0.031607851720004361 3:1 5:1 7:1 134:1 1300:1 1459:1 8111:1 12103:1 12107:1 
0.0040615423675805671 3:2 5:3 7:6 9:2 19:2 32:2 80:2 91:1 127:1 147:1 148:3 153:2 164:1 182:1 289:1 305:1 400:1 457:1 596:1 599:1 614:1 631:1 708:1 718:1 886:1 1675:1 1734:1 2404:1 2406:1 2439:1 2754:1 3112:1 3282:1 4491:2 8113:1 8114:1 8115:1 8116:1 8117:1 8118:1 12103:1 12105:1 
0.051142148991926123 5:2 7:4 55:1 117:1 169:1 1564:1 2981:1 3592:1 6318:1 8139:1 8140:1 8141:1 8142:1 8143:1 8144:1 12103:1 12105:1 
0.073956641689122887 5:2 7:1 128:1 129:1 1784:1 1785:1 12103:1 12105:1 
0.021431147567236471 5:2 7:3 49:1 64:1 70:1 72:1 117:1 119:1 127:1 173:1 177:1 185:1 186:1 187:2 188:1 189:1 271:1 578:1 4966:1 5633:1 7167:1 8237:1 8238:1 12103:1 12105:1 
0.17264509810446996 5:1 7:4 390:1 441:1 1513:1 1967:1 2522:1 3360:1 8240:1 8241:1 12103:1 12105:1 
0.0070174998359930837 3:3 5:1 7:5 9:1 14:1 19:1 44:1 70:1 72:1 79:1 91:1 127:1 497:1 807:1 833:1 967:1 1397:1 1766:2 4158:1 4497:1 5621:1 7585:1 8161:1 8245:1 8246:1 8247:1 8248:1 8249:1 8250:1 8251:1 8252:1 12103:1 12105:1 
0.006943629023918243 5:3 7:5 32:5 37:1 38:1 58:1 70:1 72:1 80:2 91:1 148:5 305:1 418:2 421:2 435:1 437:1 459:1 477:2 540:1 567:1 586:1 591:1 592:1 596:1 597:2 599:1 604:1 886:1 982:1 1119:1 1771:1 2183:1 2184:1 2185:1 2191:1 2197:1 2198:1 2199:1 2610:1 2615:1 2854:1 5340:1 5371:1 5755:2 5784:1 7460:1 8266:1 8267:1 8268:1 8269:1 8270:1 8271:2 8272:1 8273:1 8274:1 8275:1 8276:1 8277:1 8278:1 8279:1 8280:1 8281:1 8282:1 8283:1 8284:1 8285:1 12103:1 12105:1 
0.010687081924603083 3:1 5:1 7:6 51:1 54:1 70:1 72:1 91:1 160:1 166:1 177:1 217:1 272:1 388:1 691:1 1005:1 3373:1 4903:1 8296:1 8297:1 8298:1 8299:1 8300:1 8301:1 8302:1 8303:1 8304:1 8305:1 12103:1 12105:1 
0.073903048660924356 5:2 7:1 128:1 129:1 7896:1 7897:1 12103:1 12105:1 
0.098570421052867715 5:1 7:3 38:1 64:1 423:1 463:1 1609:1 2840:1 2938:1 6121:1 12103:1 12105:1 
0.1646423942299407 5:2 7:2 9:1 19:1 122:1 3708:1 8366:1 8367:1 12103:1 12105:1 
0.059529848608007044 5:2 7:1 128:1 129:1 759:1 5186:1 12103:1 12105:1 
0.048476950786632902 3:1 5:2 7:2 13:1 14:1 25:1 26:1 64:1 270:1 271:1 322:1 2540:1 2842:1 6126:1 6824:1 6834:1 12103:1 12105:1 
0.0093105413228381905 3:1 5:2 7:5 9:1 13:1 19:1 38:1 54:1 55:1 80:2 91:1 109:1 117:1 157:1 158:1 374:1 481:1 912:1 927:1 2008:1 2784:2 3064:1 3594:1 3963:1 4006:1 8399:1 8400:1 8401:1 8402:1 12103:1 12105:1 
0.035793830150091389 3:2 5:2 7:4 32:1 33:1 38:1 166:1 401:2 414:1 443:1 1804:1 1808:1 3429:1 7035:2 8412:1 8413:1 8414:1 12103:1 12105:1 
0.014406156178853333 3:7 5:6 7:11 9:1 13:8 14:7 19:1 44:1 49:2 51:3 55:4 60:2 70:1 72:1 74:1 80:1 86:5 91:2 115:1 127:3 164:1 173:2 177:1 182:1 205:2 300:1 318:1 335:1 376:2 377:1 452:1 500:1 501:1 520:1 528:1 540:2 558:2 677:1 690:1 818:1 823:1 824:1 833:2 835:1 838:2 1050:1 1085:1 1103:2 1107:1 1260:1 1703:1 1719:1 1777:1 1871:1 2011:1 2021:1 2142:1 2155:1 2205:1 2275:1 2492:1 2548:1 2564:1 2754:1 2766:1 2998:2 3155:1 3425:1 3653:1 4348:1 4933:1 6888:1 8433:1 8434:1 8435:1 8436:1 8437:1 8438:1 8439:1 8440:1 8441:1 8442:1 8443:1 8444:1 8445:1 8446:1 8447:1 8448:1 8449:1 12103:1 12105:1 
0.0036853943190360817 3:1 5:1 7:3 13:1 64:1 80:1 82:1 107:1 109:2 122:1 127:1 157:1 158:1 319:2 560:1 771:1 1410:1 2275:1 2346:1 3548:1 3608:1 3614:1 4943:1 7292:1 8474:1 8475:1 8476:1 8477:1 8478:1 8479:1 8480:1 8481:1 12103:1 12105:1 
0.023622281979577244 5:3 7:1 32:2 38:1 58:1 70:1 72:1 80:2 91:1 142:1 148:3 166:2 409:1 418:2 421:2 435:1 477:1 514:1 592:1 596:1 858:1 873:1 878:1 880:1 886:1 906:1 2624:1 2648:1 2825:1 3044:1 3485:1 4104:1 4436:1 4820:1 5672:2 7405:2 8482:1 8483:1 8484:1 8485:2 8486:1 8487:1 8488:1 8489:1 8490:1 8491:1 8492:1 8493:1 8494:1 8495:1 8496:1 8497:1 8498:1 8499:1 12103:1 12105:1 
0.022748753244596194 3:3 5:7 7:9 13:1 14:3 38:1 49:1 51:3 54:1 70:2 72:2 80:3 82:2 115:1 127:2 159:1 177:1 205:1 299:1 335:1 342:1 390:1 430:1 533:2 782:2 967:1 971:2 975:1 976:1 1104:1 1500:2 1514:2 2079:1 2273:1 2284:1 2407:1 3207:1 3792:1 4472:1 4582:1 4849:2 8503:1 8504:1 8505:1 8506:1 8507:1 8508:1 8509:1 8510:1 8511:1 8512:1 8513:1 8514:1 8515:1 8516:1 8517:1 12103:1 12105:1 
0.0051596708992202658 5:1 1261:1 12103:1 12106:1 
0.082375922928358783 5:1 7:2 9:1 13:2 19:1 26:1 49:2 55:1 80:1 98:1 117:2 310:1 355:1 546:1 1107:1 1263:1 1264:1 1265:1 1266:1 1267:1 1268:1 1269:1 1270:1 1271:1 1272:1 3608:1 12103:1 12105:1 
0.002818896799386442 5:1 7:3 14:1 49:1 54:1 80:3 106:2 107:1 124:1 335:1 418:1 421:1 871:1 1410:1 1566:1 4271:1 4858:1 5650:1 6454:1 8474:1 8573:1 8574:1 8575:1 8576:1 8577:1 8578:1 12103:1 12105:1 
0.016490933763676451 5:3 7:3 13:1 14:1 38:1 70:1 72:1 163:1 639:1 1716:1 4140:1 4439:1 8518:1 8519:1 8520:1 8579:1 12103:1 12105:1 
0.029578665682331848 3:2 5:2 7:5 9:2 13:1 19:2 51:1 55:2 60:1 70:1 72:1 86:1 109:1 134:1 187:1 282:1 332:1 418:1 421:1 443:1 492:1 497:1 560:1 631:2 739:1 894:1 1107:1 1145:2 1432:1 1766:1 2051:1 2754:1 2990:1 3116:1 3781:1 3970:1 7374:1 7668:1 8686:1 8687:1 12103:1 12105:1 
0.075966610004200491 5:3 7:8 37:1 38:1 70:2 72:2 82:1 128:1 166:1 394:1 417:1 418:1 421:1 443:1 474:1 475:1 478:1 480:1 533:1 597:1 851:1 1848:1 2179:1 2198:1 2202:1 2715:1 2809:1 5529:1 5928:1 5991:1 6625:1 8285:1 8465:1 8466:1 8470:1 8720:1 12103:1 12105:1 
0.0085367829175443631 3:1 5:1 7:5 9:1 13:2 19:1 49:2 51:1 80:2 86:1 91:1 109:1 115:1 122:1 157:1 158:1 201:1 243:1 492:1 522:1 646:1 647:1 1078:1 1280:1 1517:1 1671:1 3370:1 4540:1 5091:1 7605:1 7606:1 7607:1 8747:1 8748:1 8749:1 8750:1 8751:1 12103:1 12105:1 
0.01564046217078896 5:1 7:5 117:1 736:1 2934:1 2973:1 8758:1 8759:1 8760:1 8761:1 8762:1 8763:1 8764:1 8765:1 8766:1 8767:1 12103:1 12105:1 
0.07470094314092901 3:1 5:1 7:4 9:1 13:3 19:1 40:1 44:1 49:1 51:1 54:1 78:1 80:2 86:2 87:1 95:1 96:1 114:1 173:1 322:1 491:1 526:1 714:1 1025:1 1130:1 1424:1 1686:1 1754:1 2381:1 2754:1 3761:1 3780:1 4730:1 4750:1 5070:1 5646:1 7210:2 7658:1 8848:1 8849:1 8850:1 8851:1 12103:1 12105:1 
0.011647691040292393 5:2 7:4 33:2 58:2 70:1 72:1 80:1 91:1 142:1 148:2 164:1 166:1 182:1 400:1 409:1 942:1 1061:1 1572:1 1967:1 2386:1 2711:1 2715:1 3041:2 3073:1 3433:1 3700:1 4105:1 4107:1 4108:1 8880:1 8881:1 8882:1 8883:1 12103:1 12105:1 
0.024032602012041281 3:4 5:2 7:6 9:3 13:4 14:2 19:3 38:1 44:2 49:3 51:4 54:2 55:1 80:5 86:3 87:1 97:1 109:2 117:1 144:2 157:1 158:1 166:2 169:1 173:1 222:2 226:1 299:1 300:1 320:1 342:1 369:1 409:1 443:1 520:1 730:3 763:1 1034:1 1076:1 1271:1 1328:1 1467:1 1545:1 1546:1 1591:1 1686:1 1913:1 2507:1 2782:1 3614:1 4071:1 4288:2 4618:2 4731:1 4748:1 4981:3 6614:1 7572:1 8146:1 8884:1 8885:1 8886:1 8887:3 8888:1 8889:1 8890:1 8891:2 8892:1 8893:1 8894:1 12103:1 12105:1 
0.01562337027973754 3:1 5:1 7:4 32:1 91:1 142:1 148:1 435:1 441:1 879:1 998:1 1416:1 1570:1 2118:1 4243:1 8907:1 8908:1 8909:1 8910:1 8911:1 12103:1 12105:1 
0.0090133173463012081 5:2 7:1 32:1 38:1 59:1 70:1 72:1 91:1 139:1 159:1 289:1 399:1 409:1 418:2 421:1 437:1 514:2 540:1 596:1 751:1 886:1 1063:1 2624:2 2897:1 3485:2 8277:1 8916:1 8917:1 8918:1 8919:1 8920:1 8921:1 12103:1 12105:1 
0.0049555919493267653 5:5 7:15 13:12 14:6 44:3 49:2 51:9 54:2 60:2 64:2 70:6 72:6 80:4 86:8 87:1 91:2 106:1 109:2 110:1 115:8 117:3 127:4 164:1 187:2 205:2 282:1 285:1 289:1 299:4 300:1 335:2 336:1 338:2 364:1 369:1 434:1 520:2 596:2 718:1 730:2 756:1 886:2 941:5 954:1 1032:1 1098:1 1103:2 1141:1 1306:1 1347:2 1500:1 1675:1 1719:1 1865:1 2011:1 2082:2 2108:1 2274:2 2450:1 2823:2 3101:1 3102:1 3314:2 3638:1 3665:1 3782:1 3864:1 4136:1 4152:1 4200:1 4213:1 4298:1 4353:1 4754:1 5254:1 5950:3 6008:1 6040:1 6062:1 6074:1 6407:1 7210:1 8026:1 8103:1 8514:3 8961:1 8962:1 8963:1 8964:1 8965:2 8966:1 8967:1 8968:1 8969:1 8970:1 8971:1 8972:2 8973:2 8974:1 8975:1 8976:1 8977:1 8978:2 8979:1 8980:1 8981:1 8982:1 8983:1 8984:3 8985:3 8986:1 8987:1 8988:1 8989:1 8990:1 8991:1 8992:1 12103:1 12105:1 
0.0048675045234244487 5:5 7:1 38:1 70:1 72:1 91:2 142:2 148:1 398:1 409:1 418:2 421:2 596:1 627:1 854:1 858:1 873:1 878:1 886:1 1677:1 1739:1 1838:1 1848:1 2634:1 2754:1 3088:1 3570:1 5928:1 6035:1 6037:1 8470:1 9006:1 9007:1 9008:1 9009:1 9010:1 9011:1 9012:1 9013:1 9014:1 9015:1 12103:1 12105:1 
0.026421786424376623 3:7 5:3 7:5 13:2 24:1 25:1 26:1 38:1 49:3 55:2 60:1 80:2 86:1 91:1 98:1 109:2 127:1 187:1 489:1 558:2 838:1 942:1 967:1 1035:1 1293:1 1348:1 1432:1 1526:1 1691:1 1871:1 1926:1 3617:1 4123:1 4420:1 4647:1 6595:1 8058:2 9064:1 9065:1 9066:1 9067:1 9068:1 9069:1 9070:2 9071:1 9072:1 9073:1 9074:1 9075:1 9076:1 9077:1 12103:1 12105:1 
0.051600562321411171 3:1 5:1 7:4 32:1 58:1 91:1 142:2 148:1 355:1 440:1 441:1 865:1 4615:1 7525:1 7705:1 9078:1 9079:1 9080:1 9081:1 9082:1 9083:1 9084:1 9085:1 9086:1 12103:1 12105:1 
0.058135666309934227 3:4 5:4 7:6 9:2 13:5 14:3 19:2 44:1 49:1 51:2 54:2 60:2 70:1 72:1 74:2 78:1 80:2 86:1 91:1 97:1 109:2 115:1 127:1 157:1 158:1 164:1 171:1 173:1 190:1 202:1 222:1 245:1 257:1 270:1 271:1 289:2 290:1 291:1 364:1 492:1 500:1 501:1 526:1 739:1 740:1 741:1 748:1 807:1 820:1 967:1 1007:1 1008:1 1107:1 1229:2 1347:1 1505:1 1729:1 1878:1 2842:1 5084:1 6338:1 7297:1 8014:1 9062:2 9087:1 9088:1 9089:1 9090:1 9091:1 9092:1 9093:1 12103:1 12105:1 
0.092457213621826476 2:1 3:2 5:1 7:2 33:1 34:1 70:1 72:1 443:2 990:1 2426:1 7319:1 9111:1 12103:1 12105:1 
0.071834966068028555 5:1 7:4 13:1 14:1 49:1 335:1 540:1 1543:1 1719:1 1809:1 3412:1 7947:1 7948:1 9132:1 12103:1 12105:1 
0.060476367033516942 3:1 5:1 7:3 14:1 70:1 72:1 91:1 94:1 109:1 127:1 177:1 187:1 257:1 342:1 834:1 4203:1 4391:1 6290:1 7652:1 8130:1 9163:1 9164:1 12103:1 12105:1 
0.03726345237899352 5:1 7:4 13:1 49:1 51:1 127:1 187:1 477:1 730:1 748:1 1247:1 2021:1 2089:1 2784:1 3070:1 6249:1 7561:1 9179:1 9180:1 9181:1 9182:1 12103:1 12105:1 
0.11784726463403793 3:1 5:1 7:1 1300:1 1459:1 2438:1 5747:1 9225:1 12103:1 12107:1 
0.015149528931088545 5:2 7:1 32:3 38:1 58:1 148:5 165:1 418:1 421:1 584:1 585:1 586:1 587:1 588:1 589:1 590:1 591:1 592:1 594:1 595:1 596:1 597:1 598:1 599:1 600:1 601:1 602:1 603:1 604:1 606:1 607:1 608:1 3349:1 4044:1 4046:1 12103:1 12105:1 
0.35153196043050455 5:1 1767:1 12103:1 12106:1 
0.003279686042759676 3:1 5:2 7:3 13:1 49:2 51:1 70:1 72:1 80:2 86:1 91:1 115:1 122:1 342:1 514:1 575:1 716:1 854:1 1002:1 2295:1 2535:1 3614:1 4618:1 9331:1 9332:1 9333:1 9334:1 9335:1 9336:1 12103:1 12105:1 
0.010032600073459526 5:2 7:2 13:1 14:1 20:1 24:1 25:1 26:1 187:1 683:1 1761:1 9401:1 9402:1 12103:1 12105:1 
0.067724948450111802 3:1 5:1 7:4 13:2 14:1 55:1 86:1 87:1 91:1 114:1 284:1 342:1 529:1 795:1 1563:1 1741:1 1792:1 2370:1 2624:1 3383:1 4395:1 4638:1 7928:1 9403:1 9404:1 9405:1 12103:1 12105:1 
0.010150272729509809 3:2 5:1 7:5 9:2 19:2 49:2 54:1 55:1 117:3 137:1 157:1 158:1 245:1 340:1 342:1 355:1 430:1 1137:1 1983:1 2014:1 2169:1 2689:1 2820:1 4796:1 5424:1 8887:1 9430:1 9431:1 9432:1 12103:1 12105:1 
0.03857795849812997 2:1 5:3 7:6 14:1 44:1 54:1 70:1 80:2 82:1 127:1 137:1 142:1 166:1 173:2 177:1 183:1 200:1 217:2 222:1 288:1 307:1 374:1 502:1 892:1 967:1 1107:1 1427:1 1511:1 1903:1 1911:1 2010:1 2021:1 2519:1 3191:1 3432:1 3903:1 4739:1 6925:1 6987:1 7134:1 9433:1 9434:1 9435:1 9436:1 9437:1 9438:1 9439:1 9440:1 9441:1 9442:1 9443:1 12103:1 12105:1 
0.46219102576062976 5:1 1261:1 12103:1 12106:1 
0.055347821530303133 5:3 13:1 49:1 51:2 64:1 70:1 72:1 86:1 91:1 109:2 115:1 117:1 122:1 205:1 229:1 255:1 299:1 751:1 808:1 1137:1 1464:1 1939:2 2154:1 2275:1 2752:2 3038:1 3780:1 4213:1 4345:1 4794:1 5417:1 9530:1 9531:1 9532:1 9533:1 9534:1 9535:1 9536:1 12103:1 12105:1 
0.2192234130836824 5:5 7:3 23:1 32:1 36:1 70:1 72:1 142:1 148:1 164:1 394:1 409:1 418:1 421:1 459:1 1050:1 2197:1 2198:1 2634:1 3040:1 3344:1 8470:1 8859:1 8860:1 8861:1 8862:1 8863:1 8864:1 8865:1 8867:1 12103:1 12105:1 
0.001577794871648066 5:5 7:10 9:1 13:7 14:5 19:1 44:1 49:3 51:3 54:2 55:2 60:1 70:4 71:1 72:4 74:1 80:3 100:1 109:1 114:2 117:3 122:1 127:2 130:1 142:1 164:1 173:4 200:1 247:1 257:1 303:1 304:1 332:1 342:1 364:1 369:1 471:1 522:1 528:1 533:1 812:1 825:1 1073:1 1103:1 1229:1 1340:1 1459:1 1662:1 1702:1 1812:1 1893:1 1930:2 2589:1 2789:1 3025:1 3087:1 3224:1 3314:1 3402:1 3492:1 3814:1 4263:1 4298:1 4299:1 4300:1 4302:1 4307:1 4495:1 4971:1 5519:1 6043:1 6252:2 6587:1 7058:1 7983:1 8045:1 8218:1 9098:1 9102:1 9493:1 9559:1 9560:1 9561:1 9562:1 9563:1 9564:1 9565:1 9566:1 9567:1 9568:1 9569:1 9570:1 9571:1 9572:1 9573:1 9574:1 9575:2 9576:1 9577:1 9578:1 9579:1 9580:1 9581:1 9582:1 9583:1 9584:1 9585:1 9586:1 9587:1 9588:1 9589:1 12103:1 12105:1 
0.010489424806098482 5:1 7:4 13:1 44:1 49:1 51:1 54:1 70:1 72:1 80:2 86:4 109:1 139:1 173:1 187:1 265:1 514:1 748:1 854:1 1960:1 2089:2 2094:1 3070:1 3112:1 3129:1 3136:1 3372:1 3453:1 9590:1 9591:1 9592:1 12103:1 12105:1 
1 5:1 1261:1 12103:1 12106:1 
0.011824542677764774 3:1 5:1 7:5 32:1 58:1 91:1 289:1 440:1 441:1 879:1 998:1 1119:1 1555:1 1792:1 4276:1 5268:1 9469:1 9656:1 9657:1 9658:1 9659:1 9660:1 9661:1 9662:1 9663:1 12103:1 12105:1 
0.016013659851794423 5:1 7:4 58:2 80:1 106:1 107:1 435:1 440:1 441:1 445:1 567:1 1438:2 1746:1 2973:1 3370:1 7587:1 9664:1 9665:1 9666:1 9667:1 9668:1 12103:1 12105:1 
0.055904884716221723 3:1 5:3 7:4 9:2 13:6 14:3 19:1 44:2 48:1 51:1 54:1 80:2 94:1 117:1 127:1 164:1 173:1 183:1 260:1 332:1 333:1 492:1 553:1 694:1 954:1 990:1 1107:1 1455:1 1983:1 2047:1 2601:1 3207:1 5893:1 9710:1 9711:1 9712:1 9713:1 9714:1 9715:1 9716:1 12103:1 12105:1 
0.0013696597140172432 5:2 7:5 13:3 38:1 86:1 109:1 115:1 360:1 362:1 387:1 738:1 1107:1 1416:1 1837:1 2775:1 2791:1 2795:1 2818:1 2823:1 2828:1 2832:1 3160:1 3165:1 4508:1 9544:1 9731:1 9732:1 9733:1 9734:1 9735:1 9736:1 12103:1 12105:1 
0.0065950664600436006 5:2 7:4 70:1 72:1 91:1 394:1 409:1 423:1 435:1 441:1 878:1 1677:1 1685:1 2305:1 2386:1 4650:1 9009:1 9812:1 9813:1 9814:1 9815:1 9816:1 9817:1 9818:1 12103:1 12105:1 
0.16661436654955855 5:3 7:1 36:1 38:1 477:1 1689:1 3454:1 12103:1 12105:1 
0.01557147252426774 3:2 5:2 7:4 9:1 19:1 32:1 58:1 91:1 160:1 206:1 409:1 438:1 439:1 560:1 630:1 917:1 921:1 923:1 2386:1 5438:1 9904:1 9905:1 9906:1 9907:1 9908:1 9909:1 12103:1 12105:1 
0.021018973953162549 5:5 7:10 13:4 14:2 37:1 44:1 51:5 87:1 109:1 117:1 173:2 199:1 245:1 289:2 298:1 300:2 364:2 520:2 526:1 679:1 713:1 829:1 945:1 967:1 1342:1 1348:1 1820:2 3111:1 3392:1 3591:1 3938:1 4354:1 4518:1 4977:1 5056:1 8931:1 9160:2 9918:1 9919:1 9920:2 9921:3 9922:1 9923:1 9924:1 9925:1 9926:1 9927:1 9928:1 12103:1 12105:1 
0.0071025826104970241 3:2 5:3 7:4 13:4 14:1 24:1 25:1 26:1 44:1 80:1 86:1 91:1 106:1 117:1 173:1 195:1 200:1 333:1 398:1 522:1 558:2 739:1 740:1 797:1 806:1 925:1 1141:1 1347:1 1808:1 1856:1 1868:1 2406:1 3424:1 4065:1 9933:1 9934:1 9935:1 9936:1 9937:1 12103:1 12105:1 
0.064084250040565102 5:2 7:2 9:1 19:1 38:1 55:1 106:1 122:1 4078:1 6621:1 8420:1 9975:1 9976:1 12103:1 12105:1 
0.040410451099563871 5:1 7:4 13:1 51:1 55:1 60:1 127:1 177:1 1809:1 7183:1 8109:1 10039:1 10040:1 10041:1 10042:1 10043:1 12103:1 12105:1 
0.003019231898944273 5:1 7:5 49:1 70:1 72:1 127:1 662:1 751:1 1405:2 1406:2 2011:1 3886:1 8127:1 8563:1 10035:1 10044:1 10045:1 10046:1 10047:1 10048:1 10049:1 12103:1 12105:1 
0.083169817313364383 5:1 7:5 32:1 58:1 94:1 140:1 148:1 435:1 599:1 1306:1 1437:1 1572:1 2850:1 3886:1 4024:1 4721:1 9627:1 10051:1 10052:1 10053:1 12103:1 12105:1 
0.0085093525924092913 5:1 7:3 33:1 38:1 70:1 72:1 91:1 305:1 409:1 1311:1 1967:1 2386:1 2715:1 3041:1 3042:1 3043:1 3073:1 3205:1 3700:1 4105:1 4107:1 4108:1 12103:1 12105:1 
0.14557959356035932 5:1 7:2 80:2 82:1 595:1 1505:1 1815:1 1850:2 3040:1 4472:1 12103:1 12105:1 
0.052265896662601126 3:1 5:1 7:5 9:1 19:1 38:1 80:1 338:1 457:1 533:1 534:1 536:1 537:1 538:1 991:1 1812:1 3201:1 4159:1 5723:1 7172:1 12103:1 12105:1 
6.5210837365638635e-06 3:1 5:2 7:4 9:2 14:2 19:2 44:2 49:2 58:1 70:1 72:1 80:1 86:1 91:2 109:1 115:1 117:1 139:1 162:1 245:1 305:1 430:1 494:2 632:1 1348:1 1458:1 1719:1 1724:1 1741:2 2281:1 3912:1 4966:1 9673:1 9674:1 9675:1 9690:1 9866:1 10225:1 10226:1 10227:1 10228:1 10229:1 10230:1 12103:1 12105:1 
0.053885523212279254 5:5 7:1 38:1 584:1 592:1 689:1 1794:1 1795:1 1796:1 12103:1 12105:1 
0.0064969678984735726 5:1 7:5 13:1 14:1 49:1 51:1 64:1 80:1 87:1 109:1 177:1 265:1 270:1 271:1 945:1 2074:1 2075:1 2076:1 2077:1 2081:1 2543:1 2586:1 4394:1 5644:1 10296:1 10297:1 10298:1 12103:1 12105:1 
0.050357232886323718 5:1 7:2 38:1 117:2 1012:1 2736:1 3404:1 3763:1 4669:1 5324:1 12103:1 12105:1 
0.0051359663749206098 5:4 7:5 13:3 14:2 70:1 72:1 127:1 152:1 177:1 187:1 342:1 639:1 677:1 2524:1 3691:1 4391:1 4966:1 5898:1 6459:1 6460:1 10303:1 10304:1 10305:1 10306:1 12103:1 12105:1 
0.019986644444709635 3:1 5:1 7:6 9:1 19:1 38:1 49:1 54:1 80:1 87:1 109:1 117:1 198:1 627:1 1477:1 1671:1 1739:1 2212:1 2561:1 2586:1 4439:1 4565:1 5857:1 10315:1 10316:1 10317:1 10318:1 12103:1 12105:1 
0.046106847407840879 5:2 7:4 13:2 14:1 44:1 51:1 86:1 115:1 177:1 299:1 486:1 502:1 714:1 767:1 1705:1 2451:1 2599:1 3617:1 3842:1 4634:1 7294:1 7931:1 9720:1 10344:1 12103:1 12105:1 
0.033555440973636885 5:2 7:4 80:2 164:1 166:3 418:1 421:1 567:1 597:1 1430:1 1678:1 1679:2 1681:1 1685:2 2296:1 2297:1 2298:2 2300:1 2735:1 5311:1 12103:1 12105:1 
0.016137709803109346 5:2 7:3 91:1 142:1 148:1 164:1 166:2 418:1 421:1 858:1 873:1 878:1 1677:1 4435:1 7100:1 7994:1 10351:1 10352:1 10353:1 10354:1 12103:1 12105:1 
0.094935213024835083 5:1 7:4 49:1 177:1 1416:1 1739:1 2289:1 3555:1 4490:1 10367:1 10368:1 10369:1 12103:1 12105:1 
0.031361388657378593 5:1 7:5 49:1 58:1 91:1 142:1 148:1 160:1 879:1 997:1 998:1 2979:1 4280:1 4285:1 6560:1 8119:1 9414:1 9667:1 9668:1 10405:1 10406:1 10407:1 12103:1 12105:1 
0.0061391300542506669 5:3 7:6 13:5 14:1 49:3 51:2 60:1 80:1 86:1 87:1 164:1 173:2 177:1 288:1 364:1 526:2 679:1 794:1 823:1 824:1 1032:1 1098:1 1348:1 1667:1 2010:1 2011:1 2108:1 2218:1 2246:1 2275:1 2302:1 2657:1 3019:1 3064:1 3458:1 3822:1 4971:1 7097:1 9719:1 10443:1 10444:1 10445:1 10446:1 10447:1 10448:1 10449:1 10450:1 10451:1 10452:1 10453:1 10454:1 12103:1 12105:1 
0.0075537934380199446 3:1 5:1 7:2 13:1 38:1 127:1 223:1 375:1 376:1 377:1 802:1 1297:1 2736:1 5344:1 12103:1 12105:1 
0.037161939880819027 5:2 7:4 9:1 13:5 19:1 25:1 26:1 54:1 80:1 97:1 106:1 681:1 1415:1 3066:1 3067:1 4320:1 10541:1 10542:1 10543:1 10544:1 12103:1 12105:1 
0.075020466105352304 5:2 7:2 70:1 72:1 91:1 142:1 148:1 1107:1 1114:1 1573:1 1967:1 3437:1 3467:1 3474:1 3505:1 3511:1 3684:1 9796:1 10745:1 10746:1 12103:1 12105:1 
0.013547360617757154 3:4 5:6 7:6 9:1 13:5 14:2 19:1 26:1 38:1 44:3 49:1 51:5 55:1 60:1 86:4 87:1 114:2 115:1 127:1 128:1 129:1 173:5 195:1 205:1 299:1 310:2 365:1 369:1 394:1 526:1 547:1 643:1 679:2 730:1 802:1 829:1 845:1 942:1 1076:1 1103:1 1343:1 1591:1 2154:1 2169:1 2345:1 2390:1 2440:1 2500:1 2594:1 3594:1 3598:1 3599:1 3614:3 3840:1 4213:1 4536:1 4635:1 4788:1 5907:1 5970:1 6163:1 6167:1 6230:1 6817:1 8357:1 10747:1 10748:1 10749:1 10750:1 10751:1 10752:1 10753:1 10754:1 10755:1 10756:1 10757:1 10758:1 12103:1 12105:1 
0.27407772350661574 3:1 5:1 7:1 106:1 927:1 940:1 1085:1 2164:1 3944:1 12103:1 12107:1 
0.15684498913996955 5:1 7:1 13:1 14:2 44:1 70:1 72:1 117:1 173:1 180:1 205:1 252:1 299:1 335:1 1103:1 2454:1 6170:1 6285:1 6877:1 10771:1 10772:1 10773:1 10774:1 10775:1 10776:1 10777:1 12103:1 12105:1 
0.047460594815013919 3:2 5:3 7:1 13:4 37:1 51:1 54:1 64:1 70:2 71:1 72:2 80:6 91:1 106:1 109:1 115:1 127:1 173:1 177:1 271:1 310:1 387:1 509:1 738:1 1076:1 1741:1 2815:1 3691:1 3773:1 3786:1 3882:1 3965:1 4395:1 6776:1 10798:1 10799:1 10800:1 10801:1 10802:1 10803:1 10804:1 10805:1 10806:1 10807:1 10808:1 12103:1 12105:1 
0.044261989901007506 5:4 7:1 36:1 164:1 166:1 477:1 1689:1 7153:1 7365:1 12103:1 12105:1 
0.3682080840336161 5:1 7:1 38:1 80:1 631:1 5127:1 10286:1 10290:1 12103:1 12105:1 
0.005336738902132895 3:3 5:1 7:6 9:1 13:1 14:1 19:1 86:4 89:1 91:1 109:1 117:1 187:1 222:2 298:1 299:1 303:1 409:1 1076:1 1271:1 1416:1 2083:1 2172:1 2417:1 2689:2 2823:1 4391:1 4617:1 4618:2 4730:1 4974:1 5102:1 5197:1 5466:1 6576:1 8146:1 8891:1 10819:1 10820:1 10821:1 10822:1 10823:1 10824:1 10825:1 12103:1 12105:1 
0.014952070747192032 5:1 7:5 32:2 115:1 130:1 137:1 142:1 289:1 455:1 514:1 540:1 1063:1 1950:1 2522:1 4907:1 7642:2 9004:1 9397:1 9867:1 10812:1 10843:1 10844:1 10845:2 10846:1 10847:1 10848:1 12103:1 12105:1 
0.0034556200486913712 5:2 7:2 13:1 24:1 51:1 109:1 128:1 129:1 342:1 1397:1 1398:1 1399:1 1400:1 1401:1 8125:1 12103:1 12105:1 
0.034567253898289886 3:2 5:1 7:5 13:2 49:1 55:1 86:1 91:1 157:1 158:1 173:1 187:1 299:1 335:2 364:1 526:2 613:1 651:1 670:1 789:1 802:1 810:1 812:1 955:1 1097:1 1347:2 1526:1 2160:1 2540:1 4971:1 6269:1 10891:1 10892:1 10893:1 10894:1 10895:1 10896:1 10897:1 12103:1 12105:1 
0.014320675381154847 3:3 5:3 7:4 9:1 13:2 14:2 19:1 38:1 44:2 51:1 128:1 129:1 205:1 394:1 457:1 477:1 530:1 546:1 582:1 730:1 800:1 1837:1 4903:1 4961:1 6596:1 7959:1 9695:1 10921:1 12103:1 12105:1 
0.012276754791668171 5:1 7:5 9:1 13:1 19:1 49:1 117:1 157:1 158:1 470:1 956:1 1555:1 2286:1 2561:1 2586:1 2689:1 3909:1 4288:1 4675:1 5096:1 10930:1 10931:1 10932:1 10933:1 10934:1 12103:1 12105:1 
0.15745383810310382 2:1 5:1 7:2 13:1 34:1 55:1 80:1 452:1 477:1 870:1 1107:1 2841:1 4015:1 4739:1 12103:1 12105:1 
0.069298559952988753 7:4 127:1 428:1 494:1 4714:1 4715:1 6752:1 11147:1 11148:1 11149:1 12103:1 12105:1 
0.037286323725885064 5:1 7:3 38:1 2419:1 2420:1 2421:1 4629:1 12103:1 12105:1 
0.023072729887798082 5:1 7:4 13:1 49:1 80:5 355:1 418:1 421:1 477:1 784:1 973:1 1410:2 1755:2 1756:2 2011:1 2811:1 3548:1 4271:2 8475:1 10105:1 11204:1 11205:1 11206:1 11207:1 11208:1 12103:1 12105:1 
0.023874715897111109 3:11 5:5 7:5 9:1 13:2 19:1 24:1 44:7 51:2 55:2 86:1 87:1 91:1 106:1 109:1 114:4 117:4 130:1 187:2 205:1 342:1 398:1 496:1 522:1 560:1 679:1 730:1 789:1 790:2 801:2 806:1 808:1 838:1 841:1 967:1 1018:1 1064:1 1103:2 1125:1 1665:1 1837:1 2728:1 2822:1 3160:1 3309:1 3477:1 3975:1 4064:1 5247:1 5258:1 5298:1 5398:1 5462:1 5653:1 6953:1 7517:5 7782:1 7837:1 9094:1 11238:1 11239:1 11240:1 11241:2 11242:1 11243:1 11244:1 11245:1 11246:1 11247:1 11248:1 11249:1 11250:1 11251:1 11252:1 12103:1 12105:1 
0.022029302924869164 3:2 5:4 7:5 9:1 14:1 19:1 24:1 26:1 29:1 49:3 82:1 127:1 142:1 181:1 217:2 500:1 535:1 1139:1 1427:1 2010:1 2253:1 2284:1 4244:1 10278:1 10950:1 11273:1 11274:1 12103:1 12105:1 
0.02816930104841462 3:1 5:1 7:4 9:1 13:3 14:1 19:1 38:1 44:2 51:1 54:1 60:1 86:1 109:1 682:1 683:1 684:1 685:1 686:1 687:1 688:2 2650:1 4269:1 9270:1 9271:1 9272:1 9273:1 11158:1 11319:1 12103:1 12105:1 
0.13975128782589397 5:2 7:3 14:1 187:1 205:1 428:1 1774:1 1775:1 1913:1 4963:1 4964:1 12103:1 12105:1 
0.0050213079256645416 5:3 7:3 44:1 70:1 71:1 72:1 86:1 117:1 238:1 541:1 1340:1 1461:1 1719:1 2689:1 8422:1 10230:1 11356:1 12103:1 12105:1 
0.0044229537889385242 5:2 7:3 9:1 14:1 19:1 38:1 49:1 51:1 54:1 70:2 72:2 80:2 86:1 87:1 117:1 127:1 217:1 270:1 271:1 307:1 388:1 498:1 769:1 804:1 858:1 1052:1 1107:1 1427:1 1979:1 2010:1 2286:1 3085:1 5305:1 6199:1 6431:1 7358:1 9434:1 9436:1 10279:1 10950:1 12103:1 12105:1 
0.017448637942058032 3:5 5:2 7:5 9:3 13:4 14:5 19:3 44:2 49:1 55:3 60:1 70:2 72:2 80:1 86:1 117:1 173:2 205:2 223:1 287:2 339:1 364:1 564:1 713:1 714:1 802:1 923:1 1011:1 1103:1 1137:1 1225:1 1323:1 1580:1 1766:1 1788:1 1920:3 1927:1 3714:1 3841:1 4116:1 4560:1 4964:1 5747:2 5748:1 6136:1 7498:1 8161:2 9025:1 10389:1 11428:1 11429:1 11430:1 11431:1 11432:1 11433:1 11434:1 11435:1 11436:1 11437:1 11438:1 11439:1 11440:1 11441:1 11442:1 11443:1 11444:1 12103:1 12105:1 
0.047331749463599859 7:4 9:1 13:2 14:2 19:1 44:1 55:1 70:1 80:1 97:1 114:1 115:1 187:1 222:1 223:1 540:2 560:1 751:1 763:1 816:1 1273:1 4049:1 6425:1 7545:1 8042:1 9342:1 9502:1 11476:1 12103:1 12105:1 
0.011540811585761345 5:4 7:9 9:1 13:5 19:1 44:1 51:1 55:1 80:2 86:1 94:1 109:1 115:1 117:3 127:1 137:1 173:2 187:1 287:1 299:1 303:1 338:1 345:1 346:1 369:1 430:1 493:1 496:1 622:1 730:2 802:1 1103:1 1310:1 1468:1 2108:1 2137:2 2393:2 2395:1 2405:1 2417:1 2650:1 2823:1 3249:1 4736:1 5051:1 5552:1 5556:1 5646:1 5736:1 5739:1 5932:1 6041:1 6076:1 6158:1 6160:1 6199:1 7038:1 8777:1 9503:1 11514:1 11515:2 11516:1 11517:1 11518:1 11519:1 11520:1 11521:1 11522:1 11523:1 11524:1 12103:1 12105:1 
0.012612968791776114 5:2 7:3 13:1 24:1 25:1 26:1 38:1 79:1 2010:1 2218:1 2246:1 3064:1 12103:1 12105:1 
0.0050066245463667256 5:2 7:1 49:1 98:1 128:1 129:1 1266:1 7988:1 7989:1 12103:1 12105:1 
0.055489783369772366 5:1 7:2 13:1 38:1 51:1 127:1 375:1 376:1 377:1 379:1 580:1 687:1 12103:1 12105:1 
0.037109293875680661 5:3 7:3 13:1 14:1 38:1 54:1 55:1 60:1 80:1 86:2 115:1 127:1 152:1 157:1 158:1 188:1 309:1 387:1 502:1 572:1 708:1 748:1 801:1 851:1 1427:1 1736:1 2654:1 2984:1 3931:1 10488:1 10489:1 12103:1 12105:1 
0.054168822504468639 5:2 7:2 80:1 164:1 986:1 1678:1 1679:2 1681:1 2297:1 9730:1 12103:1 12105:1 
0.046431022301763755 3:2 5:1 7:3 9:1 13:2 14:2 19:1 44:1 78:1 80:1 134:1 157:1 158:1 305:1 364:1 558:1 679:1 806:1 1103:1 1134:1 1332:1 1768:1 2269:1 7479:1 8453:1 11750:1 11751:1 12103:1 12105:1 
0.03766921687970802 5:2 7:4 13:2 14:1 29:1 49:1 78:1 80:1 86:2 106:1 117:1 310:1 483:1 484:1 485:1 486:1 1273:1 2666:1 3723:1 4634:1 5451:1 5855:1 6400:1 6414:1 11752:1 11753:1 12103:1 12105:1 
1 5:1 1767:1 12103:1 12106:1 
0.040017864403878896 3:5 5:2 7:3 9:2 13:5 14:2 19:2 44:3 49:1 51:2 55:1 70:1 72:1 80:3 86:3 87:2 91:1 106:1 109:1 114:2 173:1 180:2 299:1 335:2 418:1 421:1 526:3 679:1 723:1 745:1 894:1 1098:1 1104:1 1137:1 1141:1 1323:1 1327:1 1347:1 1348:1 2021:1 2154:1 2275:1 2454:1 2567:1 3162:1 3634:1 3780:1 4051:2 4213:1 4526:1 5420:1 5443:1 5483:1 6078:2 8530:2 9501:1 10008:1 11014:1 11053:2 11064:1 11065:1 11810:2 11811:1 11812:1 11813:1 11814:1 11815:1 11816:1 11817:1 11818:1 12103:1 12105:1 
0.10645907598271087 5:1 7:2 9:1 19:1 38:1 60:1 70:1 72:1 87:1 152:1 285:1 332:1 767:1 844:1 1103:1 1348:1 2390:1 8552:1 10596:1 11014:1 11036:1 11833:1 12103:1 12105:1 
0.045004623470674715 3:1 5:1 7:2 32:1 38:1 70:1 72:1 80:1 91:1 166:1 402:1 879:1 998:1 1309:1 2709:1 2717:1 3135:1 3454:1 3467:2 4614:1 4615:1 5309:1 11834:1 12103:1 12105:1 
0.003825352746715176 3:4 5:5 7:8 13:4 14:2 38:2 49:5 51:4 60:1 70:2 72:2 78:1 109:1 115:1 122:1 127:5 171:1 173:1 202:1 205:1 238:1 247:3 274:1 287:1 299:2 342:1 345:1 346:1 352:1 353:1 357:1 358:1 362:1 368:2 371:4 374:1 487:1 736:1 802:2 947:1 990:1 1103:1 2006:1 2088:1 2104:3 2402:1 2403:4 2443:1 2650:1 2831:1 2881:1 3160:1 3307:1 3596:1 3763:1 3918:1 4655:1 5407:2 5736:1 6471:1 9167:1 9526:1 10528:1 11247:2 11867:1 11868:1 11869:1 11870:1 11871:1 11872:1 11873:1 11874:1 11875:1 12103:1 12105:1 
0.0010100825240112841 5:3 7:12 9:1 13:5 14:5 19:1 38:1 44:2 49:2 54:2 55:3 70:3 72:3 80:2 86:4 109:1 115:3 117:1 122:1 124:1 127:1 133:1 173:2 199:2 260:1 270:2 364:1 387:2 443:1 452:1 457:1 496:1 508:1 751:1 829:1 974:2 1094:1 1103:1 1323:1 1334:1 1346:1 1347:1 1463:1 1581:1 1602:1 2021:1 2132:1 2275:1 2657:1 3003:1 3637:1 4516:1 5155:1 5179:1 5415:1 5975:1 6041:1 7009:1 7027:1 7287:1 7495:1 8025:1 11668:1 11907:1 11908:1 11909:1 11910:1 11911:1 11912:1 11913:1 11914:1 11915:1 11916:1 11917:1 11918:1 11919:1 11920:1 11921:1 11922:1 11923:1 11924:1 11925:1 11926:1 11927:1 11928:1 11929:1 11930:1 11931:1 11932:1 11933:1 11934:1 11935:1 12103:1 12105:1 
0.12870094221728864 3:1 5:1 80:1 107:1 109:1 127:3 157:1 158:1 614:1 627:1 751:2 833:1 4792:1 6451:1 11958:1 12103:1 12107:1 
0.09758837630371929 3:2 7:2 9:1 19:1 49:1 80:1 91:1 97:1 98:1 114:1 124:1 160:1 173:1 1273:1 1288:1 4269:1 9864:1 11348:1 11959:1 11960:1 11961:1 12103:1 12105:1 
0.0076335465754532022 3:2 5:4 7:8 9:2 13:1 14:3 19:2 51:3 54:2 55:3 74:1 80:1 86:3 91:1 117:4 142:1 162:2 173:2 205:2 298:1 299:1 342:1 345:2 357:1 358:1 364:1 369:2 439:1 440:1 603:1 784:1 801:1 803:1 916:1 1032:1 1103:1 1347:1 1704:1 1733:1 1913:1 1922:1 2154:1 2393:1 2443:1 2567:1 2823:2 3362:1 3417:1 3650:1 3741:1 4030:1 4127:1 4169:2 4492:1 4710:1 4971:1 4974:1 5075:1 5327:1 5450:1 5721:2 5833:1 6201:1 6892:1 6943:2 7627:1 7643:1 7644:1 8004:1 9078:2 10576:1 10879:1 12013:2 12014:1 12015:1 12016:1 12017:1 12018:1 12019:1 12020:1 12021:1 12022:1 12023:1 12103:1 12105:1 
0.063175254948893117 3:1 5:1 7:5 9:1 19:1 38:1 80:1 127:1 477:1 569:1 691:1 702:1 1076:1 1099:1 1477:1 3202:1 4569:1 12024:1 12103:1 12105:1 
0.009092485488013731 5:1 7:5 9:1 13:2 19:1 49:2 51:1 60:1 80:2 86:1 91:1 109:1 117:1 157:1 158:1 245:1 342:1 417:1 481:1 738:1 747:1 807:1 1107:1 1137:1 1306:1 1401:2 1402:2 1421:1 1544:1 1824:1 9716:1 12047:1 12048:1 12049:1 12050:1 12051:1 12052:1 12103:1 12105:1 
0.055111274157945971 3:1 5:1 7:3 70:1 72:1 91:1 109:1 238:1 243:1 289:1 420:1 435:1 440:1 441:1 631:1 1438:1 1724:1 7492:1 9355:1 12056:1 12057:1 12058:1 12059:1 12060:1 12103:1 12105:1 
0.18716238438062707 5:2 7:1 9:1 13:3 14:3 19:1 64:1 70:1 72:1 124:1 205:1 631:1 1107:1 1700:1 2586:1 3911:1 4101:1 4493:1 4494:1 6672:1 10167:1 10339:1 11401:1 12103:1 12105:1 
-0.039334314400199868 3:1 5:1 7:3 13:2 14:1 55:1 70:1 72:1 86:1 91:1 127:1 173:1 294:1 295:1 296:1 297:1 298:1 299:1 300:1 301:1 302:1 303:1 304:1 305:1 306:1 307:1 308:1 309:1 310:1 311:1 312:1 12103:1 12105:1 
-0.0121741731195081 5:2 7:1 13:2 51:1 64:1 86:1 109:1 329:1 330:1 331:1 332:1 333:1 334:1 335:1 336:2 337:1 338:1 339:1 340:1 341:1 12103:1 12105:1 
-0.0023272236820268085 5:1 7:3 13:3 14:1 49:2 51:2 55:1 60:1 64:1 70:1 72:1 78:2 80:2 117:1 122:1 127:1 173:2 195:1 238:1 255:1 342:1 343:1 344:1 345:1 346:1 347:1 348:1 349:1 350:1 351:1 352:1 353:1 354:1 355:2 356:1 357:1 358:1 359:1 360:1 361:1 362:1 363:1 364:1 365:1 366:1 367:1 368:1 369:1 370:1 371:1 372:1 373:1 374:1 12103:1 12105:1 
-0.044560582475346493 5:2 7:4 128:1 166:1 285:1 474:1 475:1 476:1 477:1 478:1 479:1 480:1 481:1 482:1 12103:1 12105:1 
-0.13781609999113889 5:3 7:2 157:1 158:1 500:1 501:1 502:1 503:1 504:1 12103:1 12105:1 
-0.0053058760299683067 3:4 5:1 7:1 9:2 13:2 14:1 19:2 51:1 54:1 55:1 60:1 70:1 72:1 127:1 310:1 505:1 506:1 507:1 508:1 509:1 510:1 511:1 512:1 513:1 12103:1 12105:1 
-0.5312305800564866 5:1 561:1 12103:1 12106:1 
-0.0099754500033686962 7:4 13:1 49:1 51:6 54:1 60:1 70:3 72:3 86:1 109:2 114:1 117:1 137:1 173:1 203:1 205:1 522:1 717:1 718:1 719:1 720:1 721:1 722:2 723:2 724:1 725:1 726:1 727:1 728:1 729:1 730:2 731:1 732:1 733:1 734:1 735:1 736:1 737:1 738:1 12103:1 12105:1 
-0.0045270120704137334 5:2 7:3 13:5 14:1 44:2 49:2 51:1 54:1 55:1 70:2 72:2 86:1 106:1 117:4 173:1 177:1 259:1 270:2 369:1 481:1 672:1 967:1 1005:1 1006:1 1007:1 1008:1 1009:1 1010:1 1011:1 1012:1 1013:2 1014:1 1015:1 1016:1 1017:1 1018:1 1019:1 1020:1 1021:1 1022:1 1023:1 1024:1 1025:1 1026:1 1027:1 1028:1 1029:1 1030:1 1031:1 1032:1 1033:1 1034:1 1035:1 1036:1 12103:1 12105:1 
-0.026133982529216473 5:1 7:1 80:1 148:1 289:1 435:1 596:1 886:1 896:1 1057:1 1058:2 1059:1 1060:1 1061:1 1062:3 1063:2 1064:1 1065:1 1066:1 1067:1 1068:1 1069:1 1070:1 12103:1 12105:1 
-0.0339140600307953 5:2 7:4 13:2 14:2 49:1 55:1 60:1 86:1 115:1 127:1 245:1 289:1 299:1 335:1 338:1 376:1 516:1 1087:1 1088:1 1089:1 1090:2 1091:1 1092:1 1093:1 1094:1 1095:1 1096:1 1097:1 1098:1 1099:1 1100:1 1101:1 1102:1 1103:1 1104:1 1105:1 1106:1 12103:1 12105:1 
-0.0038714779387640213 3:4 7:1 13:3 14:3 44:1 49:2 55:3 60:1 64:1 80:5 87:1 91:1 109:1 114:1 115:1 173:2 247:1 289:1 305:2 338:1 491:3 522:1 526:1 558:3 730:1 818:1 838:1 955:1 1035:1 1123:1 1124:1 1125:1 1126:1 1127:1 1128:1 1129:1 1130:2 1131:2 1132:1 1133:1 1134:1 1135:1 1136:1 1137:1 1138:1 1139:1 1140:1 1141:1 1142:1 1143:1 1144:1 1145:1 1146:1 12103:1 12105:1 
-0.0092748479127352495 5:3 7:6 409:2 1148:1 1149:1 1150:1 1151:3 1152:2 1153:3 1154:3 1155:1 1156:1 1157:1 1158:1 1159:1 1160:1 1161:1 1162:1 1163:1 1164:1 1165:2 1166:1 1167:2 1168:1 1169:2 1170:4 1171:4 1172:1 1173:1 1174:1 1175:1 1176:1 1177:1 1178:2 1179:1 1180:1 1181:1 1182:1 1183:1 1184:1 1185:1 1186:4 1187:1 1188:2 1189:1 1190:1 1191:1 1192:1 1193:1 1194:1 1195:1 1196:1 1197:1 1198:1 1199:1 1200:1 1201:1 1202:1 1203:1 1204:2 1205:1 1206:1 1207:1 1208:1 1209:1 1210:1 1211:2 1212:1 1213:1 1214:1 1215:1 1216:1 1217:1 1218:1 1219:1 1220:1 1221:1 1222:1 1223:1 1224:1 12103:1 12105:1 
-0.054437185574770605 3:3 5:3 7:4 9:1 13:1 19:1 49:1 55:1 82:1 86:1 87:1 98:1 114:1 173:1 235:1 270:1 274:1 289:1 477:1 1103:1 1345:1 1417:2 1418:1 1419:1 1420:1 1421:1 1422:1 1423:1 1424:1 1425:1 1426:1 1427:1 1428:1 1429:1 1430:1 1431:1 12103:1 12105:1 
-0.17662710177510982 3:1 5:2 7:3 13:2 38:1 51:1 142:1 342:1 798:1 1147:1 1225:1 1511:1 1512:1 1513:1 1514:1 1515:1 1516:1 1517:1 1518:1 1519:1 1520:1 12103:1 12105:1 
-0.018833326304566262 3:3 5:1 7:1 13:1 70:1 72:1 91:2 117:1 127:1 205:1 546:1 560:1 852:1 973:1 1521:1 1522:1 1523:1 1524:1 1525:1 1526:1 1527:1 1528:1 1529:1 1530:1 1531:1 12103:1 12105:1 
-0.055010486117351175 3:2 5:5 7:9 9:4 13:2 14:4 19:4 32:1 44:3 49:1 51:2 54:1 64:1 70:1 72:1 80:4 106:1 130:1 142:1 164:1 173:2 187:1 198:1 246:1 299:2 307:1 338:1 398:1 402:1 522:1 538:1 630:1 679:1 730:1 1099:2 1318:1 1323:1 1328:1 1568:1 1569:1 1570:1 1571:1 1572:1 1573:1 1574:1 1575:1 1576:1 1577:1 1578:4 1579:1 1580:1 1581:1 1582:1 1583:1 1584:1 1585:1 1586:1 1587:2 1588:1 1589:1 1590:1 1591:1 1592:1 1593:1 1594:1 1595:1 1596:1 1597:1 1598:1 1599:1 1600:1 1601:1 1602:1 1603:1 12103:1 12105:1 
-0.025743492436749789 3:5 5:2 7:9 13:7 14:2 44:1 49:1 51:1 64:1 70:6 72:6 80:4 86:2 94:1 114:1 117:2 127:1 130:1 160:1 173:3 177:2 195:1 242:1 270:1 298:1 364:1 452:1 459:1 502:1 512:1 533:1 738:2 808:1 812:1 831:1 841:1 854:1 926:1 1229:1 1249:1 1250:1 1727:1 1728:1 1729:1 1730:1 1731:1 1732:1 1733:1 1734:2 1735:1 1736:1 1737:1 1738:1 1739:1 1740:1 1741:3 1742:1 1743:1 1744:1 1745:1 1746:2 1747:1 1748:1 1749:1 1750:1 1751:1 1752:1 1753:1 1754:1 12103:1 12105:1 
-0.10440626714668967 5:2 13:1 44:1 51:1 55:1 70:1 72:1 622:1 1762:1 1763:1 1764:1 1765:1 1766:1 12103:1 12105:1 
-0.038664403809144349 3:6 5:3 7:5 9:2 13:5 14:2 19:2 44:1 49:2 54:1 55:3 64:1 78:1 80:3 91:2 106:1 109:1 127:1 158:2 338:1 355:1 495:2 522:1 574:2 622:1 751:2 927:1 1035:1 1432:1 1500:1 1770:2 1771:2 1772:2 1773:1 1774:3 1775:3 1776:2 1777:1 1778:1 1779:1 1780:1 1781:1 1782:1 1783:1 12103:1 12105:1 
-0.058687015099504303 3:1 5:1 7:9 13:5 14:3 24:1 38:2 49:2 51:4 64:1 80:2 86:2 87:1 91:1 114:2 121:1 127:3 173:1 270:1 271:1 287:1 477:1 672:1 945:1 1035:1 1103:1 1104:1 1232:1 1999:1 2074:1 2075:1 2076:1 2077:1 2078:1 2079:1 2080:1 2081:1 2082:1 2083:1 2084:1 2085:1 2086:1 2087:1 2088:2 2089:1 2090:1 2091:1 2092:1 2093:1 2094:1 2095:1 2096:1 2097:1 2098:1 12103:1 12105:1 
-0.20162055598136042 5:1 14:1 86:1 187:1 2204:1 2205:1 2206:1 2207:1 12103:1 12106:1 
-0.074728342635035819 5:1 13:2 49:1 51:1 117:1 187:1 564:1 833:1 977:1 1509:1 2352:1 2353:1 2354:1 2355:1 12103:1 12106:1 
-0.070768509589392653 3:1 5:3 7:2 157:1 158:1 500:1 501:1 502:1 2410:1 2411:1 12103:1 12105:1 
-0.023157814754165267 5:1 7:1 14:2 49:2 51:1 94:1 114:1 117:3 127:1 133:1 1085:1 2337:1 2412:1 2413:1 2414:1 2415:1 2416:1 2417:1 2418:1 12103:1 12107:1 
-0.039977280110587918 3:5 7:8 9:1 13:3 14:1 19:1 38:1 44:2 49:1 54:2 60:1 86:2 87:3 91:1 109:1 117:1 127:1 180:1 187:1 289:1 298:1 335:2 418:1 421:1 481:1 523:1 526:1 529:1 572:1 596:1 886:1 894:1 1098:1 1103:1 1332:1 1474:1 1477:1 1554:1 2011:1 2226:1 2233:1 2282:1 2338:1 2440:1 2441:1 2442:1 2443:2 2444:1 2445:1 2446:1 2447:1 2448:1 2449:1 2450:1 2451:1 2452:1 2453:1 2454:1 2455:1 2456:1 2457:1 2458:1 2459:1 2460:1 2461:1 2462:1 2463:1 2464:1 12103:1 12105:1 
-0.023123559364069707 3:2 5:3 7:4 13:1 14:1 38:1 44:1 49:1 55:1 64:1 70:1 72:1 91:1 114:1 117:3 127:1 260:1 500:1 501:1 502:1 670:1 838:1 927:1 1722:1 1771:1 2011:2 2481:1 2482:1 2483:1 2484:1 2485:1 2486:1 2487:1 2488:1 2489:1 2490:1 2491:1 2492:1 2493:1 2494:1 2495:1 2496:1 12103:1 12105:1 
-0.036985847318229965 5:2 7:1 44:1 86:1 115:1 202:1 364:1 742:1 1137:1 1344:1 2108:1 2652:1 2653:2 2654:1 2655:1 2656:1 2657:1 2658:1 2659:1 2660:1 12103:1 12105:1 
-0.13073540060214509 3:4 5:3 7:3 9:1 13:1 19:1 38:1 49:3 54:1 58:1 80:1 91:1 117:1 122:2 127:1 128:1 129:1 180:1 195:1 332:1 374:1 423:1 457:1 486:2 533:1 947:1 2671:1 2672:1 2673:1 2674:1 2675:1 2676:1 2677:1 2678:1 2679:1 2680:1 2681:1 2682:1 2683:1 12103:1 12105:1 
-0.0065284906505212546 3:2 5:3 7:3 27:1 55:1 64:1 182:1 500:1 789:1 848:1 850:1 1809:1 1854:1 2874:1 2875:1 12103:1 12105:1 
-0.091508749348282084 5:5 7:6 13:1 80:1 217:3 418:1 421:1 514:1 540:1 945:1 1342:1 1573:1 2948:1 2949:1 2950:1 2951:1 2952:1 2953:1 2954:1 2955:1 2956:1 2957:1 2958:1 2959:1 2960:1 2961:1 2962:1 2963:1 2964:1 2965:1 2966:1 2967:1 2968:1 2969:1 12103:1 12105:1 
-0.033949126183796155 3:1 5:1 7:2 13:1 14:1 44:1 55:1 79:1 117:1 127:1 497:1 833:1 1107:1 1766:1 2985:2 2986:1 2987:1 2988:1 2989:1 2990:1 12103:1 12105:1 
-0.10317726403624966 3:1 7:2 13:3 14:1 55:1 60:1 78:1 91:1 114:1 117:1 377:1 751:1 1260:1 1273:1 2548:1 2995:1 2996:1 2997:2 2998:1 2999:1 12103:1 12105:1 
-0.051800066938405422 3:2 5:2 7:1 9:1 19:1 24:1 38:1 44:1 64:1 70:1 72:1 86:1 115:1 117:1 122:1 136:1 173:1 364:1 418:1 421:1 477:1 520:1 618:1 678:1 1583:1 1702:1 2415:1 2486:1 3007:1 3008:1 3009:1 3010:1 3011:1 12103:1 12105:1 
-0.030395182514975378 5:2 7:4 128:1 166:1 475:1 478:1 480:1 482:1 3012:1 3013:1 3014:1 3015:1 3016:2 12103:1 12105:1 
-0.00014288573350178821 3:3 5:1 7:8 9:1 13:2 19:1 44:1 49:2 51:2 55:3 89:1 91:1 109:2 114:2 115:2 253:1 298:1 300:1 364:1 522:1 526:1 679:2 794:1 823:1 841:3 947:1 1103:3 1161:1 1171:1 1182:1 1186:1 1190:3 1196:2 1212:1 1213:1 1220:1 1345:1 1347:1 1639:1 1926:1 2490:1 2525:1 2823:2 3152:1 3153:1 3154:1 3155:1 3156:1 3157:1 3158:1 3159:1 3160:2 3161:1 3162:2 3163:1 3164:1 3165:1 3166:1 3167:1 3168:2 3169:1 3170:1 3171:1 3172:1 3173:1 3174:1 3175:1 3176:2 3177:1 3178:1 3179:1 3180:1 3181:1 3182:1 3183:1 3184:1 12103:1 12105:1 
-0.27706020287527416 5:3 7:4 390:1 443:1 1719:1 3286:1 3287:1 3288:1 3289:1 3290:1 12103:1 12105:1 
-0.040690812688271322 5:2 7:1 13:2 14:1 26:1 49:1 51:2 109:4 127:2 205:1 252:1 287:1 299:1 713:1 1076:2 1444:1 1500:2 2067:1 2753:1 2754:1 2771:1 2841:1 3336:1 3337:1 3338:1 3339:1 3340:1 3341:1 12103:1 12105:1 
-0.64283237710285379 2:1 5:1 13:1 14:1 1107:1 1608:1 3398:1 12103:1 12106:1 
-0.025717357349603207 5:1 9:1 13:2 19:1 51:1 54:1 55:1 60:1 109:1 115:1 127:3 377:1 394:1 1348:1 1999:1 2012:1 3083:1 3399:1 3400:1 3401:1 3402:1 3403:1 3404:1 3405:1 3406:1 3407:1 12103:1 12105:1 
-0.0082676964987400559 5:1 14:1 49:1 51:1 54:1 55:1 109:1 173:1 222:1 1347:1 3458:1 3459:1 3460:1 3461:1 3462:1 3463:1 3464:1 3465:1 3466:1 12103:1 12106:1 
-0.042319894704711168 3:2 5:2 7:3 9:1 14:1 19:1 51:1 54:1 80:1 127:2 187:1 338:1 369:1 388:1 1103:1 1229:1 1260:1 1500:1 1515:1 1729:1 2275:2 2345:1 3603:1 3604:1 3605:1 3606:1 3607:1 3608:1 3609:1 3610:1 3611:1 12103:1 12105:1 
-0.0054968136621434578 5:1 7:3 13:3 14:2 44:1 49:1 51:2 70:1 72:1 86:2 91:1 115:1 117:2 124:1 127:2 173:1 305:1 364:1 399:1 678:1 718:1 892:1 1035:1 1099:2 1103:1 1515:1 1521:2 2541:1 2586:1 2752:1 2823:2 2881:1 3583:1 3618:1 3619:1 3620:1 3621:1 3622:1 3623:2 3624:1 3625:2 3626:1 3627:1 3628:1 3629:1 3630:1 3631:1 3632:1 3633:1 3634:1 3635:1 3636:1 3637:1 3638:2 3639:1 12103:1 12105:1 
-0.00089402674836201821 5:2 7:4 13:1 14:2 44:2 49:2 54:2 60:1 80:3 86:1 87:1 115:1 127:2 173:2 247:1 289:1 452:1 530:1 639:1 662:1 718:1 808:1 1140:1 1514:1 2143:1 2154:1 2274:1 2417:1 3643:2 3711:1 3712:1 3830:1 3831:1 3832:1 3833:1 3834:1 3835:1 3836:1 3837:1 3838:1 3839:1 3840:1 3841:1 3842:1 3843:1 3844:1 3845:1 3846:1 3847:1 3848:1 3849:1 3850:1 3851:1 3852:1 3853:1 3854:1 3855:1 12103:1 12105:1 
-0.060530140637959862 5:1 7:3 13:3 14:1 44:2 54:1 80:1 257:1 258:1 738:1 945:1 1107:1 2438:1 3128:1 3129:2 3312:1 3911:1 3912:2 12103:1 12105:1 
-0.0012866227379395357 3:4 5:1 7:1 9:2 13:3 14:3 19:2 51:2 54:3 55:1 70:1 72:1 80:1 109:1 115:1 131:1 169:1 187:1 205:1 222:2 329:1 1244:1 1332:1 1402:1 1887:1 3246:1 4047:1 4048:1 4049:1 4050:1 4051:1 4052:1 4053:1 4054:1 4055:1 4056:1 12103:1 12105:1 
-0.04923896950076756 3:3 5:3 7:3 27:1 55:1 64:1 80:2 117:1 127:2 377:1 443:1 477:1 500:1 771:1 816:1 848:1 942:1 1080:1 1081:1 1082:1 1083:1 2994:1 4057:1 12103:1 12105:1 
-0.056467093286777167 5:2 106:1 205:1 303:1 2782:1 2823:1 4076:1 4077:1 4078:1 12103:1 12107:1 
-0.12725458211048868 5:1 13:1 44:1 106:1 289:1 2164:1 2974:1 3202:1 3915:1 4250:1 4251:1 12103:1 12106:1 
-0.0071305173458343606 3:3 5:2 7:8 13:8 14:7 27:1 44:1 49:1 51:5 52:1 54:1 60:1 64:1 82:1 86:4 87:2 91:2 109:2 114:3 115:2 117:3 199:1 200:1 252:1 526:1 639:1 678:1 679:1 723:1 730:1 822:1 825:1 1024:1 1095:1 1145:1 1243:2 1424:1 2078:1 2435:1 2500:1 2582:1 2760:1 3224:1 3375:1 3416:1 3794:1 3912:1 3975:1 4351:1 4352:2 4353:2 4354:2 4355:1 4356:1 4357:1 4358:1 4359:1 4360:2 4361:2 4362:1 4363:1 4364:1 4365:1 4366:1 4367:1 4368:1 4369:1 4370:1 4371:1 4372:1 4373:2 4374:1 4375:1 4376:1 4377:1 4378:1 12103:1 12105:1 
-0.04426260974302592 5:1 7:1 13:1 14:1 117:1 130:1 487:1 526:1 679:1 2500:1 4610:1 4611:1 4612:1 4613:1 12103:1 12107:1 
-0.21497496278643735 5:1 7:3 13:1 203:1 4670:1 4671:1 4672:1 4673:1 12103:1 12105:1 
-0.021212638212353009 3:1 4:1 5:4 7:7 13:7 14:6 44:2 49:1 51:1 86:1 109:2 114:1 115:1 117:1 187:1 205:1 243:1 299:2 309:1 342:1 346:1 364:1 371:1 450:1 670:1 674:1 1011:1 1025:1 1035:1 1288:1 1812:1 2109:2 2365:1 2423:1 2540:1 2544:1 2823:2 3083:1 3892:1 4049:3 4138:1 4288:1 4482:1 4562:1 4686:1 4687:1 4688:1 4689:1 4690:1 4691:1 4692:1 4693:1 4694:1 4695:1 4696:1 4697:1 4698:1 4699:1 4700:1 4701:1 4702:1 4703:1 4704:1 4705:1 4706:1 4707:1 4708:1 4709:1 4710:1 12103:1 12105:1 
-0.11722387922557237 5:2 369:1 1107:1 1344:1 12103:1 12107:1 
-0.060355402340062099 5:1 7:1 13:1 14:1 40:1 44:1 257:1 1137:1 1983:1 2156:1 2160:1 2452:1 3315:1 4855:1 4856:1 4857:1 4858:1 12103:1 12107:1 
-0.039244045396964133 3:1 5:1 7:5 44:1 51:2 54:1 64:2 86:1 109:1 117:1 300:1 305:1 364:1 523:1 845:1 1076:1 1093:1 1243:1 1961:1 1997:1 2784:1 2992:1 3228:1 3640:1 3769:1 4961:1 4962:1 12103:1 12105:1 
-0.058661378430388759 3:2 5:1 7:2 9:1 14:2 19:1 51:1 60:2 70:1 72:1 109:1 115:1 117:1 173:1 310:2 639:1 947:1 2389:1 2582:1 3420:1 3729:1 3832:1 4533:1 4538:1 4995:1 4996:1 4997:1 4998:1 4999:1 12103:1 12105:1 
-0.01950689963072335 3:5 5:3 7:6 9:2 14:2 19:2 51:1 54:1 55:2 64:1 86:1 91:1 106:1 109:1 114:1 117:3 127:1 173:1 205:1 270:2 271:1 287:1 289:2 290:1 300:1 303:1 305:2 364:1 520:1 526:1 679:1 713:1 800:1 1103:1 1141:1 1322:1 1345:2 1347:1 1348:1 1591:1 1730:1 1758:1 1812:1 1889:1 2273:1 2689:2 2823:1 3137:1 3160:1 3668:1 4078:1 4446:1 4562:1 4957:1 5191:1 5192:1 5193:1 5194:1 5195:1 5196:1 5197:1 5198:1 5199:1 5200:1 5201:1 5202:1 5203:1 5204:1 5205:1 12103:1 12105:1 
-0.010001183214523117 3:7 5:1 7:8 9:3 13:1 14:1 19:3 44:2 49:1 51:1 54:1 55:2 64:1 82:1 117:1 205:1 299:1 300:1 364:1 520:1 526:1 530:1 583:1 627:1 810:1 823:1 1103:1 1323:1 2104:1 2253:1 2284:1 5063:1 5206:1 5207:1 5208:1 5209:1 5210:1 5211:3 5212:1 5213:1 5214:2 5215:1 5216:1 5217:1 5218:1 5219:1 5220:1 5221:1 12103:1 12105:1 
-0.0053615588625111361 3:2 5:3 7:6 13:8 14:4 49:1 51:1 70:3 72:3 86:1 114:1 115:1 173:5 183:1 187:2 243:1 247:1 287:1 299:1 371:4 409:1 430:1 825:1 1127:1 1288:1 1342:1 1545:1 1546:1 1850:1 1917:1 2475:1 2699:1 2823:2 3160:1 3589:1 3603:1 3769:1 4049:4 4138:2 4269:1 4687:2 4701:1 4983:1 5350:4 5351:1 5352:1 5353:1 5354:1 5355:1 5356:1 5357:1 5358:1 5359:1 5360:1 5361:1 5362:1 5363:1 5364:1 5365:1 5366:1 5367:1 5368:1 5369:1 12103:1 12105:1 
-0.027929612636737045 3:1 7:5 49:1 80:2 82:1 133:2 221:1 401:1 1306:2 1485:1 2047:1 2077:1 5514:1 12103:1 12105:1 
-0.026286370850958328 5:1 7:1 13:1 49:1 51:1 54:1 64:1 143:1 852:1 1766:1 1807:1 5547:1 5548:1 5549:1 5550:1 5551:1 5552:1 5553:1 5554:1 5555:1 5556:1 12103:1 12107:1 
-0.018082930509271102 3:3 5:1 7:5 9:1 13:3 19:1 24:1 38:1 49:1 51:1 54:2 60:2 70:1 72:1 115:3 117:1 127:2 173:2 199:2 300:2 418:1 421:1 520:1 526:2 564:1 639:1 738:1 820:2 1099:1 1103:1 1345:2 1598:1 1983:1 2233:2 3137:2 3457:1 4903:1 5075:1 5415:2 5603:1 5604:1 5605:1 5606:2 5607:1 5608:1 5609:1 12103:1 12105:1 
-0.04439163282492941 13:1 70:1 72:1 616:1 617:1 2789:1 5610:1 5611:1 12103:1 12107:1 
-0.0078349128323627285 3:2 5:3 7:5 9:1 13:4 14:1 19:1 44:3 49:1 51:2 54:1 64:3 80:1 86:5 87:2 109:1 114:1 115:2 117:5 127:2 173:2 187:1 251:1 299:1 342:1 364:1 520:1 677:1 678:1 722:1 725:2 730:1 947:1 1246:1 1332:1 1719:1 2021:1 2392:1 3217:1 3739:1 4233:1 4520:1 4974:1 5085:1 5634:1 5635:1 5636:1 5637:1 5638:1 5639:1 5640:1 5641:1 5642:1 5643:1 5644:1 5645:1 5646:1 5647:1 5648:1 5649:1 5650:1 5651:1 5652:1 5653:1 5654:1 5655:1 5656:1 5657:1 5658:1 5659:1 5660:1 5661:1 5662:1 5663:1 5664:1 12103:1 12105:1 
-0.032725396984657644 5:2 7:1 198:1 289:2 435:1 447:1 1068:1 1070:1 3501:1 5844:1 5845:1 5846:2 5847:1 5848:1 5849:1 5850:1 5851:1 5852:1 5853:1 12103:1 12105:1 
-0.13488424088314827 5:4 7:5 80:1 128:1 159:1 166:1 221:1 452:1 475:1 478:1 480:1 906:1 2439:1 2842:1 3012:1 5927:1 5928:1 5929:1 5930:1 12103:1 12105:1 
-0.039462111437635027 5:4 74:3 91:1 2524:1 4550:1 6015:1 6016:1 6017:1 6018:1 6019:1 12103:1 12105:1 
-0.17882448149699112 7:3 49:1 173:1 200:1 401:1 443:1 452:1 496:1 1107:1 4739:1 5514:1 12103:1 12105:1 
-0.10193329348920523 3:1 7:2 13:1 51:1 80:3 91:1 106:1 127:1 152:2 342:1 631:1 725:1 816:1 1705:1 1925:1 2995:1 3723:1 4307:1 6043:1 6044:1 12103:1 12105:1 
-0.17978564443765457 3:4 5:2 7:8 9:1 13:2 19:1 38:1 49:2 51:2 80:2 157:1 158:1 183:1 342:1 369:1 541:1 547:1 570:1 990:2 1107:1 1274:1 1275:1 1280:1 1281:1 1282:1 1283:1 2754:1 6080:1 6081:1 6082:1 6083:1 6084:1 12103:1 12105:1 
-0.018307248964488182 5:2 7:2 14:1 51:1 55:2 64:1 130:1 299:1 369:1 405:1 727:1 1103:1 4849:1 5237:1 6101:1 6102:1 6103:1 6104:1 6105:1 12103:1 12105:1 
-0.51357740781374428 5:2 7:1 4490:1 4966:1 12103:1 12105:1 
-0.0058141654756516193 5:2 7:1 13:2 14:2 44:2 51:2 54:1 70:1 72:1 86:1 87:1 117:1 173:1 300:1 520:1 829:1 1347:1 1670:1 1890:1 1990:1 2784:1 3336:1 3641:1 4448:1 4582:1 4617:1 4624:1 5653:1 6106:1 6107:1 6108:1 6109:1 6110:1 6111:1 6112:1 6113:1 12103:1 12105:1 
-0.013772289656502901 2:5 3:3 5:7 7:1 9:1 13:7 14:6 19:1 44:6 49:2 54:2 55:3 74:1 80:2 86:5 91:1 106:2 114:2 115:1 117:2 127:1 173:6 187:1 199:1 200:1 205:1 299:1 364:1 522:1 526:1 530:1 679:1 845:1 947:1 1087:1 1096:1 1099:1 1103:1 1229:1 1249:3 1322:2 1490:1 1580:2 1727:1 2011:1 2021:2 2500:1 3250:5 3375:1 3419:1 3769:1 3844:2 4051:1 4452:1 5443:1 5451:1 6008:1 6142:4 6143:1 6144:1 6145:1 6146:3 6147:2 6148:4 6149:2 6150:1 6151:1 6152:1 6153:1 6154:1 6155:1 6156:1 6157:1 6158:1 6159:1 6160:2 6161:1 6162:1 6163:1 6164:1 6165:1 6166:1 6167:1 6168:1 12103:1 12105:1 
-0.051174765088924677 5:2 7:3 142:2 148:3 447:2 879:1 880:1 2714:1 4035:1 4045:1 4443:1 4614:1 6207:1 6208:1 6209:1 6210:1 6211:1 6212:1 6213:1 6214:1 6215:1 6216:1 12103:1 12105:1 
-0.11845699239741408 3:2 5:1 7:3 9:1 13:1 19:1 32:1 58:1 140:1 631:1 923:2 4213:1 5188:1 6217:1 6218:1 6219:1 12103:1 12105:1 
-0.0047457158385762017 5:2 7:1 260:1 305:1 306:1 332:1 430:1 631:1 1035:1 6228:1 6259:1 12103:1 12105:1 
-0.027471249271527689 3:2 5:2 7:4 9:1 13:1 14:1 19:1 44:1 54:1 58:1 91:1 117:1 127:1 148:1 160:1 173:1 245:1 305:2 306:1 364:1 430:1 596:2 670:1 886:2 1410:1 1573:1 1766:1 2754:1 3311:1 3312:1 3370:1 3912:1 5062:1 6271:2 6272:1 6273:1 6274:1 6275:1 6276:1 6277:1 6278:1 12103:1 12105:1 
-0.22308035118118058 5:1 7:1 13:1 14:1 173:1 355:1 614:1 1035:1 3921:1 6284:1 6285:1 12103:1 12107:1 
-0.01805805435691895 5:1 14:1 86:1 87:1 109:1 205:1 2021:1 4858:1 5333:1 6348:1 6349:1 6350:1 6351:1 12103:1 12106:1 
-0.061600892266556073 5:2 54:1 86:1 109:1 115:1 117:1 187:1 342:1 1334:1 1926:1 2127:1 2724:1 4361:1 4634:1 5816:1 5843:1 6369:1 6370:1 6371:1 6372:1 6373:1 12103:1 12107:1 
-0.0077916860084113427 3:2 5:3 7:2 9:1 13:6 14:4 19:1 44:1 49:2 54:1 55:6 70:1 72:1 86:2 109:1 117:4 127:2 173:1 187:2 289:1 298:1 299:1 300:2 345:3 351:1 376:2 377:2 520:1 530:1 613:1 784:2 801:1 852:2 967:1 1007:1 1101:2 1102:2 1306:1 2021:1 2576:1 2657:1 2801:2 2804:1 3463:1 3607:1 4101:1 4311:1 4636:2 5232:1 5491:1 5916:1 6167:1 6240:1 6414:1 6415:2 6416:3 6417:1 6418:1 6419:1 6420:1 6421:1 6422:1 6423:1 6424:1 6425:1 6426:1 6427:1 12103:1 12105:1 
-0.0032659774336622933 5:10 7:5 9:2 13:7 14:2 19:2 44:4 49:5 51:5 54:1 55:4 64:1 70:2 71:1 72:2 86:2 87:4 109:2 114:1 115:1 117:4 127:4 173:2 177:1 187:1 199:1 247:1 277:3 285:1 299:1 303:1 332:1 335:1 343:2 364:1 409:1 423:1 526:1 643:2 672:1 678:1 691:1 748:3 947:1 1035:3 1092:1 1103:1 1225:1 1268:1 1340:1 1347:1 1348:1 1482:1 1923:1 2021:1 2154:1 2155:1 2165:1 2226:1 2381:1 2823:2 2887:1 3153:2 3199:1 3312:1 3399:1 3614:1 3617:1 3641:1 3742:2 3822:1 4234:1 4345:1 4510:1 4653:5 4675:1 4681:1 4682:1 4745:1 4856:1 4974:1 5525:1 6192:1 6272:1 6565:2 6566:1 6567:1 6568:1 6569:1 6570:1 6571:1 6572:1 6573:1 6574:1 6575:1 6576:1 6577:1 6578:3 6579:1 6580:1 6581:1 6582:1 6583:1 6584:2 6585:1 6586:1 6587:1 6588:1 6589:1 6590:1 6591:1 6592:1 6593:1 6594:1 6595:1 6596:1 12103:1 12105:1 
-0.063406936097035363 5:2 13:2 44:1 106:1 299:1 679:1 3380:1 6597:1 6598:1 6599:1 6600:1 12103:1 12107:1 
-0.13548048249067038 5:1 24:1 127:1 4961:1 6620:1 6621:1 12103:1 12106:1 
-0.055079264098591825 3:2 5:1 7:1 32:1 55:1 91:2 142:1 148:2 255:1 409:1 1438:1 1739:1 2386:1 2624:1 2752:1 2979:1 6537:1 6648:1 6649:1 6650:1 6651:1 6652:1 12103:1 12105:1 
-0.0044800307360227214 3:1 5:2 7:12 9:1 13:4 14:4 19:1 32:2 44:1 49:1 54:2 55:1 58:2 60:1 70:2 72:2 86:2 87:1 91:2 109:3 115:2 117:2 135:1 173:4 180:1 205:1 274:1 304:1 345:1 364:1 441:1 507:1 540:1 570:1 674:2 730:3 822:1 841:1 1071:2 1103:3 1129:1 1570:1 1571:1 1573:1 1578:4 1579:1 1739:1 2408:1 2417:1 2808:1 2916:1 3389:1 4030:1 4088:2 4361:1 4969:1 5843:1 6196:1 6697:1 6698:1 6699:1 6700:1 6701:1 6702:1 6703:1 6704:1 6705:1 6706:1 6707:1 6708:1 6709:1 6710:1 6711:1 6712:1 6713:1 6714:1 6715:1 6716:1 6717:1 6718:1 6719:1 6720:1 6721:1 6722:1 6723:1 6724:1 6725:1 12103:1 12105:1 
-0.028199085789686735 3:3 5:1 7:2 9:1 13:1 19:1 70:1 72:1 87:1 109:2 115:1 188:1 299:1 679:1 892:1 1027:1 1305:1 4636:1 6749:1 6750:1 6751:1 6752:1 6753:1 6754:1 12103:1 12105:1 
-0.022879691140087491 5:1 70:1 72:1 142:1 148:3 435:1 597:1 833:2 1106:1 2714:2 5850:1 6808:1 6809:1 6810:2 6811:1 6812:1 6813:1 12103:1 12105:1 
-0.005973488359099729 5:3 7:1 13:2 14:3 51:1 86:2 87:1 109:1 117:1 136:1 205:2 564:2 738:1 771:1 824:2 947:2 1035:1 1563:1 3009:1 3594:1 4101:1 4213:1 4306:2 4345:1 4652:1 6109:1 6814:1 6815:1 6816:1 6817:1 6818:1 6819:1 12103:1 12105:1 
-0.94595190722060696 5:1 38:1 6735:1 12103:1 12106:1 
-0.043430914330222163 5:4 7:1 13:3 14:1 44:1 51:2 70:1 72:1 106:1 109:1 115:1 136:1 160:1 289:1 299:2 332:1 364:1 369:1 522:1 771:1 1027:1 1087:1 1097:1 1124:1 1137:1 1229:1 1323:1 1695:1 1696:1 1700:1 1701:1 1729:1 3112:1 3215:1 3224:1 3781:1 3841:1 4714:1 6672:1 6818:1 6858:1 6859:1 6860:1 6861:1 6862:1 6863:1 12103:1 12105:1 
-0.00442677544894111 5:4 7:11 13:4 14:3 44:1 51:1 54:2 55:2 70:3 72:3 80:1 86:2 87:1 88:1 94:1 109:3 115:1 127:1 160:1 173:3 177:1 195:2 222:2 289:1 299:1 305:1 338:1 369:1 450:1 526:1 528:1 625:1 672:1 679:1 727:1 825:1 831:1 841:1 1036:1 1337:1 1432:2 1556:1 1581:1 1666:1 1820:1 1824:1 1894:1 1990:1 2021:2 2127:2 2154:1 2160:1 2657:1 3596:2 4051:1 4071:1 4344:1 4373:1 5232:1 6082:1 6864:1 6865:1 6866:1 6867:1 6868:1 6869:1 6870:1 6871:1 6872:1 6873:1 6874:1 6875:1 6876:1 6877:1 6878:1 6879:1 6880:1 6881:1 6882:1 6883:1 6884:1 6885:1 6886:1 12103:1 12105:1 
-0.022310613998894033 5:2 13:2 49:1 86:1 87:1 109:1 117:1 338:1 342:1 494:1 662:1 1990:1 2095:1 2169:1 2370:1 2823:1 2916:2 5420:1 6897:1 6898:1 6899:1 12103:1 12107:1 
-0.017121145278166557 5:1 7:2 13:3 55:1 80:1 117:1 205:1 299:1 2586:1 3782:1 6192:1 6658:1 6951:1 6952:1 6953:1 6954:1 6955:1 6956:1 6957:1 6958:1 6959:1 12103:1 12105:1 
-0.26846161564996002 5:1 7:5 49:2 79:1 80:2 133:1 159:1 191:1 443:1 477:1 496:1 560:1 3040:1 6978:1 12103:1 12105:1 
-0.0052716728608075787 5:2 7:4 32:1 80:3 91:1 142:2 148:1 162:1 166:1 289:5 369:1 394:1 401:1 409:1 418:1 421:1 447:1 477:1 560:1 597:1 599:1 896:2 1061:1 1070:1 1300:2 2194:1 3501:1 3648:1 5848:1 6208:1 6979:1 6980:1 6981:1 6982:2 6983:1 6984:1 6985:1 6986:1 6987:1 6988:1 6989:1 6990:1 6991:1 6992:1 6993:1 6994:3 6995:1 6996:1 6997:1 6998:1 6999:1 7000:1 12103:1 12105:1 
-0.17666657271961991 3:1 4:1 5:3 7:1 44:1 91:1 173:1 332:1 333:1 364:1 1766:1 2154:1 2382:1 2512:1 4849:1 7001:1 7002:1 12103:1 12105:1 
-0.022008374773176024 5:4 7:4 13:5 44:2 49:2 51:3 80:2 109:4 114:1 115:1 117:5 127:1 173:1 180:2 181:2 187:1 200:1 205:2 282:1 299:1 335:2 463:1 526:1 625:1 808:1 823:3 829:1 1103:1 1323:1 1444:3 1501:1 2021:1 2253:1 2275:2 2689:1 2981:1 3038:1 3614:2 3915:1 4250:1 4636:1 4981:1 5690:3 6377:1 6884:1 7048:1 7049:2 7050:1 7051:1 7052:1 7053:1 7054:1 7055:1 7056:1 7057:1 7058:1 7059:1 7060:1 7061:1 7062:1 7063:1 7064:1 7065:1 7066:1 7067:1 7068:1 12103:1 12105:1 
-0.071698234711158937 3:2 5:1 7:7 13:1 49:1 60:1 70:2 72:2 82:2 86:1 109:1 173:1 1559:1 2000:2 2542:1 6770:1 7116:1 7117:1 7118:1 7119:1 7120:2 7121:1 7122:1 7123:1 7124:1 7125:1 7126:1 7127:1 7128:1 7129:1 12103:1 12105:1 
-0.011867853363418284 3:2 5:2 7:6 13:1 14:1 38:1 51:1 54:1 58:1 64:1 80:2 97:1 109:1 117:1 127:1 162:1 173:1 180:1 199:1 221:1 296:1 300:1 307:2 364:1 417:1 517:1 518:1 520:1 523:1 703:1 749:1 795:1 1035:1 1107:1 1137:1 1477:1 1554:1 1793:1 1870:1 2219:1 2451:1 2463:1 2587:1 3310:1 3898:1 5464:1 6937:1 7177:1 7178:1 7179:1 7180:1 12103:1 12105:1 
-0.065730506648445111 2:1 3:2 5:1 7:3 9:1 13:2 19:1 44:1 51:1 74:2 80:2 86:2 117:2 223:1 387:1 722:1 952:1 1037:1 2337:1 3643:2 4232:1 4524:1 4966:1 5608:1 6002:1 7330:1 7331:1 7332:1 7333:1 7334:1 7335:1 7336:1 7337:1 12103:1 12105:1 
-0.0090192984950788549 3:8 5:5 7:7 9:2 13:8 14:8 19:2 44:1 49:3 51:1 54:1 55:2 60:4 64:2 86:5 87:1 91:3 106:3 109:3 115:1 117:3 159:1 173:2 187:1 205:2 298:1 299:1 300:1 373:1 481:1 500:1 501:1 502:1 526:2 558:3 651:1 664:1 718:1 723:1 730:1 771:1 794:1 1032:1 1103:1 1131:1 1144:1 1146:2 1348:1 1871:1 1898:1 2246:4 2247:1 2492:1 2493:1 2496:1 2543:1 2663:1 2823:2 3152:1 3164:1 3969:1 4124:2 4132:1 4727:1 4814:1 5078:1 6473:1 6791:1 7380:1 7381:1 7382:1 7383:1 7384:1 7385:1 7386:1 7387:1 7388:1 7389:1 7390:1 7391:1 7392:1 7393:1 7394:1 7395:1 7396:1 7397:1 7398:1 7399:1 12103:1 12105:1 
-0.043448967882225541 5:6 7:7 32:5 38:1 58:1 70:4 72:4 78:2 80:5 91:2 133:2 140:1 148:5 152:1 166:3 394:1 409:2 417:2 418:2 421:2 435:1 567:2 592:1 595:1 596:1 597:2 599:2 858:1 862:1 886:1 887:1 928:1 930:1 1555:1 1575:1 1606:1 1677:1 1686:1 2119:1 2182:2 2183:2 2184:2 2185:2 2191:2 2309:1 2326:2 2467:2 2517:1 2628:1 2715:1 2854:1 3191:1 7275:1 7448:1 7449:1 7450:1 7451:1 7452:1 7453:1 7454:1 7455:1 7456:1 7457:1 7458:1 7459:1 7460:1 7461:1 7462:1 7463:1 7464:3 7465:1 7466:1 7467:1 7468:1 12103:1 12105:1 
-0.11915335936859342 5:1 7:2 13:1 14:1 49:1 70:1 72:1 94:1 106:1 107:1 109:1 134:1 255:1 348:1 2541:1 2905:1 7242:1 7486:1 7487:1 7488:1 7489:1 7490:1 7491:1 7492:1 12103:1 12105:1 
-0.058367451177479594 3:1 5:1 7:2 13:1 44:1 49:1 86:1 87:1 109:1 117:1 615:1 1098:1 2011:1 3794:1 6746:1 7305:1 7513:1 7514:1 7515:1 7516:1 7517:1 7518:1 7519:1 12103:1 12105:1 
-0.39426663600866801 7:2 80:1 401:1 417:1 781:1 7544:1 12103:1 12105:1 
-0.026913109063153164 3:1 5:1 13:1 70:2 72:2 74:3 157:1 158:1 477:1 1505:1 1815:1 2008:1 2406:1 7545:1 7546:1 7547:1 7548:1 7549:1 7550:1 7551:1 12103:1 12105:1 
-0.13227678410223787 5:2 7:1 94:1 4490:1 12103:1 12105:1 
-0.025183354934669815 5:3 7:14 13:3 14:4 37:1 49:1 51:1 54:1 55:1 70:4 72:4 80:2 86:1 109:6 117:3 127:2 200:1 221:2 254:1 285:1 299:1 338:1 369:1 401:1 443:1 452:1 493:1 526:1 622:1 672:1 708:1 730:1 748:1 804:1 1005:1 1257:1 1306:2 1344:1 1526:1 1659:1 1856:1 2047:1 2371:1 2586:1 2696:1 3641:1 4724:1 4958:2 5953:2 6667:1 7742:1 7744:1 7745:1 7746:1 7747:1 7748:2 7749:1 7750:1 7751:1 7752:1 7753:1 7754:1 7755:1 7756:1 7757:1 12103:1 12105:1 
-0.018949886380431043 3:3 5:1 7:3 9:1 19:1 49:1 51:1 86:1 89:1 91:1 173:2 205:1 733:1 1025:1 1044:2 1103:1 1348:1 1559:1 1700:2 1919:1 2083:1 2127:1 2823:1 3336:1 3843:1 5138:1 6388:1 7820:1 7821:2 7822:1 7823:1 7824:1 7825:1 7826:2 7827:1 12103:1 12105:1 
-0.048166336218203723 3:5 5:1 7:6 49:1 80:1 86:1 94:1 109:1 157:1 158:1 173:1 450:1 771:1 1107:1 1281:1 1282:1 1283:1 1679:1 1739:1 4595:1 4646:1 4739:1 5429:1 7905:1 7906:1 7907:1 12103:1 12105:1 
-0.020561743119815203 5:2 7:1 13:1 49:1 55:1 80:1 86:1 115:1 124:1 127:1 299:1 364:1 522:1 829:1 1874:1 5256:1 5300:1 5650:1 5653:1 5845:1 7969:1 7970:1 7971:1 7972:1 7973:1 12103:1 12105:1 
-0.12458218099627751 5:1 7:4 49:2 94:1 177:1 1407:1 1408:1 2561:1 4711:1 5697:1 8093:1 8094:1 8095:1 8096:1 12103:1 12105:1 
-0.03297481866855112 3:4 5:3 7:2 13:1 27:1 49:1 55:1 64:1 80:1 91:1 127:1 223:1 270:1 376:1 377:1 477:1 496:2 500:1 848:1 850:1 952:1 1797:1 1854:1 1899:1 4727:1 7012:2 12103:1 12105:1 
-0.024483104946746295 3:8 5:3 7:6 9:2 13:5 14:4 19:2 33:2 38:1 44:1 51:5 54:1 55:1 60:2 70:3 72:3 82:1 109:1 116:1 122:1 127:1 173:1 205:1 252:1 298:1 300:1 307:1 332:1 414:1 477:1 713:1 810:1 979:1 1085:1 1804:1 1815:1 1865:1 1893:1 2275:1 2416:1 2571:1 2578:1 2594:2 2604:1 2754:2 2769:1 2918:1 3050:2 3155:1 3224:1 4628:1 6108:1 6196:1 6361:1 6366:1 6848:1 7059:1 8001:1 8145:1 8146:2 8147:1 8148:2 8149:1 8150:1 8151:1 8152:1 8153:1 8154:1 12103:1 12105:1 
-0.09423348585188851 3:2 5:2 9:1 19:1 106:1 526:1 1347:1 3641:1 4078:1 5369:1 5481:1 7027:1 8239:1 12103:1 12105:1 
-0.042909562700324734 5:1 7:1 13:1 49:1 51:1 70:2 72:2 80:1 127:1 137:1 443:1 564:1 1107:1 1459:1 1509:1 2754:1 4240:1 4241:1 4966:1 6328:1 8295:1 12103:1 12105:1 
-0.03554974644226943 5:2 14:1 117:1 299:1 710:1 841:2 1347:1 2160:1 2784:1 3794:1 4731:1 4974:1 6425:1 8347:1 8348:1 8349:1 8350:1 12103:1 12107:1 
-0.0039941644451286784 5:2 7:2 13:3 14:1 44:2 51:2 55:1 60:1 117:2 122:1 132:1 173:1 289:1 299:1 300:1 305:1 364:1 520:1 547:1 679:1 730:1 829:1 1092:1 2169:1 2381:1 2500:1 2578:1 3420:1 3614:1 4690:1 6167:1 6282:1 8354:1 8355:1 8356:1 8357:1 8358:1 8359:1 8360:1 12103:1 12105:1 
-0.036841478541610712 3:2 5:1 7:7 37:1 82:2 205:1 221:2 285:2 417:1 443:2 481:1 496:1 730:1 2047:1 2586:1 12103:1 12105:1 
-0.009238278666327886 3:2 7:4 49:1 80:4 82:2 443:3 496:1 627:1 781:1 807:1 942:1 1306:2 2464:1 2842:1 12103:1 12105:1 
-0.0062487343793676238 5:1 7:3 13:1 14:4 44:2 49:1 55:1 60:1 64:1 80:2 86:1 114:1 117:4 205:1 303:1 373:1 642:1 730:1 1243:1 1249:1 1256:1 1601:1 1824:1 2916:2 3107:1 3627:1 3650:1 3784:1 3832:1 5833:1 5943:1 7669:1 8404:1 8405:1 8406:2 8407:1 8408:1 8409:1 8410:1 8411:1 12103:1 12105:1 
-0.0020101780202479414 3:5 5:2 7:6 9:1 13:2 14:2 19:1 44:4 49:1 51:3 54:1 55:1 80:2 91:1 117:1 127:1 173:1 199:1 270:1 287:1 373:1 514:1 515:1 519:1 523:1 526:2 823:3 1141:1 1492:1 2154:1 2447:1 2553:1 2554:1 2594:1 2653:2 2656:1 2764:1 3040:1 3580:2 3647:1 4515:1 4733:1 6272:1 6862:1 8450:1 8451:1 8452:1 8453:1 8454:1 8455:1 8456:1 8457:1 8458:1 8459:1 12103:1 12105:1 
-0.046550228507697883 5:2 7:4 70:1 72:1 80:1 128:1 418:1 421:1 443:1 475:1 478:1 480:1 482:1 597:1 708:1 1119:1 4485:1 5529:1 5804:1 5928:1 8465:1 8466:1 8467:1 8468:1 8469:1 8470:1 8471:1 8472:1 8473:1 12103:1 12105:1 
-0.01402015529538592 3:4 5:2 7:3 9:2 13:4 19:2 49:1 51:1 70:2 72:2 87:3 106:2 114:3 173:1 180:1 205:1 515:1 526:1 677:1 754:1 1243:1 1348:2 1706:1 2784:1 4744:1 5476:1 5604:1 6196:2 7399:1 8553:1 8554:2 8555:1 8556:2 8557:1 8558:1 8559:1 8560:1 8561:1 12103:1 12105:1 
-0.53121513454722757 5:1 8568:1 12103:1 12106:1 
-0.0076945776310063194 3:3 5:1 7:4 70:1 72:1 80:1 159:1 409:2 782:1 967:1 1152:1 1161:1 1176:2 1186:3 1204:1 1208:1 1211:1 1647:1 3169:2 8503:1 8610:1 8611:1 8612:2 8613:1 8614:1 8615:1 8616:1 8617:1 8618:1 8619:1 8620:1 8621:1 8622:1 8623:1 8624:1 8625:1 8626:1 8627:1 8628:1 8629:1 8630:1 8631:1 8632:1 8633:1 8634:1 8635:1 8636:1 8637:1 8638:1 8639:1 8640:1 8641:1 8642:1 8643:1 8644:1 8645:1 8646:1 8647:1 12103:1 12105:1 
-0.0043674705102216835 3:1 5:2 7:3 14:1 40:1 49:1 51:1 80:1 86:1 109:2 289:1 332:1 369:1 514:1 515:1 519:1 725:1 824:1 1092:1 1098:1 2021:2 2139:1 2274:1 2654:1 4408:1 5443:1 5659:1 8714:1 8715:1 8716:1 8717:1 8718:1 8719:1 12103:1 12105:1 
-0.10591947388692016 3:5 5:1 7:4 390:1 457:1 540:1 1071:1 1739:1 8768:1 8769:1 8770:1 8771:1 8772:1 12103:1 12105:1 
-0.031721615235425972 3:2 5:1 7:2 13:1 51:1 60:1 70:1 72:1 82:1 127:2 173:1 205:1 377:1 538:1 720:1 1107:1 1137:1 1950:1 2586:1 3370:1 3898:1 5234:1 8783:1 8784:1 8785:1 12103:1 12105:1 
-0.35636858436146174 5:1 7:3 80:1 182:1 205:1 496:1 967:1 1659:1 2586:1 12103:1 12105:1 
-0.016452616372195885 3:1 5:1 7:2 13:1 54:1 86:1 87:1 173:1 195:1 1116:1 2440:1 3399:1 4462:1 7945:1 8812:1 8813:1 12103:1 12105:1 
-0.00090066250843764918 3:4 5:1 7:1 9:1 13:2 14:8 19:1 24:1 44:3 49:3 51:1 55:1 60:1 80:1 86:1 87:1 91:2 114:1 115:1 117:2 127:1 132:1 157:1 158:1 173:2 187:1 289:1 307:1 335:1 418:2 421:2 512:2 614:1 807:1 941:1 1499:1 1665:3 1671:1 2997:1 3729:1 3821:1 4180:1 4532:1 4966:2 5258:3 5721:1 5827:1 6451:1 7079:1 8814:1 8815:1 8816:1 8817:3 8818:1 8819:2 8820:2 8821:2 8822:1 12103:1 12105:1 
-0.012990472698642922 3:8 5:5 7:1 9:3 13:2 14:2 19:3 49:1 54:2 80:1 91:2 109:1 122:1 131:1 160:1 173:2 243:1 420:1 800:1 812:1 1249:1 1598:1 1729:1 1808:1 2753:1 2818:1 3581:1 3832:1 3859:1 3911:1 4101:1 4969:1 5070:1 5138:2 6899:1 8431:1 8840:1 8841:1 8842:1 8843:1 8844:1 8845:1 8846:1 8847:1 12103:1 12105:1 
-0.24608774111486534 5:5 7:6 23:1 32:1 36:1 70:1 72:1 91:1 142:1 148:1 164:1 166:3 394:1 409:1 418:1 421:1 459:1 1050:1 1321:1 1679:1 2197:1 2198:1 2199:1 2624:1 2634:1 3040:1 3344:1 8470:1 8672:1 8673:1 8859:1 8860:1 8861:1 8862:1 8863:1 8864:1 8865:1 8866:1 8867:1 8868:1 8869:1 8870:1 12103:1 12105:1 
-0.0084857091916994438 5:1 7:1 13:4 51:2 54:1 60:1 89:1 127:1 169:1 217:1 419:1 1019:1 1107:1 1137:1 1960:1 2000:1 2011:1 2876:1 4751:1 8912:1 8913:1 8914:1 8915:1 12103:1 12107:1 
-0.036513497113764684 7:3 24:1 51:1 64:1 109:1 205:2 546:1 1076:1 2274:1 2753:1 4647:1 5480:1 7210:1 8778:1 8841:1 9016:1 12103:1 12105:1 
-0.0099445375242386124 5:2 32:1 70:1 72:1 140:2 148:2 152:1 447:1 1063:2 1234:1 1890:1 3539:1 8539:1 9122:1 9123:2 9124:1 9125:1 9126:1 9127:1 9128:1 9129:1 9130:1 9131:1 12103:1 12105:1 
-0.018735334898128325 3:4 5:2 7:2 9:2 13:5 14:2 19:2 44:2 49:1 51:1 55:1 70:2 72:2 80:2 86:1 87:1 106:1 109:2 115:2 117:4 127:1 177:1 222:1 229:1 287:1 509:1 522:1 679:1 720:1 829:1 942:1 1034:1 2417:1 2500:1 3675:1 4375:1 4439:1 4743:1 5266:1 5366:1 5463:1 5831:1 6874:1 7015:1 7729:1 9133:1 9134:1 9135:1 9136:1 9137:1 9138:1 9139:1 9140:1 9141:1 9142:1 9143:1 9144:1 9145:1 9146:1 9147:1 9148:1 9149:1 12103:1 12105:1 
-0.094600822722091749 5:2 55:1 106:1 299:1 6739:1 7350:1 9183:2 12103:1 12107:1 
-0.02740235437717645 3:2 5:1 7:1 13:1 49:1 81:1 86:1 115:1 117:1 127:1 247:1 371:2 947:1 1555:1 1749:1 1923:1 2823:1 4067:1 5259:1 7857:1 9185:1 9186:1 9187:1 9188:1 12103:1 12105:1 
-0.096693386987934768 3:6 5:3 7:11 9:2 13:1 14:1 19:2 38:1 44:1 49:1 51:1 54:1 55:1 60:1 70:1 72:1 80:1 86:1 87:1 91:2 106:1 117:1 121:1 127:1 177:2 242:1 282:1 340:1 373:1 700:1 1120:1 1556:1 1560:1 1734:1 1774:1 2915:2 3597:2 4213:1 4650:1 6270:1 7079:1 7490:1 7709:1 7945:1 9256:1 9257:1 9258:1 9259:1 9260:1 9261:3 9262:1 9263:1 9264:1 9265:1 9266:1 9267:1 12103:1 12105:1 
-0.031566444223121819 5:1 7:1 13:4 14:1 49:1 51:1 64:1 86:1 173:1 177:1 1674:1 2079:1 2343:2 2675:1 3844:1 7076:1 7081:1 8222:1 8708:1 9268:1 9269:1 12103:1 12107:1 
-0.19511258343114474 5:2 7:4 128:1 475:1 478:1 480:1 481:1 3012:1 3013:1 3014:1 5311:1 12103:1 12105:1 
-0.048598965091742725 5:2 7:4 32:1 70:1 128:1 418:1 421:1 443:1 475:1 477:1 478:1 480:1 482:1 597:1 1119:1 1835:1 3570:1 5529:1 5928:1 8465:1 8466:1 8470:1 8498:1 9281:1 9282:1 9283:1 9284:1 12103:1 12105:1 
-0.013431982901321138 3:4 5:4 7:12 9:1 13:2 14:8 19:1 49:3 51:8 54:1 55:4 65:1 80:1 82:2 86:1 87:1 109:2 127:1 173:1 200:1 205:1 246:1 289:1 329:1 388:1 463:1 526:1 679:1 824:1 1035:1 1347:1 1464:1 1935:2 2067:1 2109:1 2753:1 2754:1 2784:1 2818:1 2823:1 3229:1 3230:1 3231:1 3458:1 4628:1 6110:1 6375:1 6673:1 6764:1 7342:1 9301:1 9302:1 9303:1 9304:1 9305:1 9306:1 9307:1 9308:1 9309:1 9310:1 9311:1 9312:1 9313:1 9314:1 9315:1 9316:1 9317:1 9318:1 9319:1 12103:1 12105:1 
-0.061935307660992187 3:1 5:2 7:3 157:1 158:1 500:1 501:1 502:1 1255:1 5127:1 9320:1 9321:1 12103:1 12105:1 
-0.0064473800195751548 5:4 58:2 70:2 72:1 142:3 435:1 495:1 596:6 597:1 886:6 958:2 2305:1 4095:1 4443:1 4614:1 5850:1 5923:1 9322:2 9323:2 9324:1 9325:1 9326:2 9327:1 9328:1 9329:1 9330:1 12103:1 12105:1 
-0.020638340672221256 5:1 13:2 14:1 49:1 51:1 55:1 70:1 72:1 247:1 281:1 409:1 1337:1 1545:1 1546:1 1960:1 2127:1 8942:1 9370:1 9371:1 9372:1 12103:1 12105:1 
-0.013947794484753541 3:2 5:1 9:1 14:1 19:1 60:1 1107:1 6056:1 9373:1 9374:1 9375:1 12103:1 12105:1 
-0.2881948888437405 5:1 127:1 631:1 1526:1 1808:1 2412:1 12103:1 12106:1 
-0.0086036653715625099 3:3 5:2 7:7 9:2 13:4 14:2 19:2 40:1 44:2 49:2 51:4 55:1 60:1 64:1 70:2 72:2 80:1 86:1 87:1 88:1 91:1 100:1 109:2 114:3 115:3 117:2 127:1 157:1 158:1 173:1 222:1 223:1 300:2 305:1 329:1 369:2 388:1 443:1 491:1 494:1 520:2 526:1 583:1 678:1 745:1 1035:1 1089:2 1092:2 1103:2 1106:1 1141:1 1347:2 1416:1 1983:1 2145:1 2156:1 2525:1 3160:2 3666:1 3822:1 4067:1 4071:1 4213:1 4237:1 4246:1 5231:1 5456:1 6025:1 9477:1 9478:1 9479:1 9480:1 9481:1 9482:1 9483:1 9484:1 9485:1 9486:1 9487:1 9488:1 9489:1 9490:1 9491:1 9492:1 9493:1 9494:1 9495:1 9496:1 9497:1 12103:1 12105:1 
-0.14202343094310846 3:2 5:1 7:1 9:1 14:1 19:1 54:1 80:1 97:1 106:1 114:1 115:1 187:1 205:1 222:1 299:1 335:1 546:1 763:1 2594:1 8779:1 9342:1 9501:1 9502:1 12103:1 12105:1 
-0.041106973887780701 5:2 7:4 13:1 14:1 61:1 64:1 70:1 72:1 80:1 109:1 117:2 127:2 152:1 187:1 202:1 299:1 358:1 364:1 371:4 520:1 522:1 784:1 1432:1 2782:1 2784:1 2869:1 2876:1 3460:1 3808:1 4049:1 4123:1 4252:1 4259:1 4938:1 5367:1 6881:1 9519:1 9520:1 9521:1 9522:1 9523:1 9524:1 9525:1 9526:1 9527:1 9528:1 12103:1 12105:1 
-0.14711621200395672 5:2 55:1 60:1 106:1 299:1 9556:1 9557:1 9558:1 12103:1 12107:1 
-0.0066055907963661637 3:3 5:1 7:2 9:1 13:3 14:2 19:1 49:1 55:1 78:1 80:2 86:1 91:1 115:1 127:1 160:1 166:2 238:1 247:1 347:1 374:1 639:1 736:1 1035:1 1443:1 1478:1 2782:1 3419:1 3841:1 4497:1 4582:1 4739:3 4971:1 5894:1 6610:1 7210:1 7985:1 9102:1 9606:1 9607:1 9608:1 9609:1 9610:1 9611:1 12103:1 12105:1 
-0.0091742024800290662 5:1 443:1 1068:1 3539:1 4443:1 4614:1 9649:1 9650:2 9651:1 9652:1 9653:1 9654:1 9655:1 12103:1 12107:1 
-0.013703957111474593 2:1 3:13 5:5 7:8 9:3 12:1 13:5 14:9 19:3 26:1 44:4 49:7 51:6 54:1 55:3 60:1 64:1 70:4 72:4 74:2 80:3 87:1 91:1 109:1 117:3 127:2 134:1 139:1 159:1 162:1 205:1 222:2 255:2 270:1 296:2 305:2 306:1 307:1 342:1 348:1 442:1 443:1 452:1 491:2 496:1 625:1 626:1 628:1 631:3 632:1 633:1 634:1 648:1 771:1 840:1 1092:1 1103:1 1104:1 1107:1 1256:1 1348:1 1423:1 1535:1 1762:1 1764:1 1939:2 2021:1 2561:1 2564:1 2752:1 2816:1 3038:1 3741:1 3841:1 3912:1 4448:1 4966:1 5936:2 6388:1 6614:1 8146:1 8728:1 8803:1 9673:1 9674:1 9675:1 9676:1 9677:1 9678:1 9679:1 9680:1 9681:1 9682:1 9683:1 9684:1 9685:1 9686:1 9687:1 9688:1 9689:1 9690:1 9691:1 9692:1 9693:1 9694:1 9695:1 9696:1 9697:1 9698:1 9699:1 9700:1 12103:1 12105:1 
-0.027513551709733436 5:3 7:6 13:2 14:2 44:1 49:2 54:1 55:2 80:1 86:4 87:2 109:2 115:1 117:3 177:1 187:1 289:2 299:1 376:2 625:1 679:1 784:1 824:2 1012:1 1014:2 1035:1 1337:1 1820:1 1824:1 1990:1 2343:2 2578:1 2823:1 4235:1 4604:1 5259:1 5962:1 6123:1 6591:1 6862:1 7247:1 7253:1 7796:1 9799:1 9800:1 9801:1 9802:1 9803:1 9804:1 9805:1 9806:1 9807:1 9808:1 9809:1 9810:1 9811:1 12103:1 12105:1 
-0.097122015566721204 3:1 7:3 58:1 70:1 72:1 80:1 91:1 142:1 148:1 409:1 1967:1 2386:1 2426:1 2717:1 2943:1 3073:1 3196:1 4105:1 4107:1 4108:1 4614:1 4615:1 5063:1 5309:1 9827:1 9828:1 9829:1 12103:1 12105:1 
